<?xml version="1.0"?>
<MethodSetup Method="BDT::BDTG_cuts200_depth4_trees1000_shrinkage0p1_elec">
  <GeneralInfo>
    <Info name="TMVA Release" value="4.2.1 [262657]"/>
    <Info name="ROOT Release" value="6.12/07 [396295]"/>
    <Info name="Creator" value="kskovpen"/>
    <Info name="Date" value="Mon Mar 23 04:14:18 2020"/>
    <Info name="Host" value="Linux cmsbuild13.cern.ch 3.10.0-1062.4.1.el7.x86_64 #1 SMP Fri Oct 18 17:15:30 UTC 2019 x86_64 x86_64 x86_64 GNU/Linux"/>
    <Info name="Dir" value="/storage_mnt/storage/user/kskovpen/analysis/LeptonMVA/CMSSW_10_2_20/src/TopLeptonMVA/Train/elec_TOP_2016/cuts200_depth4_trees1000_shrinkage0p1"/>
    <Info name="Training events" value="8646648"/>
    <Info name="TrainingTime" value="1.85798344e+04"/>
    <Info name="AnalysisType" value="Classification"/>
  </GeneralInfo>
  <Options>
    <Option name="V" modified="Yes">False</Option>
    <Option name="VerbosityLevel" modified="No">Default</Option>
    <Option name="VarTransform" modified="No">None</Option>
    <Option name="H" modified="Yes">False</Option>
    <Option name="CreateMVAPdfs" modified="No">False</Option>
    <Option name="IgnoreNegWeightsInTraining" modified="Yes">True</Option>
    <Option name="NTrees" modified="Yes">1000</Option>
    <Option name="MaxDepth" modified="Yes">4</Option>
    <Option name="MinNodeSize" modified="Yes">2.5%</Option>
    <Option name="nCuts" modified="Yes">200</Option>
    <Option name="BoostType" modified="Yes">Grad</Option>
    <Option name="AdaBoostR2Loss" modified="No">quadratic</Option>
    <Option name="UseBaggedBoost" modified="Yes">True</Option>
    <Option name="Shrinkage" modified="Yes">1.000000e-01</Option>
    <Option name="AdaBoostBeta" modified="No">5.000000e-01</Option>
    <Option name="UseRandomisedTrees" modified="No">False</Option>
    <Option name="UseNvars" modified="No">4</Option>
    <Option name="UsePoissonNvars" modified="No">True</Option>
    <Option name="BaggedSampleFraction" modified="No">6.000000e-01</Option>
    <Option name="UseYesNoLeaf" modified="No">True</Option>
    <Option name="NegWeightTreatment" modified="No">pray</Option>
    <Option name="Css" modified="No">1.000000e+00</Option>
    <Option name="Cts_sb" modified="No">1.000000e+00</Option>
    <Option name="Ctb_ss" modified="No">1.000000e+00</Option>
    <Option name="Cbb" modified="No">1.000000e+00</Option>
    <Option name="NodePurityLimit" modified="No">5.000000e-01</Option>
    <Option name="SeparationType" modified="No">giniindex</Option>
    <Option name="RegressionLossFunctionBDTG" modified="No">huber</Option>
    <Option name="HuberQuantile" modified="No">7.000000e-01</Option>
    <Option name="DoBoostMonitor" modified="Yes">True</Option>
    <Option name="UseFisherCuts" modified="No">False</Option>
    <Option name="MinLinCorrForFisher" modified="No">8.000000e-01</Option>
    <Option name="UseExclusiveVars" modified="No">False</Option>
    <Option name="DoPreselection" modified="No">False</Option>
    <Option name="SigToBkgFraction" modified="No">1.000000e+00</Option>
    <Option name="PruneMethod" modified="No">nopruning</Option>
    <Option name="PruneStrength" modified="No">0.000000e+00</Option>
    <Option name="PruningValFraction" modified="No">5.000000e-01</Option>
    <Option name="SkipNormalization" modified="No">False</Option>
    <Option name="nEventsMin" modified="No">0</Option>
    <Option name="UseBaggedGrad" modified="No">False</Option>
    <Option name="GradBaggingFraction" modified="No">6.000000e-01</Option>
    <Option name="UseNTrainEvents" modified="No">0</Option>
    <Option name="NNodesMax" modified="No">0</Option>
  </Options>
  <Variables NVar="13">
    <Variable VarIndex="0" Expression="dxylog" Label="dxylog" Title="dxylog" Unit="" Internal="dxylog" Type="F" Min="-4.37491150e+01" Max="-2.99573874e+00"/>
    <Variable VarIndex="1" Expression="miniIsoCharged" Label="miniIsoCharged" Title="miniIsoCharged" Unit="" Internal="miniIsoCharged" Type="F" Min="0.00000000e+00" Max="3.99998784e-01"/>
    <Variable VarIndex="2" Expression="miniIsoNeutral" Label="miniIsoNeutral" Title="miniIsoNeutral" Unit="" Internal="miniIsoNeutral" Type="F" Min="0.00000000e+00" Max="3.99999589e-01"/>
    <Variable VarIndex="3" Expression="pTRel" Label="pTRel" Title="pTRel" Unit="" Internal="pTRel" Type="F" Min="0.00000000e+00" Max="1.62634436e+03"/>
    <Variable VarIndex="4" Expression="sip3d" Label="sip3d" Title="sip3d" Unit="" Internal="sip3d" Type="F" Min="5.43472474e-04" Max="7.99999809e+00"/>
    <Variable VarIndex="5" Expression="mvaIdFall17v2noIso" Label="mvaIdFall17v2noIso" Title="mvaIdFall17v2noIso" Unit="" Internal="mvaIdFall17v2noIso" Type="F" Min="-1.00000000e+00" Max="1.00000000e+00"/>
    <Variable VarIndex="6" Expression="ptRatio" Label="ptRatio" Title="ptRatio" Unit="" Internal="ptRatio" Type="F" Min="7.82574434e-03" Max="1.50000000e+00"/>
    <Variable VarIndex="7" Expression="bTagDeepJetClosestJet" Label="bTagDeepJetClosestJet" Title="bTagDeepJetClosestJet" Unit="" Internal="bTagDeepJetClosestJet" Type="F" Min="0.00000000e+00" Max="9.99996662e-01"/>
    <Variable VarIndex="8" Expression="pt" Label="pt" Title="pt" Unit="" Internal="pt" Type="F" Min="1.00000038e+01" Max="1.93027087e+03"/>
    <Variable VarIndex="9" Expression="trackMultClosestJet" Label="trackMultClosestJet" Title="trackMultClosestJet" Unit="" Internal="trackMultClosestJet" Type="F" Min="0.00000000e+00" Max="3.50000000e+01"/>
    <Variable VarIndex="10" Expression="etaAbs" Label="etaAbs" Title="etaAbs" Unit="" Internal="etaAbs" Type="F" Min="1.63027096e-07" Max="2.49999714e+00"/>
    <Variable VarIndex="11" Expression="dzlog" Label="dzlog" Title="dzlog" Unit="" Internal="dzlog" Type="F" Min="-2.03830185e+01" Max="-2.30258560e+00"/>
    <Variable VarIndex="12" Expression="relIso" Label="relIso" Title="relIso" Unit="" Internal="relIso" Type="F" Min="0.00000000e+00" Max="5.88386078e+01"/>
  </Variables>
  <Spectators NSpec="0"/>
  <Classes NClass="2">
    <Class Name="Signal" Index="0"/>
    <Class Name="Background" Index="1"/>
  </Classes>
  <Transformations NTransformations="0"/>
  <MVAPdfs/>
  <Weights NTrees="1000" AnalysisType="1">
    <BinaryTree type="DecisionTree" boostWeight="1.0000000000000000e+00" itree="0">
      <Node pos="s" depth="0" NCoef="0" IVar="5" Cut="9.9004977941513062e-01" cType="1" res="-4.7824648208916187e-04" rms="4.9999976158142090e-01" purity="4.9952173233032227e-01" nType="0">
        <Node pos="l" depth="1" NCoef="0" IVar="5" Cut="5.8411908149719238e-01" cType="1" res="-4.3892291188240051e-01" rms="2.3947168886661530e-01" purity="6.1077095568180084e-02" nType="0">
          <Node pos="l" depth="2" NCoef="0" IVar="5" Cut="-5.9017956256866455e-01" cType="1" res="-4.7993400692939758e-01" rms="1.4022611081600189e-01" purity="2.0066007971763611e-02" nType="0">
            <Node pos="l" depth="3" NCoef="0" IVar="6" Cut="8.2159638404846191e-01" cType="1" res="-4.9135449528694153e-01" rms="9.2578463256359100e-02" purity="8.6455158889293671e-03" nType="0">
              <Node pos="l" depth="4" NCoef="0" IVar="-1" Cut="0.0000000000000000e+00" cType="1" res="-9.8991423845291138e-02" rms="7.0833854377269745e-02" purity="5.0428654067218304e-03" nType="-99"/>
              <Node pos="r" depth="4" NCoef="0" IVar="-1" Cut="0.0000000000000000e+00" cType="1" res="-9.3436382710933685e-02" rms="1.7816020548343658e-01" purity="3.2818082720041275e-02" nType="-99"/>
            </Node>
            <Node pos="r" depth="3" NCoef="0" IVar="-1" Cut="0.0000000000000000e+00" cType="1" res="-8.4285072982311249e-02" rms="2.6907372474670410e-01" purity="7.8574642539024353e-02" nType="-99"/>
          </Node>
          <Node pos="r" depth="2" NCoef="0" IVar="6" Cut="7.6656448841094971e-01" cType="1" res="-2.5890424847602844e-01" rms="4.2774829268455505e-01" purity="2.4109576642513275e-01" nType="0">
            <Node pos="l" depth="3" NCoef="0" IVar="-1" Cut="0.0000000000000000e+00" cType="1" res="-7.9605557024478912e-02" rms="3.0261176824569702e-01" purity="1.0197221487760544e-01" nType="-99"/>
            <Node pos="r" depth="3" NCoef="0" IVar="-1" Cut="0.0000000000000000e+00" cType="1" res="4.1364752687513828e-03" rms="4.9957206845283508e-01" purity="5.2068239450454712e-01" nType="-99"/>
          </Node>
        </Node>
        <Node pos="r" depth="1" NCoef="0" IVar="6" Cut="7.7577131986618042e-01" cType="1" res="3.1260764598846436e-01" rms="3.9022615551948547e-01" purity="8.1260764598846436e-01" nType="0">
          <Node pos="l" depth="2" NCoef="0" IVar="3" Cut="6.0916209220886230e+00" cType="1" res="-1.2477595359086990e-01" rms="4.8418071866035461e-01" purity="3.7522402405738831e-01" nType="0">
            <Node pos="l" depth="3" NCoef="0" IVar="7" Cut="2.6367640495300293e-01" cType="1" res="-3.0289152264595032e-01" rms="3.9781492948532104e-01" purity="1.9710846245288849e-01" nType="0">
              <Node pos="l" depth="4" NCoef="0" IVar="-1" Cut="0.0000000000000000e+00" cType="1" res="-1.9293464720249176e-02" rms="4.9060580134391785e-01" purity="4.0353265404701233e-01" nType="-99"/>
              <Node pos="r" depth="4" NCoef="0" IVar="-1" Cut="0.0000000000000000e+00" cType="1" res="-8.9995823800563812e-02" rms="2.1798805892467499e-01" purity="5.0020884722471237e-02" nType="-99"/>
            </Node>
            <Node pos="r" depth="3" NCoef="0" IVar="-1" Cut="0.0000000000000000e+00" cType="1" res="6.3372924923896790e-02" rms="3.8677749037742615e-01" purity="8.1686460971832275e-01" nType="-99"/>
          </Node>
          <Node pos="r" depth="2" NCoef="0" IVar="7" Cut="1.6913978755474091e-01" cType="1" res="4.6418797969818115e-01" rms="1.8582122027873993e-01" purity="9.6418797969818115e-01" nType="0">
            <Node pos="l" depth="3" NCoef="0" IVar="12" Cut="5.6430459022521973e-02" cType="1" res="4.8199817538261414e-01" rms="1.3295769691467285e-01" purity="9.8199814558029175e-01" nType="0">
              <Node pos="l" depth="4" NCoef="0" IVar="-1" Cut="0.0000000000000000e+00" cType="1" res="9.8461702466011047e-02" rms="8.7363258004188538e-02" purity="9.9230849742889404e-01" nType="-99"/>
              <Node pos="r" depth="4" NCoef="0" IVar="-1" Cut="0.0000000000000000e+00" cType="1" res="7.8298665583133698e-02" rms="3.1101924180984497e-01" purity="8.9149332046508789e-01" nType="-99"/>
            </Node>
            <Node pos="r" depth="3" NCoef="0" IVar="-1" Cut="0.0000000000000000e+00" cType="1" res="3.5460196435451508e-02" rms="4.6750867366790771e-01" purity="6.7730098962783813e-01" nType="-99"/>
          </Node>
        </Node>
      </Node>
    </BinaryTree>
    <BinaryTree type="DecisionTree" boostWeight="1.0000000000000000e+00" itree="1">
      <Node pos="s" depth="0" NCoef="0" IVar="5" Cut="9.9004977941513062e-01" cType="1" res="4.7426761739188805e-05" rms="4.6058952808380127e-01" purity="5.0002849102020264e-01" nType="0">
        <Node pos="l" depth="1" NCoef="0" IVar="5" Cut="7.1282881498336792e-01" cType="1" res="-3.9470079541206360e-01" rms="2.3421236872673035e-01" purity="6.1542201787233353e-02" nType="0">
          <Node pos="l" depth="2" NCoef="0" IVar="6" Cut="8.5846614837646484e-01" cType="1" res="-4.2961201071739197e-01" rms="1.4888329803943634e-01" purity="2.3041371256113052e-02" nType="0">
            <Node pos="l" depth="3" NCoef="0" IVar="5" Cut="-3.0975681543350220e-01" cType="1" res="-4.3882265686988831e-01" rms="1.1448477208614349e-01" purity="1.3418810442090034e-02" nType="0">
              <Node pos="l" depth="4" NCoef="0" IVar="-1" Cut="0.0000000000000000e+00" cType="1" res="-8.9734442532062531e-02" rms="8.1795394420623779e-02" purity="6.7521468736231327e-03" nType="-99"/>
              <Node pos="r" depth="4" NCoef="0" IVar="-1" Cut="0.0000000000000000e+00" cType="1" res="-8.0983541905879974e-02" rms="2.3206163942813873e-01" purity="5.7361427694559097e-02" nType="-99"/>
            </Node>
            <Node pos="r" depth="3" NCoef="0" IVar="-1" Cut="0.0000000000000000e+00" cType="1" res="-7.0401981472969055e-02" rms="3.0668729543685913e-01" purity="1.0705640166997910e-01" nType="-99"/>
          </Node>
          <Node pos="r" depth="2" NCoef="0" IVar="6" Cut="7.4660378694534302e-01" cType="1" res="-2.1836449205875397e-01" rms="4.2745485901832581e-01" purity="2.5600960850715637e-01" nType="0">
            <Node pos="l" depth="3" NCoef="0" IVar="-1" Cut="0.0000000000000000e+00" cType="1" res="-7.1725949645042419e-02" rms="3.0514949560165405e-01" purity="1.0391441732645035e-01" nType="-99"/>
            <Node pos="r" depth="3" NCoef="0" IVar="-1" Cut="0.0000000000000000e+00" cType="1" res="3.6538771819323301e-03" rms="4.9770104885101318e-01" purity="5.1679784059524536e-01" nType="-99"/>
          </Node>
        </Node>
        <Node pos="r" depth="1" NCoef="0" IVar="1" Cut="5.3729742765426636e-02" cType="1" res="2.8176853060722351e-01" rms="3.6581239104270935e-01" purity="8.1296432018280029e-01" nType="0">
          <Node pos="l" depth="2" NCoef="0" IVar="7" Cut="3.2338047027587891e-01" cType="1" res="3.8091945648193359e-01" rms="2.5609356164932251e-01" purity="9.2040812969207764e-01" nType="0">
            <Node pos="l" depth="3" NCoef="0" IVar="12" Cut="1.3128876686096191e-01" cType="1" res="4.1784116625785828e-01" rms="1.8699535727500916e-01" purity="9.6113926172256470e-01" nType="0">
              <Node pos="l" depth="4" NCoef="0" IVar="-1" Cut="0.0000000000000000e+00" cType="1" res="8.7770007550716400e-02" rms="1.3599032163619995e-01" purity="9.8041826486587524e-01" nType="-99"/>
              <Node pos="r" depth="4" NCoef="0" IVar="-1" Cut="0.0000000000000000e+00" cType="1" res="3.6516424268484116e-02" rms="4.4902133941650391e-01" purity="6.9628620147705078e-01" nType="-99"/>
            </Node>
            <Node pos="r" depth="3" NCoef="0" IVar="-1" Cut="0.0000000000000000e+00" cType="1" res="-2.5005983188748360e-02" rms="4.5893344283103943e-01" purity="3.6302366852760315e-01" nType="-99"/>
          </Node>
          <Node pos="r" depth="2" NCoef="0" IVar="7" Cut="1.8905100226402283e-01" cType="1" res="-2.8572317957878113e-01" rms="3.8216143846511841e-01" purity="1.9800803065299988e-01" nType="0">
            <Node pos="l" depth="3" NCoef="0" IVar="-1" Cut="0.0000000000000000e+00" cType="1" res="-1.8802169710397720e-02" rms="4.8161458969116211e-01" purity="4.1509458422660828e-01" nType="-99"/>
            <Node pos="r" depth="3" NCoef="0" IVar="-1" Cut="0.0000000000000000e+00" cType="1" res="-7.9950012266635895e-02" rms="2.4986472725868225e-01" purity="7.2057552635669708e-02" nType="-99"/>
          </Node>
        </Node>
      </Node>
    </BinaryTree>
    <BinaryTree type="DecisionTree" boostWeight="1.0000000000000000e+00" itree="2">
      <Node pos="s" depth="0" NCoef="0" IVar="5" Cut="9.9004977941513062e-01" cType="1" res="1.5417650865856558e-04" rms="4.2612618207931519e-01" purity="5.0014317035675049e-01" nType="0">
        <Node pos="l" depth="1" NCoef="0" IVar="6" Cut="9.0609979629516602e-01" cType="1" res="-3.5582846403121948e-01" rms="2.2882606089115143e-01" purity="6.1341099441051483e-02" nType="0">
          <Node pos="l" depth="2" NCoef="0" IVar="5" Cut="8.0193549394607544e-01" cType="1" res="-3.7700405716896057e-01" rms="1.8382307887077332e-01" purity="3.7443626672029495e-02" nType="0">
            <Node pos="l" depth="3" NCoef="0" IVar="5" Cut="-2.1109364926815033e-01" cType="1" res="-3.9329671859741211e-01" rms="1.2676900625228882e-01" purity="1.6728088259696960e-02" nType="0">
              <Node pos="l" depth="4" NCoef="0" IVar="-1" Cut="0.0000000000000000e+00" cType="1" res="-8.2818068563938141e-02" rms="8.7812937796115875e-02" purity="7.8098489902913570e-03" nType="-99"/>
              <Node pos="r" depth="4" NCoef="0" IVar="-1" Cut="0.0000000000000000e+00" cType="1" res="-7.2125546634197235e-02" rms="2.5651815533638000e-01" purity="7.1914747357368469e-02" nType="-99"/>
            </Node>
            <Node pos="r" depth="3" NCoef="0" IVar="-1" Cut="0.0000000000000000e+00" cType="1" res="-5.5125441402196884e-02" rms="3.6904802918434143e-01" purity="1.7233534157276154e-01" nType="-99"/>
          </Node>
          <Node pos="r" depth="2" NCoef="0" IVar="-1" Cut="0.0000000000000000e+00" cType="1" res="-2.3212667554616928e-02" rms="4.4810336828231812e-01" purity="3.3413201570510864e-01" nType="-99"/>
        </Node>
        <Node pos="r" depth="1" NCoef="0" IVar="12" Cut="1.2255935370922089e-01" cType="1" res="2.5392547249794006e-01" rms="3.4491273760795593e-01" purity="8.1295448541641235e-01" nType="0">
          <Node pos="l" depth="2" NCoef="0" IVar="7" Cut="2.1890063583850861e-01" cType="1" res="3.7656110525131226e-01" rms="1.8222591280937195e-01" purity="9.6018189191818237e-01" nType="0">
            <Node pos="l" depth="3" NCoef="0" IVar="5" Cut="9.9965351819992065e-01" cType="1" res="3.9338982105255127e-01" rms="1.3152422010898590e-01" purity="9.8159003257751465e-01" nType="0">
              <Node pos="l" depth="4" NCoef="0" IVar="-1" Cut="0.0000000000000000e+00" cType="1" res="6.3070654869079590e-02" rms="3.1017103791236877e-01" purity="8.8755071163177490e-01" nType="-99"/>
              <Node pos="r" depth="4" NCoef="0" IVar="-1" Cut="0.0000000000000000e+00" cType="1" res="8.3015814423561096e-02" rms="9.4448722898960114e-02" purity="9.9062532186508179e-01" nType="-99"/>
            </Node>
            <Node pos="r" depth="3" NCoef="0" IVar="-1" Cut="0.0000000000000000e+00" cType="1" res="1.8587511032819748e-02" rms="4.6517342329025269e-01" purity="5.9833806753158569e-01" nType="-99"/>
          </Node>
          <Node pos="r" depth="2" NCoef="0" IVar="3" Cut="5.8465266227722168e+00" cType="1" res="-1.6814965009689331e-01" rms="4.2919811606407166e-01" purity="3.0624175071716309e-01" nType="0">
            <Node pos="l" depth="3" NCoef="0" IVar="7" Cut="1.7910061776638031e-01" cType="1" res="-2.8981947898864746e-01" rms="3.5164815187454224e-01" purity="1.6623504459857941e-01" nType="0">
              <Node pos="l" depth="4" NCoef="0" IVar="-1" Cut="0.0000000000000000e+00" cType="1" res="-2.3691568523645401e-02" rms="4.7511434555053711e-01" purity="3.8415855169296265e-01" nType="-99"/>
              <Node pos="r" depth="4" NCoef="0" IVar="-1" Cut="0.0000000000000000e+00" cType="1" res="-7.7472075819969177e-02" rms="2.1734622120857239e-01" purity="5.2869409322738647e-02" nType="-99"/>
            </Node>
            <Node pos="r" depth="3" NCoef="0" IVar="-1" Cut="0.0000000000000000e+00" cType="1" res="3.8238048553466797e-02" rms="4.3662363290786743e-01" purity="7.1827799081802368e-01" nType="-99"/>
          </Node>
        </Node>
      </Node>
    </BinaryTree>
    <BinaryTree type="DecisionTree" boostWeight="1.0000000000000000e+00" itree="3">
      <Node pos="s" depth="0" NCoef="0" IVar="5" Cut="9.9004977941513062e-01" cType="1" res="-1.5805254224687815e-04" rms="3.9587107300758362e-01" purity="4.9978727102279663e-01" nType="0">
        <Node pos="l" depth="1" NCoef="0" IVar="5" Cut="6.3362282514572144e-01" cType="1" res="-3.2093936204910278e-01" rms="2.2583366930484772e-01" purity="6.1216801404953003e-02" nType="0">
          <Node pos="l" depth="2" NCoef="0" IVar="5" Cut="-7.4804872274398804e-01" cType="1" res="-3.5180461406707764e-01" rms="1.4078432321548462e-01" purity="2.0940294489264488e-02" nType="0">
            <Node pos="l" depth="3" NCoef="0" IVar="5" Cut="-9.7367697954177856e-01" cType="1" res="-3.6318510770797729e-01" rms="8.3366312086582184e-02" purity="7.0802234113216400e-03" nType="0">
              <Node pos="l" depth="4" NCoef="0" IVar="-1" Cut="0.0000000000000000e+00" cType="1" res="-7.8691974282264709e-02" rms="5.7561915367841721e-02" purity="3.3041010610759258e-03" nType="-99"/>
              <Node pos="r" depth="4" NCoef="0" IVar="-1" Cut="0.0000000000000000e+00" cType="1" res="-7.5182452797889709e-02" rms="1.3946355879306793e-01" purity="2.0267611369490623e-02" nType="-99"/>
            </Node>
            <Node pos="r" depth="3" NCoef="0" IVar="1" Cut="4.1790455579757690e-02" cType="1" res="-3.0874431133270264e-01" rms="2.5724157691001892e-01" purity="7.3382601141929626e-02" nType="0">
              <Node pos="l" depth="4" NCoef="0" IVar="-1" Cut="0.0000000000000000e+00" cType="1" res="-5.2777886390686035e-02" rms="3.3838751912117004e-01" purity="1.3588881492614746e-01" nType="-99"/>
              <Node pos="r" depth="4" NCoef="0" IVar="-1" Cut="0.0000000000000000e+00" cType="1" res="-7.6372161507606506e-02" rms="1.3803994655609131e-01" purity="1.9624061882495880e-02" nType="-99"/>
            </Node>
          </Node>
          <Node pos="r" depth="2" NCoef="0" IVar="12" Cut="1.2946113944053650e-01" cType="1" res="-1.7876560986042023e-01" rms="4.1234159469604492e-01" purity="2.4674127995967865e-01" nType="0">
            <Node pos="l" depth="3" NCoef="0" IVar="-1" Cut="0.0000000000000000e+00" cType="1" res="1.4485392719507217e-02" rms="4.8763653635978699e-01" purity="5.3237164020538330e-01" nType="-99"/>
            <Node pos="r" depth="3" NCoef="0" IVar="-1" Cut="0.0000000000000000e+00" cType="1" res="-6.7331574857234955e-02" rms="2.7107289433479309e-01" purity="8.1330314278602600e-02" nType="-99"/>
          </Node>
        </Node>
        <Node pos="r" depth="1" NCoef="0" IVar="12" Cut="1.3128876686096191e-01" cType="1" res="2.2874595224857330e-01" rms="3.2607319951057434e-01" purity="8.1274360418319702e-01" nType="0">
          <Node pos="l" depth="2" NCoef="0" IVar="7" Cut="2.2885066270828247e-01" cType="1" res="3.3747589588165283e-01" rms="1.8479910492897034e-01" purity="9.5732390880584717e-01" nType="0">
            <Node pos="l" depth="3" NCoef="0" IVar="5" Cut="9.9940598011016846e-01" cType="1" res="3.5367149114608765e-01" rms="1.3614776730537415e-01" purity="9.7993904352188110e-01" nType="0">
              <Node pos="l" depth="4" NCoef="0" IVar="-1" Cut="0.0000000000000000e+00" cType="1" res="5.4290011525154114e-02" rms="3.3275461196899414e-01" purity="8.6709082126617432e-01" nType="-99"/>
              <Node pos="r" depth="4" NCoef="0" IVar="-1" Cut="0.0000000000000000e+00" cType="1" res="7.7252484858036041e-02" rms="1.0434855520725250e-01" purity="9.8839414119720459e-01" nType="-99"/>
            </Node>
            <Node pos="r" depth="3" NCoef="0" IVar="-1" Cut="0.0000000000000000e+00" cType="1" res="1.2353498488664627e-02" rms="4.6875303983688354e-01" purity="5.7147258520126343e-01" nType="-99"/>
          </Node>
          <Node pos="r" depth="2" NCoef="0" IVar="3" Cut="5.9120163917541504e+00" cType="1" res="-1.6036410629749298e-01" rms="4.1339281201362610e-01" purity="2.9533633589744568e-01" nType="0">
            <Node pos="l" depth="3" NCoef="0" IVar="7" Cut="2.1890117228031158e-01" cType="1" res="-2.6780176162719727e-01" rms="3.4201911091804504e-01" purity="1.5836817026138306e-01" nType="0">
              <Node pos="l" depth="4" NCoef="0" IVar="-1" Cut="0.0000000000000000e+00" cType="1" res="-2.6225978508591652e-02" rms="4.6709951758384705e-01" purity="3.5369095206260681e-01" nType="-99"/>
              <Node pos="r" depth="4" NCoef="0" IVar="-1" Cut="0.0000000000000000e+00" cType="1" res="-7.3407746851444244e-02" rms="1.9811388850212097e-01" purity="4.2646527290344238e-02" nType="-99"/>
            </Node>
            <Node pos="r" depth="3" NCoef="0" IVar="-1" Cut="0.0000000000000000e+00" cType="1" res="3.4488454461097717e-02" rms="4.3809929490089417e-01" purity="7.1707171201705933e-01" nType="-99"/>
          </Node>
        </Node>
      </Node>
    </BinaryTree>
    <BinaryTree type="DecisionTree" boostWeight="1.0000000000000000e+00" itree="4">
      <Node pos="s" depth="0" NCoef="0" IVar="5" Cut="9.9004977941513062e-01" cType="1" res="-2.1452420332934707e-04" rms="3.6884209513664246e-01" purity="4.9966228008270264e-01" nType="0">
        <Node pos="l" depth="1" NCoef="0" IVar="6" Cut="9.2214173078536987e-01" cType="1" res="-2.8944206237792969e-01" rms="2.2101686894893646e-01" purity="6.1279691755771637e-02" nType="0">
          <Node pos="l" depth="2" NCoef="0" IVar="5" Cut="8.5143923759460449e-01" cType="1" res="-3.0604454874992371e-01" rms="1.8437804281711578e-01" purity="3.9691127836704254e-02" nType="0">
            <Node pos="l" depth="3" NCoef="0" IVar="5" Cut="-5.1180976629257202e-01" cType="1" res="-3.1945025920867920e-01" rms="1.3358187675476074e-01" purity="1.9198264926671982e-02" nType="0">
              <Node pos="l" depth="4" NCoef="0" IVar="-1" Cut="0.0000000000000000e+00" cType="1" res="-7.3518149554729462e-02" rms="8.0872692167758942e-02" purity="6.6316626034677029e-03" nType="-99"/>
              <Node pos="r" depth="4" NCoef="0" IVar="-1" Cut="0.0000000000000000e+00" cType="1" res="-6.2924720346927643e-02" rms="2.5231683254241943e-01" purity="7.1394793689250946e-02" nType="-99"/>
            </Node>
            <Node pos="r" depth="3" NCoef="0" IVar="-1" Cut="0.0000000000000000e+00" cType="1" res="-4.4001437723636627e-02" rms="3.7461882829666138e-01" purity="1.8826018273830414e-01" nType="-99"/>
          </Node>
          <Node pos="r" depth="2" NCoef="0" IVar="-1" Cut="0.0000000000000000e+00" cType="1" res="-1.3737807050347328e-02" rms="4.4176518917083740e-01" purity="3.5196119546890259e-01" nType="-99"/>
        </Node>
        <Node pos="r" depth="1" NCoef="0" IVar="12" Cut="1.3128876686096191e-01" cType="1" res="2.0646142959594727e-01" rms="3.0961528420448303e-01" purity="8.1292128562927246e-01" nType="0">
          <Node pos="l" depth="2" NCoef="0" IVar="7" Cut="2.2884678840637207e-01" cType="1" res="3.0437529087066650e-01" rms="1.8239054083824158e-01" purity="9.5730954408645630e-01" nType="0">
            <Node pos="l" depth="3" NCoef="0" IVar="5" Cut="9.9955451488494873e-01" cType="1" res="3.1896308064460754e-01" rms="1.3603371381759644e-01" purity="9.7985762357711792e-01" nType="0">
              <Node pos="l" depth="4" NCoef="0" IVar="-1" Cut="0.0000000000000000e+00" cType="1" res="5.1367800682783127e-02" rms="3.2562768459320068e-01" purity="8.7349075078964233e-01" nType="-99"/>
              <Node pos="r" depth="4" NCoef="0" IVar="-1" Cut="0.0000000000000000e+00" cType="1" res="7.3025152087211609e-02" rms="1.0132777690887451e-01" purity="9.8909932374954224e-01" nType="-99"/>
            </Node>
            <Node pos="r" depth="3" NCoef="0" IVar="-1" Cut="0.0000000000000000e+00" cType="1" res="1.1064616031944752e-02" rms="4.6894714236259460e-01" purity="5.7144379615783691e-01" nType="-99"/>
          </Node>
          <Node pos="r" depth="2" NCoef="0" IVar="3" Cut="5.9120163917541504e+00" cType="1" res="-1.4412470161914825e-01" rms="4.0342268347740173e-01" purity="2.9593080282211304e-01" nType="0">
            <Node pos="l" depth="3" NCoef="0" IVar="7" Cut="1.6417555510997772e-01" cType="1" res="-2.4144308269023895e-01" rms="3.3885145187377930e-01" purity="1.5825860202312469e-01" nType="0">
              <Node pos="l" depth="4" NCoef="0" IVar="-1" Cut="0.0000000000000000e+00" cType="1" res="-2.0504772663116455e-02" rms="4.7353520989418030e-01" purity="3.7380310893058777e-01" nType="-99"/>
              <Node pos="r" depth="4" NCoef="0" IVar="-1" Cut="0.0000000000000000e+00" cType="1" res="-6.6714793443679810e-02" rms="2.2240932285785675e-01" purity="5.6219693273305893e-02" nType="-99"/>
            </Node>
            <Node pos="r" depth="3" NCoef="0" IVar="-1" Cut="0.0000000000000000e+00" cType="1" res="3.1443748623132706e-02" rms="4.3776997923851013e-01" purity="7.1797817945480347e-01" nType="-99"/>
          </Node>
        </Node>
      </Node>
    </BinaryTree>
    <BinaryTree type="DecisionTree" boostWeight="1.0000000000000000e+00" itree="5">
      <Node pos="s" depth="0" NCoef="0" IVar="5" Cut="9.9004977941513062e-01" cType="1" res="3.3895339583978057e-05" rms="3.4579592943191528e-01" purity="4.9991881847381592e-01" nType="0">
        <Node pos="l" depth="1" NCoef="0" IVar="5" Cut="4.5540946722030640e-01" cType="1" res="-2.6119855046272278e-01" rms="2.1875956654548645e-01" purity="6.1142701655626297e-02" nType="0">
          <Node pos="l" depth="2" NCoef="0" IVar="5" Cut="-7.9001599550247192e-01" cType="1" res="-2.8971222043037415e-01" rms="1.2947836518287659e-01" purity="1.7904063686728477e-02" nType="0">
            <Node pos="l" depth="3" NCoef="0" IVar="5" Cut="-9.8015087842941284e-01" cType="1" res="-2.9760986566543579e-01" rms="8.0154731869697571e-02" purity="6.5017729066312313e-03" nType="0">
              <Node pos="l" depth="4" NCoef="0" IVar="-1" Cut="0.0000000000000000e+00" cType="1" res="-7.1155846118927002e-02" rms="5.5143028497695923e-02" purity="2.9494364280253649e-03" nType="-99"/>
              <Node pos="r" depth="4" NCoef="0" IVar="-1" Cut="0.0000000000000000e+00" cType="1" res="-6.7916214466094971e-02" rms="1.3079822063446045e-01" purity="1.7840838059782982e-02" nType="-99"/>
            </Node>
            <Node pos="r" depth="3" NCoef="0" IVar="-1" Cut="0.0000000000000000e+00" cType="1" res="-5.9267155826091766e-02" rms="2.3832584917545319e-01" purity="6.3422903418540955e-02" nType="-99"/>
          </Node>
          <Node pos="r" depth="2" NCoef="0" IVar="12" Cut="1.2946113944053650e-01" cType="1" res="-1.4797832071781158e-01" rms="3.9403429627418518e-01" purity="2.3283173143863678e-01" nType="0">
            <Node pos="l" depth="3" NCoef="0" IVar="-1" Cut="0.0000000000000000e+00" cType="1" res="1.4452767558395863e-02" rms="4.8330420255661011e-01" purity="5.1116496324539185e-01" nType="-99"/>
            <Node pos="r" depth="3" NCoef="0" IVar="-1" Cut="0.0000000000000000e+00" cType="1" res="-5.9716500341892242e-02" rms="2.6446211338043213e-01" purity="7.7318415045738220e-02" nType="-99"/>
          </Node>
        </Node>
        <Node pos="r" depth="1" NCoef="0" IVar="1" Cut="5.9699714183807373e-02" cType="1" res="1.8662327527999878e-01" rms="2.9536846280097961e-01" purity="8.1332159042358398e-01" nType="0">
          <Node pos="l" depth="2" NCoef="0" IVar="7" Cut="4.1293197870254517e-01" cType="1" res="2.5430482625961304e-01" rms="2.2449912130832672e-01" purity="9.1759294271469116e-01" nType="0">
            <Node pos="l" depth="3" NCoef="0" IVar="2" Cut="5.5720169097185135e-02" cType="1" res="2.7837136387825012e-01" rms="1.8249677121639252e-01" purity="9.5537269115447998e-01" nType="0">
              <Node pos="l" depth="4" NCoef="0" IVar="-1" Cut="0.0000000000000000e+00" cType="1" res="6.7296482622623444e-02" rms="1.5124014019966125e-01" purity="9.7200244665145874e-01" nType="-99"/>
              <Node pos="r" depth="4" NCoef="0" IVar="-1" Cut="0.0000000000000000e+00" cType="1" res="2.0785048604011536e-02" rms="4.2476043105125427e-01" purity="6.6545307636260986e-01" nType="-99"/>
            </Node>
            <Node pos="r" depth="3" NCoef="0" IVar="-1" Cut="0.0000000000000000e+00" cType="1" res="-2.8439980000257492e-02" rms="4.0743455290794373e-01" purity="3.0650246143341064e-01" nType="-99"/>
          </Node>
          <Node pos="r" depth="2" NCoef="0" IVar="7" Cut="2.8357616066932678e-01" cType="1" res="-2.2289003431797028e-01" rms="3.3874005079269409e-01" purity="1.8241822719573975e-01" nType="0">
            <Node pos="l" depth="3" NCoef="0" IVar="-1" Cut="0.0000000000000000e+00" cType="1" res="-2.5951633229851723e-02" rms="4.4168555736541748e-01" purity="3.5766950249671936e-01" nType="-99"/>
            <Node pos="r" depth="3" NCoef="0" IVar="-1" Cut="0.0000000000000000e+00" cType="1" res="-6.6613517701625824e-02" rms="2.0712819695472717e-01" purity="5.2302364259958267e-02" nType="-99"/>
          </Node>
        </Node>
      </Node>
    </BinaryTree>
    <BinaryTree type="DecisionTree" boostWeight="1.0000000000000000e+00" itree="6">
      <Node pos="s" depth="0" NCoef="0" IVar="5" Cut="9.9004977941513062e-01" cType="1" res="2.0478255464695394e-04" rms="3.2536682486534119e-01" purity="5.0019019842147827e-01" nType="0">
        <Node pos="l" depth="1" NCoef="0" IVar="6" Cut="8.9125227928161621e-01" cType="1" res="-2.3546272516250610e-01" rms="2.1563588082790375e-01" purity="6.1544809490442276e-02" nType="0">
          <Node pos="l" depth="2" NCoef="0" IVar="5" Cut="9.1084367036819458e-01" cType="1" res="-2.5249034166336060e-01" rms="1.7407776415348053e-01" purity="3.5786762833595276e-02" nType="0">
            <Node pos="l" depth="3" NCoef="0" IVar="1" Cut="1.9900437910109758e-03" cType="1" res="-2.6089304685592651e-01" rms="1.3622355461120605e-01" purity="2.0426830276846886e-02" nType="0">
              <Node pos="l" depth="4" NCoef="0" IVar="-1" Cut="0.0000000000000000e+00" cType="1" res="-5.9521734714508057e-02" rms="1.9566684961318970e-01" purity="4.3800927698612213e-02" nType="-99"/>
              <Node pos="r" depth="4" NCoef="0" IVar="-1" Cut="0.0000000000000000e+00" cType="1" res="-6.7041024565696716e-02" rms="9.7565144300460815e-02" purity="1.0004051029682159e-02" nType="-99"/>
            </Node>
            <Node pos="r" depth="3" NCoef="0" IVar="-1" Cut="0.0000000000000000e+00" cType="1" res="-3.8233947008848190e-02" rms="3.6706846952438354e-01" purity="1.8154272437095642e-01" nType="-99"/>
          </Node>
          <Node pos="r" depth="2" NCoef="0" IVar="-1" Cut="0.0000000000000000e+00" cType="1" res="-1.4764292165637016e-02" rms="4.1823288798332214e-01" purity="3.1495401263237000e-01" nType="-99"/>
        </Node>
        <Node pos="r" depth="1" NCoef="0" IVar="1" Cut="4.5769244432449341e-02" cType="1" res="1.6837717592716217e-01" rms="2.8339287638664246e-01" purity="8.1320774555206299e-01" nType="0">
          <Node pos="l" depth="2" NCoef="0" IVar="7" Cut="3.8307181000709534e-01" cType="1" res="2.3357109725475311e-01" rms="2.1286103129386902e-01" purity="9.2421281337738037e-01" nType="0">
            <Node pos="l" depth="3" NCoef="0" IVar="5" Cut="9.9985152482986450e-01" cType="1" res="2.5392219424247742e-01" rms="1.7388169467449188e-01" purity="9.6007794141769409e-01" nType="0">
              <Node pos="l" depth="4" NCoef="0" IVar="-1" Cut="0.0000000000000000e+00" cType="1" res="3.7902854382991791e-02" rms="3.4374961256980896e-01" purity="8.2526665925979614e-01" nType="-99"/>
              <Node pos="r" depth="4" NCoef="0" IVar="-1" Cut="0.0000000000000000e+00" cType="1" res="6.6383585333824158e-02" rms="1.1773616820573807e-01" purity="9.8277664184570312e-01" nType="-99"/>
            </Node>
            <Node pos="r" depth="3" NCoef="0" IVar="-1" Cut="0.0000000000000000e+00" cType="1" res="-2.1212086081504822e-02" rms="4.1756916046142578e-01" purity="3.3564335107803345e-01" nType="-99"/>
          </Node>
          <Node pos="r" depth="2" NCoef="0" IVar="1" Cut="1.0216174274682999e-01" cType="1" res="-1.7810022830963135e-01" rms="3.5170388221740723e-01" purity="2.2326415777206421e-01" nType="0">
            <Node pos="l" depth="3" NCoef="0" IVar="-1" Cut="0.0000000000000000e+00" cType="1" res="-8.2761831581592560e-03" rms="4.1761034727096558e-01" purity="4.4198235869407654e-01" nType="-99"/>
            <Node pos="r" depth="3" NCoef="0" IVar="-1" Cut="0.0000000000000000e+00" cType="1" res="-5.5264692753553391e-02" rms="2.9154041409492493e-01" purity="1.1722391098737717e-01" nType="-99"/>
          </Node>
        </Node>
      </Node>
    </BinaryTree>
    <BinaryTree type="DecisionTree" boostWeight="1.0000000000000000e+00" itree="7">
      <Node pos="s" depth="0" NCoef="0" IVar="6" Cut="8.3523863554000854e-01" cType="1" res="1.9746631733141840e-04" rms="3.0812928080558777e-01" purity="5.0021159648895264e-01" nType="0">
        <Node pos="l" depth="1" NCoef="0" IVar="5" Cut="9.9004977941513062e-01" cType="1" res="-1.6791509091854095e-01" rms="2.7414718270301819e-01" purity="1.7036962509155273e-01" nType="0">
          <Node pos="l" depth="2" NCoef="0" IVar="1" Cut="2.5870569050312042e-02" cType="1" res="-2.3190429806709290e-01" rms="1.6085860133171082e-01" purity="2.9696237295866013e-02" nType="0">
            <Node pos="l" depth="3" NCoef="0" IVar="5" Cut="-2.1784120798110962e-01" cType="1" res="-2.0623964071273804e-01" rms="2.2694744169712067e-01" purity="6.2190733850002289e-02" nType="0">
              <Node pos="l" depth="4" NCoef="0" IVar="-1" Cut="0.0000000000000000e+00" cType="1" res="-6.3140168786048889e-02" rms="1.1440441012382507e-01" purity="1.3436168432235718e-02" nType="-99"/>
              <Node pos="r" depth="4" NCoef="0" IVar="-1" Cut="0.0000000000000000e+00" cType="1" res="-2.7594801038503647e-02" rms="3.8802677392959595e-01" purity="2.0107226073741913e-01" nType="-99"/>
            </Node>
            <Node pos="r" depth="3" NCoef="0" IVar="4" Cut="2.8266544342041016e+00" cType="1" res="-2.4498920142650604e-01" rms="1.1091167479753494e-01" purity="1.3129205442965031e-02" nType="0">
              <Node pos="l" depth="4" NCoef="0" IVar="-1" Cut="0.0000000000000000e+00" cType="1" res="-6.3465066254138947e-02" rms="1.1836845427751541e-01" purity="1.5209157951176167e-02" nType="-99"/>
              <Node pos="r" depth="4" NCoef="0" IVar="-1" Cut="0.0000000000000000e+00" cType="1" res="-6.6151812672615051e-02" rms="8.6139582097530365e-02" purity="7.3587945662438869e-03" nType="-99"/>
            </Node>
          </Node>
          <Node pos="r" depth="2" NCoef="0" IVar="3" Cut="6.0916209220886230e+00" cType="1" res="-4.2489174753427505e-02" rms="3.8470205664634705e-01" purity="4.4610497355461121e-01" nType="0">
            <Node pos="l" depth="3" NCoef="0" IVar="7" Cut="3.0347663164138794e-01" cType="1" res="-1.4850352704524994e-01" rms="3.5657757520675659e-01" purity="2.6857653260231018e-01" nType="0">
              <Node pos="l" depth="4" NCoef="0" IVar="-1" Cut="0.0000000000000000e+00" cType="1" res="-8.1807458773255348e-03" rms="4.3371391296386719e-01" purity="4.8863717913627625e-01" nType="-99"/>
              <Node pos="r" depth="4" NCoef="0" IVar="-1" Cut="0.0000000000000000e+00" cType="1" res="-6.1909571290016174e-02" rms="2.0556595921516418e-01" purity="4.9889773130416870e-02" nType="-99"/>
            </Node>
            <Node pos="r" depth="3" NCoef="0" IVar="4" Cut="1.5149159431457520e+00" cType="1" res="1.8929968774318695e-01" rms="3.3952730894088745e-01" purity="8.3425170183181763e-01" nType="0">
              <Node pos="l" depth="4" NCoef="0" IVar="-1" Cut="0.0000000000000000e+00" cType="1" res="5.8414347469806671e-02" rms="2.6759988069534302e-01" purity="9.1262334585189819e-01" nType="-99"/>
              <Node pos="r" depth="4" NCoef="0" IVar="-1" Cut="0.0000000000000000e+00" cType="1" res="2.4618061259388924e-02" rms="3.9656758308410645e-01" purity="7.3864042758941650e-01" nType="-99"/>
            </Node>
          </Node>
        </Node>
        <Node pos="r" depth="1" NCoef="0" IVar="5" Cut="7.8109455108642578e-01" cType="1" res="1.9546529650688171e-01" rms="2.1672642230987549e-01" purity="8.8333302736282349e-01" nType="0">
          <Node pos="l" depth="2" NCoef="0" IVar="-1" Cut="0.0000000000000000e+00" cType="1" res="-4.7703072428703308e-02" rms="2.9271367192268372e-01" purity="1.0518683493137360e-01" nType="-99"/>
          <Node pos="r" depth="2" NCoef="0" IVar="12" Cut="5.2696716040372849e-02" cType="1" res="2.3824439942836761e-01" rms="1.5502291917800903e-01" purity="9.6748846769332886e-01" nType="0">
            <Node pos="l" depth="3" NCoef="0" IVar="4" Cut="3.5427350997924805e+00" cType="1" res="2.4559071660041809e-01" rms="1.2027435749769211e-01" purity="9.8271322250366211e-01" nType="0">
              <Node pos="l" depth="4" NCoef="0" IVar="-1" Cut="0.0000000000000000e+00" cType="1" res="6.4949437975883484e-02" rms="1.0833605378866196e-01" purity="9.8659551143646240e-01" nType="-99"/>
              <Node pos="r" depth="4" NCoef="0" IVar="-1" Cut="0.0000000000000000e+00" cType="1" res="5.5050432682037354e-02" rms="2.2661979496479034e-01" purity="9.2917150259017944e-01" nType="-99"/>
            </Node>
            <Node pos="r" depth="3" NCoef="0" IVar="-1" Cut="0.0000000000000000e+00" cType="1" res="4.0451239794492722e-02" rms="3.2552757859230042e-01" purity="8.2922166585922241e-01" nType="-99"/>
          </Node>
        </Node>
      </Node>
    </BinaryTree>
    <BinaryTree type="DecisionTree" boostWeight="1.0000000000000000e+00" itree="8">
      <Node pos="s" depth="0" NCoef="0" IVar="6" Cut="8.2785242795944214e-01" cType="1" res="2.7333642719895579e-05" rms="2.9217404127120972e-01" purity="4.9989131093025208e-01" nType="0">
        <Node pos="l" depth="1" NCoef="0" IVar="5" Cut="9.9004977941513062e-01" cType="1" res="-1.5429176390171051e-01" rms="2.6511725783348083e-01" purity="1.6480104625225067e-01" nType="0">
          <Node pos="l" depth="2" NCoef="0" IVar="5" Cut="8.6133998632431030e-01" cType="1" res="-2.0979391038417816e-01" rms="1.5870557725429535e-01" purity="2.9023153707385063e-02" nType="0">
            <Node pos="l" depth="3" NCoef="0" IVar="1" Cut="1.9900437910109758e-03" cType="1" res="-2.1572029590606689e-01" rms="1.1836054176092148e-01" purity="1.5049036592245102e-02" nType="0">
              <Node pos="l" depth="4" NCoef="0" IVar="-1" Cut="0.0000000000000000e+00" cType="1" res="-5.6537594646215439e-02" rms="1.7282351851463318e-01" purity="3.3041466027498245e-02" nType="-99"/>
              <Node pos="r" depth="4" NCoef="0" IVar="-1" Cut="0.0000000000000000e+00" cType="1" res="-6.2666058540344238e-02" rms="8.6645685136318207e-02" purity="7.7686253935098648e-03" nType="-99"/>
            </Node>
            <Node pos="r" depth="3" NCoef="0" IVar="-1" Cut="0.0000000000000000e+00" cType="1" res="-3.8919176906347275e-02" rms="3.3377739787101746e-01" purity="1.3992185890674591e-01" nType="-99"/>
          </Node>
          <Node pos="r" depth="2" NCoef="0" IVar="3" Cut="7.4269385337829590e+00" cType="1" res="-4.3774809688329697e-02" rms="3.7648722529411316e-01" purity="4.3516469001770020e-01" nType="0">
            <Node pos="l" depth="3" NCoef="0" IVar="7" Cut="3.4328079223632812e-01" cType="1" res="-1.2907548248767853e-01" rms="3.6043721437454224e-01" purity="2.8791806101799011e-01" nType="0">
              <Node pos="l" depth="4" NCoef="0" IVar="-1" Cut="0.0000000000000000e+00" cType="1" res="-6.6768922843039036e-03" rms="4.3012920022010803e-01" purity="4.9686092138290405e-01" nType="-99"/>
              <Node pos="r" depth="4" NCoef="0" IVar="-1" Cut="0.0000000000000000e+00" cType="1" res="-5.9873215854167938e-02" rms="2.1097011864185333e-01" purity="5.2368622273206711e-02" nType="-99"/>
            </Node>
            <Node pos="r" depth="3" NCoef="0" IVar="-1" Cut="0.0000000000000000e+00" cType="1" res="5.0508182495832443e-02" rms="2.9667061567306519e-01" purity="8.8398641347885132e-01" nType="-99"/>
          </Node>
        </Node>
        <Node pos="r" depth="1" NCoef="0" IVar="5" Cut="3.5323384404182434e-01" cType="1" res="1.7392526566982269e-01" rms="2.1279320120811462e-01" purity="8.7749522924423218e-01" nType="0">
          <Node pos="l" depth="2" NCoef="0" IVar="-1" Cut="0.0000000000000000e+00" cType="1" res="-5.2034124732017517e-02" rms="2.4657920002937317e-01" purity="6.7811466753482819e-02" nType="-99"/>
          <Node pos="r" depth="2" NCoef="0" IVar="12" Cut="5.2696716040372849e-02" cType="1" res="2.1180458366870880e-01" rms="1.6710723936557770e-01" purity="9.5833218097686768e-01" nType="0">
            <Node pos="l" depth="3" NCoef="0" IVar="4" Cut="3.5825750827789307e+00" cType="1" res="2.2081090509891510e-01" rms="1.2934924662113190e-01" purity="9.7827076911926270e-01" nType="0">
              <Node pos="l" depth="4" NCoef="0" IVar="-1" Cut="0.0000000000000000e+00" cType="1" res="6.2241297215223312e-02" rms="1.1698522418737411e-01" purity="9.8292207717895508e-01" nType="-99"/>
              <Node pos="r" depth="4" NCoef="0" IVar="-1" Cut="0.0000000000000000e+00" cType="1" res="4.9727305769920349e-02" rms="2.4132771790027618e-01" purity="9.1333746910095215e-01" nType="-99"/>
            </Node>
            <Node pos="r" depth="3" NCoef="0" IVar="-1" Cut="0.0000000000000000e+00" cType="1" res="3.2948624342679977e-02" rms="3.3848711848258972e-01" purity="7.9283547401428223e-01" nType="-99"/>
          </Node>
        </Node>
      </Node>
    </BinaryTree>
    <BinaryTree type="DecisionTree" boostWeight="1.0000000000000000e+00" itree="9">
      <Node pos="s" depth="0" NCoef="0" IVar="6" Cut="8.2583200931549072e-01" cType="1" res="1.3099685929773841e-05" rms="2.7845963835716248e-01" purity="4.9997988343238831e-01" nType="0">
        <Node pos="l" depth="1" NCoef="0" IVar="3" Cut="7.9493002891540527e+00" cType="1" res="-1.4000648260116577e-01" rms="2.5886487960815430e-01" purity="1.6337804496288300e-01" nType="0">
          <Node pos="l" depth="2" NCoef="0" IVar="12" Cut="2.2901396453380585e-01" cType="1" res="-1.6854313015937805e-01" rms="2.3747198283672333e-01" purity="1.0728863626718521e-01" nType="0">
            <Node pos="l" depth="3" NCoef="0" IVar="5" Cut="9.5024877786636353e-01" cType="1" res="-1.0680159926414490e-01" rms="3.1320858001708984e-01" purity="2.3085802793502808e-01" nType="0">
              <Node pos="l" depth="4" NCoef="0" IVar="-1" Cut="0.0000000000000000e+00" cType="1" res="-5.2756581455469131e-02" rms="1.8770603835582733e-01" purity="4.0507201105356216e-02" nType="-99"/>
              <Node pos="r" depth="4" NCoef="0" IVar="-1" Cut="0.0000000000000000e+00" cType="1" res="-1.0342723689973354e-03" rms="4.0994924306869507e-01" purity="4.9701121449470520e-01" nType="-99"/>
            </Node>
            <Node pos="r" depth="3" NCoef="0" IVar="4" Cut="2.2303216457366943e+00" cType="1" res="-2.0120930671691895e-01" rms="1.7675650119781494e-01" purity="4.1910573840141296e-02" nType="0">
              <Node pos="l" depth="4" NCoef="0" IVar="-1" Cut="0.0000000000000000e+00" cType="1" res="-5.2630815654993057e-02" rms="2.0186908543109894e-01" purity="5.8172825723886490e-02" nType="-99"/>
              <Node pos="r" depth="4" NCoef="0" IVar="-1" Cut="0.0000000000000000e+00" cType="1" res="-6.2467742711305618e-02" rms="1.2821814417839050e-01" purity="1.7910389229655266e-02" nType="-99"/>
            </Node>
          </Node>
          <Node pos="r" depth="2" NCoef="0" IVar="1" Cut="2.7852971106767654e-02" cType="1" res="3.3264528959989548e-02" rms="3.1066909432411194e-01" purity="5.0394606590270996e-01" nType="0">
            <Node pos="l" depth="3" NCoef="0" IVar="-1" Cut="0.0000000000000000e+00" cType="1" res="3.6633111536502838e-02" rms="2.8254872560501099e-01" purity="7.2005200386047363e-01" nType="-99"/>
            <Node pos="r" depth="3" NCoef="0" IVar="-1" Cut="0.0000000000000000e+00" cType="1" res="-3.0950576066970825e-02" rms="2.8591877222061157e-01" purity="2.0898501574993134e-01" nType="-99"/>
          </Node>
        </Node>
        <Node pos="r" depth="1" NCoef="0" IVar="5" Cut="8.8059699535369873e-01" cType="1" res="1.5644094347953796e-01" rms="2.0719482004642487e-01" purity="8.7602657079696655e-01" nType="0">
          <Node pos="l" depth="2" NCoef="0" IVar="-1" Cut="0.0000000000000000e+00" cType="1" res="-4.0588162839412689e-02" rms="2.9902756214141846e-01" purity="1.2102615088224411e-01" nType="-99"/>
          <Node pos="r" depth="2" NCoef="0" IVar="7" Cut="1.5420225262641907e-01" cType="1" res="1.9471000134944916e-01" rms="1.5415275096893311e-01" purity="9.6775668859481812e-01" nType="0">
            <Node pos="l" depth="3" NCoef="0" IVar="5" Cut="9.9881196022033691e-01" cType="1" res="1.9987951219081879e-01" rms="1.2589533627033234e-01" purity="9.8060131072998047e-01" nType="0">
              <Node pos="l" depth="4" NCoef="0" IVar="-1" Cut="0.0000000000000000e+00" cType="1" res="3.6428611725568771e-02" rms="3.7066838145256042e-01" purity="8.1165730953216553e-01" nType="-99"/>
              <Node pos="r" depth="4" NCoef="0" IVar="-1" Cut="0.0000000000000000e+00" cType="1" res="6.1245590448379517e-02" rms="8.5539914667606354e-02" purity="9.9224650859832764e-01" nType="-99"/>
            </Node>
            <Node pos="r" depth="3" NCoef="0" IVar="-1" Cut="0.0000000000000000e+00" cType="1" res="2.6649829000234604e-02" rms="3.7530875205993652e-01" purity="7.6635253429412842e-01" nType="-99"/>
          </Node>
        </Node>
      </Node>
    </BinaryTree>
    <BinaryTree type="DecisionTree" boostWeight="1.0000000000000000e+00" itree="10">
      <Node pos="s" depth="0" NCoef="0" IVar="5" Cut="9.8009949922561646e-01" cType="1" res="7.0146692451089621e-05" rms="2.6697254180908203e-01" purity="5.0005054473876953e-01" nType="0">
        <Node pos="l" depth="1" NCoef="0" IVar="5" Cut="4.4231515377759933e-02" cType="1" res="-1.6505473852157593e-01" rms="1.9112046062946320e-01" purity="5.0908431410789490e-02" nType="0">
          <Node pos="l" depth="2" NCoef="0" IVar="5" Cut="-8.9609682559967041e-01" cType="1" res="-1.8209148943424225e-01" rms="1.1350312083959579e-01" purity="1.3602026738226414e-02" nType="0">
            <Node pos="l" depth="3" NCoef="0" IVar="6" Cut="7.9798686504364014e-01" cType="1" res="-1.8774522840976715e-01" rms="7.2537854313850403e-02" purity="5.1772380247712135e-03" nType="0">
              <Node pos="l" depth="4" NCoef="0" IVar="-1" Cut="0.0000000000000000e+00" cType="1" res="-6.0510646551847458e-02" rms="5.6092195212841034e-02" purity="3.1455149874091148e-03" nType="-99"/>
              <Node pos="r" depth="4" NCoef="0" IVar="-1" Cut="0.0000000000000000e+00" cType="1" res="-6.0019232332706451e-02" rms="1.2959338724613190e-01" purity="1.6704028472304344e-02" nType="-99"/>
            </Node>
            <Node pos="r" depth="3" NCoef="0" IVar="-1" Cut="0.0000000000000000e+00" cType="1" res="-4.9593947827816010e-02" rms="2.0025511085987091e-01" purity="4.4288642704486847e-02" nType="-99"/>
          </Node>
          <Node pos="r" depth="2" NCoef="0" IVar="9" Cut="1.0348259210586548e+00" cType="1" res="-1.0319729149341583e-01" rms="3.4277456998825073e-01" purity="1.8636155128479004e-01" nType="0">
            <Node pos="l" depth="3" NCoef="0" IVar="-1" Cut="0.0000000000000000e+00" cType="1" res="4.0898579172790051e-03" rms="4.3391829729080200e-01" purity="3.7457060813903809e-01" nType="-99"/>
            <Node pos="r" depth="3" NCoef="0" IVar="-1" Cut="0.0000000000000000e+00" cType="1" res="-4.7969359904527664e-02" rms="2.4774271249771118e-01" purity="7.4008971452713013e-02" nType="-99"/>
          </Node>
        </Node>
        <Node pos="r" depth="1" NCoef="0" IVar="1" Cut="6.3680514693260193e-02" cType="1" res="1.1090639233589172e-01" rms="2.5300431251525879e-01" purity="8.0152672529220581e-01" nType="0">
          <Node pos="l" depth="2" NCoef="0" IVar="7" Cut="4.4775757193565369e-01" cType="1" res="1.5587548911571503e-01" rms="2.1014027297496796e-01" purity="9.0851014852523804e-01" nType="0">
            <Node pos="l" depth="3" NCoef="0" IVar="2" Cut="6.3679113984107971e-02" cType="1" res="1.7213295400142670e-01" rms="1.8486049771308899e-01" purity="9.4717520475387573e-01" nType="0">
              <Node pos="l" depth="4" NCoef="0" IVar="-1" Cut="0.0000000000000000e+00" cType="1" res="5.5219441652297974e-02" rms="1.5861280262470245e-01" purity="9.6594882011413574e-01" nType="-99"/>
              <Node pos="r" depth="4" NCoef="0" IVar="-1" Cut="0.0000000000000000e+00" cType="1" res="7.4232514016330242e-03" rms="4.2182716727256775e-01" purity="6.0498481988906860e-01" nType="-99"/>
            </Node>
            <Node pos="r" depth="3" NCoef="0" IVar="-1" Cut="0.0000000000000000e+00" cType="1" res="-2.5216285139322281e-02" rms="3.6384457349777222e-01" purity="2.7858152985572815e-01" nType="-99"/>
          </Node>
          <Node pos="r" depth="2" NCoef="0" IVar="4" Cut="2.1527917385101318e+00" cType="1" res="-1.5620276331901550e-01" rms="3.1396064162254333e-01" purity="1.6606259346008301e-01" nType="0">
            <Node pos="l" depth="3" NCoef="0" IVar="-1" Cut="0.0000000000000000e+00" cType="1" res="-2.1663678810000420e-02" rms="3.8275483250617981e-01" purity="2.7656120061874390e-01" nType="-99"/>
            <Node pos="r" depth="3" NCoef="0" IVar="-1" Cut="0.0000000000000000e+00" cType="1" res="-5.8022905141115189e-02" rms="2.1154469251632690e-01" purity="5.9931285679340363e-02" nType="-99"/>
          </Node>
        </Node>
      </Node>
    </BinaryTree>
    <BinaryTree type="DecisionTree" boostWeight="1.0000000000000000e+00" itree="11">
      <Node pos="s" depth="0" NCoef="0" IVar="6" Cut="8.1259912252426147e-01" cType="1" res="1.9910724950022995e-04" rms="2.5664535164833069e-01" purity="5.0020676851272583e-01" nType="0">
        <Node pos="l" depth="1" NCoef="0" IVar="3" Cut="1.0641736030578613e+01" cType="1" res="-1.1899379640817642e-01" rms="2.4634353816509247e-01" purity="1.5511730313301086e-01" nType="0">
          <Node pos="l" depth="2" NCoef="0" IVar="1" Cut="3.1840700656175613e-02" cType="1" res="-1.3797292113304138e-01" rms="2.3402191698551178e-01" purity="1.1401265114545822e-01" nType="0">
            <Node pos="l" depth="3" NCoef="0" IVar="5" Cut="9.1044777631759644e-01" cType="1" res="-9.2097066342830658e-02" rms="2.9371133446693420e-01" purity="2.2158984839916229e-01" nType="0">
              <Node pos="l" depth="4" NCoef="0" IVar="-1" Cut="0.0000000000000000e+00" cType="1" res="-5.1018245518207550e-02" rms="1.6933140158653259e-01" purity="3.1986840069293976e-02" nType="-99"/>
              <Node pos="r" depth="4" NCoef="0" IVar="-1" Cut="0.0000000000000000e+00" cType="1" res="-3.7305089063011110e-04" rms="3.9784267544746399e-01" purity="5.0376987457275391e-01" nType="-99"/>
            </Node>
            <Node pos="r" depth="3" NCoef="0" IVar="4" Cut="2.5879347324371338e+00" cType="1" res="-1.6401971876621246e-01" rms="1.8710476160049438e-01" purity="5.2933838218450546e-02" nType="0">
              <Node pos="l" depth="4" NCoef="0" IVar="-1" Cut="0.0000000000000000e+00" cType="1" res="-4.6968668699264526e-02" rms="2.0880496501922607e-01" purity="7.0026241242885590e-02" nType="-99"/>
              <Node pos="r" depth="4" NCoef="0" IVar="-1" Cut="0.0000000000000000e+00" cType="1" res="-5.9415590018033981e-02" rms="1.3180719316005707e-01" purity="1.9723376259207726e-02" nType="-99"/>
            </Node>
          </Node>
          <Node pos="r" depth="2" NCoef="0" IVar="-1" Cut="0.0000000000000000e+00" cType="1" res="2.0654095336794853e-02" rms="2.8283038735389709e-01" purity="5.7240390777587891e-01" nType="-99"/>
        </Node>
        <Node pos="r" depth="1" NCoef="0" IVar="5" Cut="9.0049749612808228e-01" cType="1" res="1.2602998316287994e-01" rms="2.0125995576381683e-01" purity="8.6451464891433716e-01" nType="0">
          <Node pos="l" depth="2" NCoef="0" IVar="-1" Cut="0.0000000000000000e+00" cType="1" res="-3.5526592284440994e-02" rms="2.9309293627738953e-01" purity="1.1962326616048813e-01" nType="-99"/>
          <Node pos="r" depth="2" NCoef="0" IVar="12" Cut="7.5903490185737610e-02" cType="1" res="1.6012312471866608e-01" rms="1.5685610473155975e-01" purity="9.6504539251327515e-01" nType="0">
            <Node pos="l" depth="3" NCoef="0" IVar="4" Cut="3.6221811771392822e+00" cType="1" res="1.6561722755432129e-01" rms="1.2759870290756226e-01" purity="9.8024106025695801e-01" nType="0">
              <Node pos="l" depth="4" NCoef="0" IVar="-1" Cut="0.0000000000000000e+00" cType="1" res="5.6984189897775650e-02" rms="1.1524661630392075e-01" purity="9.8473423719406128e-01" nType="-99"/>
              <Node pos="r" depth="4" NCoef="0" IVar="-1" Cut="0.0000000000000000e+00" cType="1" res="4.1468832641839981e-02" rms="2.4307149648666382e-01" purity="9.1477739810943604e-01" nType="-99"/>
            </Node>
            <Node pos="r" depth="3" NCoef="0" IVar="-1" Cut="0.0000000000000000e+00" cType="1" res="2.0980725064873695e-02" rms="3.6581391096115112e-01" purity="7.5426173210144043e-01" nType="-99"/>
          </Node>
        </Node>
      </Node>
    </BinaryTree>
    <BinaryTree type="DecisionTree" boostWeight="1.0000000000000000e+00" itree="12">
      <Node pos="s" depth="0" NCoef="0" IVar="5" Cut="9.8009949922561646e-01" cType="1" res="2.1062215091660619e-04" rms="2.4849548935890198e-01" purity="5.0012522935867310e-01" nType="0">
        <Node pos="l" depth="1" NCoef="0" IVar="5" Cut="-3.4578412771224976e-02" cType="1" res="-1.3675376772880554e-01" rms="1.8890278041362762e-01" purity="5.1165949553251266e-02" nType="0">
          <Node pos="l" depth="2" NCoef="0" IVar="5" Cut="-9.3275803327560425e-01" cType="1" res="-1.5236504375934601e-01" rms="1.1118984967470169e-01" purity="1.2993307784199715e-02" nType="0">
            <Node pos="l" depth="3" NCoef="0" IVar="6" Cut="7.8472661972045898e-01" cType="1" res="-1.5799124538898468e-01" rms="6.8028867244720459e-02" purity="4.4871158897876740e-03" nType="0">
              <Node pos="l" depth="4" NCoef="0" IVar="-1" Cut="0.0000000000000000e+00" cType="1" res="-5.8279372751712799e-02" rms="5.3784303367137909e-02" purity="2.8477993328124285e-03" nType="-99"/>
              <Node pos="r" depth="4" NCoef="0" IVar="-1" Cut="0.0000000000000000e+00" cType="1" res="-5.7871919125318527e-02" rms="1.1393398791551590e-01" purity="1.2785417027771473e-02" nType="-99"/>
            </Node>
            <Node pos="r" depth="3" NCoef="0" IVar="1" Cut="4.5770507305860519e-02" cType="1" res="-1.3489027321338654e-01" rms="1.8969671428203583e-01" purity="3.9413146674633026e-02" nType="0">
              <Node pos="l" depth="4" NCoef="0" IVar="-1" Cut="0.0000000000000000e+00" cType="1" res="-3.7556927651166916e-02" rms="2.5460463762283325e-01" purity="7.2888232767581940e-02" nType="-99"/>
              <Node pos="r" depth="4" NCoef="0" IVar="-1" Cut="0.0000000000000000e+00" cType="1" res="-5.5957030504941940e-02" rms="1.0287844389677048e-01" purity="1.0802045464515686e-02" nType="-99"/>
            </Node>
          </Node>
          <Node pos="r" depth="2" NCoef="0" IVar="12" Cut="1.1515604704618454e-01" cType="1" res="-8.2666426897048950e-02" rms="3.3572819828987122e-01" purity="1.8342015147209167e-01" nType="0">
            <Node pos="l" depth="3" NCoef="0" IVar="-1" Cut="0.0000000000000000e+00" cType="1" res="1.2153509072959423e-02" rms="4.5647969841957092e-01" purity="4.4445499777793884e-01" nType="-99"/>
            <Node pos="r" depth="3" NCoef="0" IVar="-1" Cut="0.0000000000000000e+00" cType="1" res="-4.4198818504810333e-02" rms="2.3901221156120300e-01" purity="6.4963661134243011e-02" nType="-99"/>
          </Node>
        </Node>
        <Node pos="r" depth="1" NCoef="0" IVar="12" Cut="1.5649890899658203e-01" cType="1" res="9.2083305120468140e-02" rms="2.4126842617988586e-01" purity="8.0127722024917603e-01" nType="0">
          <Node pos="l" depth="2" NCoef="0" IVar="7" Cut="2.6865077018737793e-01" cType="1" res="1.3964474201202393e-01" rms="1.8056041002273560e-01" purity="9.4447052478790283e-01" nType="0">
            <Node pos="l" depth="3" NCoef="0" IVar="5" Cut="9.9940598011016846e-01" cType="1" res="1.4942398667335510e-01" rms="1.5060520172119141e-01" purity="9.7157710790634155e-01" nType="0">
              <Node pos="l" depth="4" NCoef="0" IVar="-1" Cut="0.0000000000000000e+00" cType="1" res="2.6017650961875916e-02" rms="3.5403645038604736e-01" purity="8.2509219646453857e-01" nType="-99"/>
              <Node pos="r" depth="4" NCoef="0" IVar="-1" Cut="0.0000000000000000e+00" cType="1" res="5.5783934891223907e-02" rms="1.1330239474773407e-01" purity="9.8518890142440796e-01" nType="-99"/>
            </Node>
            <Node pos="r" depth="3" NCoef="0" IVar="-1" Cut="0.0000000000000000e+00" cType="1" res="-6.8852435797452927e-03" rms="4.1827276349067688e-01" purity="4.7132232785224915e-01" nType="-99"/>
          </Node>
          <Node pos="r" depth="2" NCoef="0" IVar="3" Cut="5.8646469116210938e+00" cType="1" res="-8.7921455502510071e-02" rms="3.3788609504699707e-01" purity="2.5933617353439331e-01" nType="0">
            <Node pos="l" depth="3" NCoef="0" IVar="4" Cut="1.9119957685470581e+00" cType="1" res="-1.4126680791378021e-01" rms="2.9666790366172791e-01" purity="1.3277077674865723e-01" nType="0">
              <Node pos="l" depth="4" NCoef="0" IVar="-1" Cut="0.0000000000000000e+00" cType="1" res="-2.0351540297269821e-02" rms="3.8407576084136963e-01" purity="2.4448078870773315e-01" nType="-99"/>
              <Node pos="r" depth="4" NCoef="0" IVar="-1" Cut="0.0000000000000000e+00" cType="1" res="-5.3624887019395828e-02" rms="2.0085306465625763e-01" purity="5.1207032054662704e-02" nType="-99"/>
            </Node>
            <Node pos="r" depth="3" NCoef="0" IVar="-1" Cut="0.0000000000000000e+00" cType="1" res="2.0754899829626083e-02" rms="4.0054026246070862e-01" purity="6.8682748079299927e-01" nType="-99"/>
          </Node>
        </Node>
      </Node>
    </BinaryTree>
    <BinaryTree type="DecisionTree" boostWeight="1.0000000000000000e+00" itree="13">
      <Node pos="s" depth="0" NCoef="0" IVar="5" Cut="9.8009949922561646e-01" cType="1" res="-5.4349206038750708e-05" rms="2.4060618877410889e-01" purity="4.9998140335083008e-01" nType="0">
        <Node pos="l" depth="1" NCoef="0" IVar="6" Cut="9.0609979629516602e-01" cType="1" res="-1.2388544529676437e-01" rms="1.8695385754108429e-01" purity="5.0868548452854156e-02" nType="0">
          <Node pos="l" depth="2" NCoef="0" IVar="1" Cut="1.9900437910109758e-03" cType="1" res="-1.3139830529689789e-01" rms="1.5972697734832764e-01" purity="3.1527556478977203e-02" nType="0">
            <Node pos="l" depth="3" NCoef="0" IVar="5" Cut="-3.7937194108963013e-01" cType="1" res="-1.1228768527507782e-01" rms="2.2596399486064911e-01" purity="6.7420147359371185e-02" nType="0">
              <Node pos="l" depth="4" NCoef="0" IVar="-1" Cut="0.0000000000000000e+00" cType="1" res="-5.3256232291460037e-02" rms="1.1905058473348618e-01" purity="1.4547629281878471e-02" nType="-99"/>
              <Node pos="r" depth="4" NCoef="0" IVar="-1" Cut="0.0000000000000000e+00" cType="1" res="-1.2583372183144093e-02" rms="3.8452148437500000e-01" purity="2.1474024653434753e-01" nType="-99"/>
            </Node>
            <Node pos="r" depth="3" NCoef="0" IVar="8" Cut="3.3244712829589844e+01" cType="1" res="-1.4019116759300232e-01" rms="1.1624574661254883e-01" purity="1.5013241209089756e-02" nType="0">
              <Node pos="l" depth="4" NCoef="0" IVar="-1" Cut="0.0000000000000000e+00" cType="1" res="-5.2056711167097092e-02" rms="1.2946373224258423e-01" purity="1.9238438457250595e-02" nType="-99"/>
              <Node pos="r" depth="4" NCoef="0" IVar="-1" Cut="0.0000000000000000e+00" cType="1" res="-5.6630071252584457e-02" rms="9.4513602554798126e-02" purity="9.2306658625602722e-03" nType="-99"/>
            </Node>
          </Node>
          <Node pos="r" depth="2" NCoef="0" IVar="-1" Cut="0.0000000000000000e+00" cType="1" res="-8.5639422759413719e-03" rms="3.7426611781120300e-01" purity="2.8455150127410889e-01" nType="-99"/>
        </Node>
        <Node pos="r" depth="1" NCoef="0" IVar="12" Cut="1.4147201180458069e-01" cType="1" res="8.3043463528156281e-02" rms="2.3683284223079681e-01" purity="8.0136203765869141e-01" nType="0">
          <Node pos="l" depth="2" NCoef="0" IVar="7" Cut="2.5372129678726196e-01" cType="1" res="1.2728253006935120e-01" rms="1.7461934685707092e-01" purity="9.4972753524780273e-01" nType="0">
            <Node pos="l" depth="3" NCoef="0" IVar="5" Cut="9.9980199337005615e-01" cType="1" res="1.3506698608398438e-01" rms="1.4481090009212494e-01" purity="9.7441869974136353e-01" nType="0">
              <Node pos="l" depth="4" NCoef="0" IVar="-1" Cut="0.0000000000000000e+00" cType="1" res="2.9173053801059723e-02" rms="3.1667155027389526e-01" purity="8.6817812919616699e-01" nType="-99"/>
              <Node pos="r" depth="4" NCoef="0" IVar="-1" Cut="0.0000000000000000e+00" cType="1" res="5.5395733565092087e-02" rms="9.6740268170833588e-02" purity="9.8964554071426392e-01" nType="-99"/>
            </Node>
            <Node pos="r" depth="3" NCoef="0" IVar="-1" Cut="0.0000000000000000e+00" cType="1" res="-2.1042935550212860e-03" rms="4.2195066809654236e-01" purity="5.1581847667694092e-01" nType="-99"/>
          </Node>
          <Node pos="r" depth="2" NCoef="0" IVar="3" Cut="5.9120163917541504e+00" cType="1" res="-7.4323244392871857e-02" rms="3.3973556756973267e-01" purity="2.7359798550605774e-01" nType="0">
            <Node pos="l" depth="3" NCoef="0" IVar="6" Cut="6.7353975772857666e-01" cType="1" res="-1.2254884093999863e-01" rms="3.0322790145874023e-01" purity="1.4455740153789520e-01" nType="0">
              <Node pos="l" depth="4" NCoef="0" IVar="-1" Cut="0.0000000000000000e+00" cType="1" res="-4.4685404747724533e-02" rms="2.5882232189178467e-01" purity="8.6845472455024719e-02" nType="-99"/>
              <Node pos="r" depth="4" NCoef="0" IVar="-1" Cut="0.0000000000000000e+00" cType="1" res="-1.1487950570881367e-02" rms="3.7835720181465149e-01" purity="2.8233116865158081e-01" nType="-99"/>
            </Node>
            <Node pos="r" depth="3" NCoef="0" IVar="-1" Cut="0.0000000000000000e+00" cType="1" res="1.8914651125669479e-02" rms="3.9958432316780090e-01" purity="6.9477993249893188e-01" nType="-99"/>
          </Node>
        </Node>
      </Node>
    </BinaryTree>
    <BinaryTree type="DecisionTree" boostWeight="1.0000000000000000e+00" itree="14">
      <Node pos="s" depth="0" NCoef="0" IVar="5" Cut="9.7014927864074707e-01" cType="1" res="-1.1547581380000338e-05" rms="2.3404876887798309e-01" purity="4.9973487854003906e-01" nType="0">
        <Node pos="l" depth="1" NCoef="0" IVar="5" Cut="-3.7268888950347900e-01" cType="1" res="-1.1393389850854874e-01" rms="1.7973756790161133e-01" purity="4.5589275658130646e-02" nType="0">
          <Node pos="l" depth="2" NCoef="0" IVar="5" Cut="-9.5942771434783936e-01" cType="1" res="-1.2708632647991180e-01" rms="9.9355921149253845e-02" purity="1.0244159959256649e-02" nType="0">
            <Node pos="l" depth="3" NCoef="0" IVar="6" Cut="7.7692157030105591e-01" cType="1" res="-1.3129305839538574e-01" rms="6.2418099492788315e-02" purity="3.7092014681547880e-03" nType="0">
              <Node pos="l" depth="4" NCoef="0" IVar="-1" Cut="0.0000000000000000e+00" cType="1" res="-5.6416608393192291e-02" rms="4.9166295677423477e-02" purity="2.3869755677878857e-03" nType="-99"/>
              <Node pos="r" depth="4" NCoef="0" IVar="-1" Cut="0.0000000000000000e+00" cType="1" res="-5.6285101920366287e-02" rms="1.0262767225503922e-01" purity="1.0057417675852776e-02" nType="-99"/>
            </Node>
            <Node pos="r" depth="3" NCoef="0" IVar="1" Cut="5.3730595856904984e-02" cType="1" res="-1.1451411992311478e-01" rms="1.6588924825191498e-01" purity="2.9774501919746399e-02" nType="0">
              <Node pos="l" depth="4" NCoef="0" IVar="-1" Cut="0.0000000000000000e+00" cType="1" res="-3.8958657532930374e-02" rms="2.2155657410621643e-01" purity="5.3982082754373550e-02" nType="-99"/>
              <Node pos="r" depth="4" NCoef="0" IVar="-1" Cut="0.0000000000000000e+00" cType="1" res="-5.4514490067958832e-02" rms="8.6227037012577057e-02" purity="7.5528314337134361e-03" nType="-99"/>
            </Node>
          </Node>
          <Node pos="r" depth="2" NCoef="0" IVar="9" Cut="1.0348259210586548e+00" cType="1" res="-7.3614075779914856e-02" rms="3.1451997160911560e-01" purity="1.5394259989261627e-01" nType="0">
            <Node pos="l" depth="3" NCoef="0" IVar="-1" Cut="0.0000000000000000e+00" cType="1" res="3.1993121374398470e-03" rms="4.1263097524642944e-01" purity="3.1529161334037781e-01" nType="-99"/>
            <Node pos="r" depth="3" NCoef="0" IVar="-1" Cut="0.0000000000000000e+00" cType="1" res="-4.2353130877017975e-02" rms="2.2545145452022552e-01" purity="6.0409825295209885e-02" nType="-99"/>
          </Node>
        </Node>
        <Node pos="r" depth="1" NCoef="0" IVar="1" Cut="3.9799716323614120e-02" cType="1" res="7.4011594057083130e-02" rms="2.3551838099956512e-01" purity="7.9482436180114746e-01" nType="0">
          <Node pos="l" depth="2" NCoef="0" IVar="7" Cut="3.9303162693977356e-01" cType="1" res="1.1027666181325912e-01" rms="1.9562344253063202e-01" purity="9.1710370779037476e-01" nType="0">
            <Node pos="l" depth="3" NCoef="0" IVar="5" Cut="9.9970299005508423e-01" cType="1" res="1.2084174156188965e-01" rms="1.7389014363288879e-01" purity="9.5344007015228271e-01" nType="0">
              <Node pos="l" depth="4" NCoef="0" IVar="-1" Cut="0.0000000000000000e+00" cType="1" res="1.9612431526184082e-02" rms="3.6066964268684387e-01" purity="7.7478003501892090e-01" nType="-99"/>
              <Node pos="r" depth="4" NCoef="0" IVar="-1" Cut="0.0000000000000000e+00" cType="1" res="5.2711002528667450e-02" rms="1.2163657695055008e-01" purity="9.8026758432388306e-01" nType="-99"/>
            </Node>
            <Node pos="r" depth="3" NCoef="0" IVar="-1" Cut="0.0000000000000000e+00" cType="1" res="-1.5006597153842449e-02" rms="3.7139502167701721e-01" purity="3.2277598977088928e-01" nType="-99"/>
          </Node>
          <Node pos="r" depth="2" NCoef="0" IVar="4" Cut="2.3934538364410400e+00" cType="1" res="-9.3374304473400116e-02" rms="3.1744456291198730e-01" purity="2.3042899370193481e-01" nType="0">
            <Node pos="l" depth="3" NCoef="0" IVar="1" Cut="1.1506304144859314e-01" cType="1" res="-3.8953382521867752e-02" rms="3.6875200271606445e-01" purity="3.5101133584976196e-01" nType="0">
              <Node pos="l" depth="4" NCoef="0" IVar="-1" Cut="0.0000000000000000e+00" cType="1" res="1.2305086478590965e-02" rms="3.8968333601951599e-01" purity="5.6895154714584351e-01" nType="-99"/>
              <Node pos="r" depth="4" NCoef="0" IVar="-1" Cut="0.0000000000000000e+00" cType="1" res="-3.0553843826055527e-02" rms="3.3224210143089294e-01" purity="1.6611394286155701e-01" nType="-99"/>
            </Node>
            <Node pos="r" depth="3" NCoef="0" IVar="-1" Cut="0.0000000000000000e+00" cType="1" res="-5.1154438406229019e-02" rms="2.1816626191139221e-01" purity="7.7491141855716705e-02" nType="-99"/>
          </Node>
        </Node>
      </Node>
    </BinaryTree>
    <BinaryTree type="DecisionTree" boostWeight="1.0000000000000000e+00" itree="15">
      <Node pos="s" depth="0" NCoef="0" IVar="6" Cut="8.4670978784561157e-01" cType="1" res="1.1038757656933740e-04" rms="2.2798179090023041e-01" purity="4.9979516863822937e-01" nType="0">
        <Node pos="l" depth="1" NCoef="0" IVar="3" Cut="8.7969703674316406e+00" cType="1" res="-7.6357901096343994e-02" rms="2.3884953558444977e-01" purity="1.7911632359027863e-01" nType="0">
          <Node pos="l" depth="2" NCoef="0" IVar="6" Cut="7.2984993457794189e-01" cType="1" res="-9.4136245548725128e-02" rms="2.2913059592247009e-01" purity="1.2641511857509613e-01" nType="0">
            <Node pos="l" depth="3" NCoef="0" IVar="4" Cut="2.7076382637023926e+00" cType="1" res="-1.1043612658977509e-01" rms="2.0145685970783234e-01" purity="7.1520097553730011e-02" nType="0">
              <Node pos="l" depth="4" NCoef="0" IVar="-1" Cut="0.0000000000000000e+00" cType="1" res="-3.6358587443828583e-02" rms="2.2217160463333130e-01" purity="9.3806542456150055e-02" nType="-99"/>
              <Node pos="r" depth="4" NCoef="0" IVar="-1" Cut="0.0000000000000000e+00" cType="1" res="-5.4691281169652939e-02" rms="1.4506869018077850e-01" purity="2.5419820100069046e-02" nType="-99"/>
            </Node>
            <Node pos="r" depth="3" NCoef="0" IVar="5" Cut="9.6019899845123291e-01" cType="1" res="-3.3959753811359406e-02" rms="3.0313456058502197e-01" purity="3.2907858490943909e-01" nType="0">
              <Node pos="l" depth="4" NCoef="0" IVar="-1" Cut="0.0000000000000000e+00" cType="1" res="-4.0176108479499817e-02" rms="1.9950778782367706e-01" purity="4.9669519066810608e-02" nType="-99"/>
              <Node pos="r" depth="4" NCoef="0" IVar="-1" Cut="0.0000000000000000e+00" cType="1" res="9.2349248006939888e-03" rms="3.7211766839027405e-01" purity="6.2788867950439453e-01" nType="-99"/>
            </Node>
          </Node>
          <Node pos="r" depth="2" NCoef="0" IVar="1" Cut="1.5920212492346764e-02" cType="1" res="4.5828264206647873e-02" rms="2.6684546470642090e-01" purity="5.4131859540939331e-01" nType="0">
            <Node pos="l" depth="3" NCoef="0" IVar="-1" Cut="0.0000000000000000e+00" cType="1" res="3.7134472280740738e-02" rms="2.4316985905170441e-01" purity="7.5761812925338745e-01" nType="-99"/>
            <Node pos="r" depth="3" NCoef="0" IVar="-1" Cut="0.0000000000000000e+00" cType="1" res="-1.4670659787952900e-02" rms="2.6943418383598328e-01" purity="2.6194810867309570e-01" nType="-99"/>
          </Node>
        </Node>
        <Node pos="r" depth="1" NCoef="0" IVar="5" Cut="1.8407960236072540e-01" cType="1" res="9.3796633183956146e-02" rms="1.7268122732639313e-01" purity="8.9267957210540771e-01" nType="0">
          <Node pos="l" depth="2" NCoef="0" IVar="-1" Cut="0.0000000000000000e+00" cType="1" res="-3.8137212395668030e-02" rms="2.4083808064460754e-01" purity="6.5671034157276154e-02" nType="-99"/>
          <Node pos="r" depth="2" NCoef="0" IVar="12" Cut="2.9271775856614113e-02" cType="1" res="1.1103351414203644e-01" rms="1.5371850132942200e-01" purity="9.6289569139480591e-01" nType="0">
            <Node pos="l" depth="3" NCoef="0" IVar="8" Cut="2.7093715667724609e+01" cType="1" res="1.1761316657066345e-01" rms="1.1558016389608383e-01" purity="9.8269981145858765e-01" nType="0">
              <Node pos="l" depth="4" NCoef="0" IVar="-1" Cut="0.0000000000000000e+00" cType="1" res="4.9563843756914139e-02" rms="2.0831985771656036e-01" purity="9.4927763938903809e-01" nType="-99"/>
              <Node pos="r" depth="4" NCoef="0" IVar="-1" Cut="0.0000000000000000e+00" cType="1" res="5.3374473005533218e-02" rms="9.4276346266269684e-02" purity="9.8762512207031250e-01" nType="-99"/>
            </Node>
            <Node pos="r" depth="3" NCoef="0" IVar="0" Cut="-5.7330217361450195e+00" cType="1" res="8.2071185111999512e-02" rms="2.6040196418762207e-01" purity="8.7572151422500610e-01" nType="0">
              <Node pos="l" depth="4" NCoef="0" IVar="-1" Cut="0.0000000000000000e+00" cType="1" res="4.0992297232151031e-02" rms="2.0794159173965454e-01" purity="9.2928093671798706e-01" nType="-99"/>
              <Node pos="r" depth="4" NCoef="0" IVar="-1" Cut="0.0000000000000000e+00" cType="1" res="1.1213987134397030e-02" rms="3.3137938380241394e-01" purity="7.7679198980331421e-01" nType="-99"/>
            </Node>
          </Node>
        </Node>
      </Node>
    </BinaryTree>
    <BinaryTree type="DecisionTree" boostWeight="1.0000000000000000e+00" itree="16">
      <Node pos="s" depth="0" NCoef="0" IVar="5" Cut="9.7014927864074707e-01" cType="1" res="2.3931404575705528e-04" rms="2.2337043285369873e-01" purity="4.9999311566352844e-01" nType="0">
        <Node pos="l" depth="1" NCoef="0" IVar="5" Cut="-6.5693932771682739e-01" cType="1" res="-9.5285192131996155e-02" rms="1.7832982540130615e-01" purity="4.5803204178810120e-02" nType="0">
          <Node pos="l" depth="2" NCoef="0" IVar="5" Cut="-9.8463958501815796e-01" cType="1" res="-1.0843252390623093e-01" rms="8.8705264031887054e-02" purity="8.0210771411657333e-03" nType="0">
            <Node pos="l" depth="3" NCoef="0" IVar="6" Cut="7.5364917516708374e-01" cType="1" res="-1.1194752901792526e-01" rms="5.4547388106584549e-02" purity="2.7698487974703312e-03" nType="0">
              <Node pos="l" depth="4" NCoef="0" IVar="-1" Cut="0.0000000000000000e+00" cType="1" res="-5.5288534611463547e-02" rms="4.3587278574705124e-02" purity="1.8347853329032660e-03" nType="-99"/>
              <Node pos="r" depth="4" NCoef="0" IVar="-1" Cut="0.0000000000000000e+00" cType="1" res="-5.5291797965764999e-02" rms="8.3591371774673462e-02" purity="6.5194177441298962e-03" nType="-99"/>
            </Node>
            <Node pos="r" depth="3" NCoef="0" IVar="8" Cut="2.8033582687377930e+01" cType="1" res="-1.0014785826206207e-01" rms="1.3893841207027435e-01" purity="2.0397931337356567e-02" nType="0">
              <Node pos="l" depth="4" NCoef="0" IVar="-1" Cut="0.0000000000000000e+00" cType="1" res="-4.2852319777011871e-02" rms="1.6456036269664764e-01" purity="2.9001425951719284e-02" nType="-99"/>
              <Node pos="r" depth="4" NCoef="0" IVar="-1" Cut="0.0000000000000000e+00" cType="1" res="-5.1504313945770264e-02" rms="1.0930213332176208e-01" purity="1.2514043599367142e-02" nType="-99"/>
            </Node>
          </Node>
          <Node pos="r" depth="2" NCoef="0" IVar="12" Cut="1.5059013664722443e-01" cType="1" res="-6.3102357089519501e-02" rms="2.9820644855499268e-01" purity="1.3828857243061066e-01" nType="0">
            <Node pos="l" depth="3" NCoef="0" IVar="-1" Cut="0.0000000000000000e+00" cType="1" res="3.1103987712413073e-03" rms="4.1476905345916748e-01" purity="3.1327250599861145e-01" nType="-99"/>
            <Node pos="r" depth="3" NCoef="0" IVar="4" Cut="1.8724411725997925e+00" cType="1" res="-1.0356896370649338e-01" rms="1.9804155826568604e-01" purity="4.3437868356704712e-02" nType="0">
              <Node pos="l" depth="4" NCoef="0" IVar="-1" Cut="0.0000000000000000e+00" cType="1" res="-3.5003479570150375e-02" rms="2.3253475129604340e-01" purity="6.1275426298379898e-02" nType="-99"/>
              <Node pos="r" depth="4" NCoef="0" IVar="-1" Cut="0.0000000000000000e+00" cType="1" res="-4.8355102539062500e-02" rms="1.5637347102165222e-01" purity="2.6251060888171196e-02" nType="-99"/>
            </Node>
          </Node>
        </Node>
        <Node pos="r" depth="1" NCoef="0" IVar="7" Cut="2.8855487704277039e-01" cType="1" res="6.2219988554716110e-02" rms="2.2775320708751678e-01" purity="7.9469239711761475e-01" nType="0">
          <Node pos="l" depth="2" NCoef="0" IVar="1" Cut="9.1528289020061493e-02" cType="1" res="9.0008102357387543e-02" rms="2.0240560173988342e-01" purity="9.0524512529373169e-01" nType="0">
            <Node pos="l" depth="3" NCoef="0" IVar="5" Cut="9.9985146522521973e-01" cType="1" res="1.0041183233261108e-01" rms="1.8046683073043823e-01" purity="9.4661957025527954e-01" nType="0">
              <Node pos="l" depth="4" NCoef="0" IVar="-1" Cut="0.0000000000000000e+00" cType="1" res="1.6871908679604530e-02" rms="3.4609800577163696e-01" purity="7.7945446968078613e-01" nType="-99"/>
              <Node pos="r" depth="4" NCoef="0" IVar="-1" Cut="0.0000000000000000e+00" cType="1" res="5.1049247384071350e-02" rms="1.2116397172212601e-01" purity="9.7998046875000000e-01" nType="-99"/>
            </Node>
            <Node pos="r" depth="3" NCoef="0" IVar="-1" Cut="0.0000000000000000e+00" cType="1" res="-1.9074425101280212e-02" rms="3.8182249665260315e-01" purity="2.4440911412239075e-01" nType="-99"/>
          </Node>
          <Node pos="r" depth="2" NCoef="0" IVar="3" Cut="5.1760067939758301e+00" cType="1" res="-8.9749805629253387e-02" rms="2.9014408588409424e-01" purity="1.9009315967559814e-01" nType="0">
            <Node pos="l" depth="3" NCoef="0" IVar="-1" Cut="0.0000000000000000e+00" cType="1" res="-4.7524768859148026e-02" rms="2.0636227726936340e-01" purity="6.0018833726644516e-02" nType="-99"/>
            <Node pos="r" depth="3" NCoef="0" IVar="-1" Cut="0.0000000000000000e+00" cType="1" res="9.2566935345530510e-03" rms="4.1671547293663025e-01" purity="5.4235625267028809e-01" nType="-99"/>
          </Node>
        </Node>
      </Node>
    </BinaryTree>
    <BinaryTree type="DecisionTree" boostWeight="1.0000000000000000e+00" itree="17">
      <Node pos="s" depth="0" NCoef="0" IVar="6" Cut="8.5546576976776123e-01" cType="1" res="-3.9808169276511762e-06" rms="2.1883323788642883e-01" purity="4.9962744116783142e-01" nType="0">
        <Node pos="l" depth="1" NCoef="0" IVar="3" Cut="7.9493002891540527e+00" cType="1" res="-6.2286891043186188e-02" rms="2.3487363755702972e-01" purity="1.8649774789810181e-01" nType="0">
          <Node pos="l" depth="2" NCoef="0" IVar="9" Cut="1.0746269226074219e+00" cType="1" res="-7.8916043043136597e-02" rms="2.2568389773368835e-01" purity="1.2648983299732208e-01" nType="0">
            <Node pos="l" depth="3" NCoef="0" IVar="5" Cut="8.1094527244567871e-01" cType="1" res="-3.4419871866703033e-02" rms="2.7030301094055176e-01" purity="2.3957422375679016e-01" nType="0">
              <Node pos="l" depth="4" NCoef="0" IVar="-1" Cut="0.0000000000000000e+00" cType="1" res="-4.2384445667266846e-02" rms="1.6000398993492126e-01" purity="2.8939269483089447e-02" nType="-99"/>
              <Node pos="r" depth="4" NCoef="0" IVar="-1" Cut="0.0000000000000000e+00" cType="1" res="1.2848826125264168e-02" rms="3.7434354424476624e-01" purity="5.8438903093338013e-01" nType="-99"/>
            </Node>
            <Node pos="r" depth="3" NCoef="0" IVar="4" Cut="2.3892452716827393e+00" cType="1" res="-9.7373336553573608e-02" rms="2.0147307217121124e-01" purity="7.9581707715988159e-02" nType="0">
              <Node pos="l" depth="4" NCoef="0" IVar="-1" Cut="0.0000000000000000e+00" cType="1" res="-3.3704902976751328e-02" rms="2.2415940463542938e-01" purity="1.0785908997058868e-01" nType="-99"/>
              <Node pos="r" depth="4" NCoef="0" IVar="-1" Cut="0.0000000000000000e+00" cType="1" res="-5.2616328001022339e-02" rms="1.5220400691032410e-01" purity="3.1483165919780731e-02" nType="-99"/>
            </Node>
          </Node>
          <Node pos="r" depth="2" NCoef="0" IVar="5" Cut="9.6019899845123291e-01" cType="1" res="3.0804563313722610e-02" rms="2.6200184226036072e-01" purity="5.2242732048034668e-01" nType="0">
            <Node pos="l" depth="3" NCoef="0" IVar="-1" Cut="0.0000000000000000e+00" cType="1" res="-4.5022707432508469e-02" rms="1.6682566702365875e-01" purity="3.2811257988214493e-02" nType="-99"/>
            <Node pos="r" depth="3" NCoef="0" IVar="-1" Cut="0.0000000000000000e+00" cType="1" res="4.0847733616828918e-02" rms="2.7447038888931274e-01" purity="8.8779205083847046e-01" nType="-99"/>
          </Node>
        </Node>
        <Node pos="r" depth="1" NCoef="0" IVar="5" Cut="4.8258706927299500e-01" cType="1" res="7.9470641911029816e-02" rms="1.6533419489860535e-01" purity="8.9918911457061768e-01" nType="0">
          <Node pos="l" depth="2" NCoef="0" IVar="-1" Cut="0.0000000000000000e+00" cType="1" res="-2.8999295085668564e-02" rms="2.6630806922912598e-01" purity="8.5325263440608978e-02" nType="-99"/>
          <Node pos="r" depth="2" NCoef="0" IVar="4" Cut="3.7019627094268799e+00" cType="1" res="9.2896409332752228e-02" rms="1.4603459835052490e-01" purity="9.6853065490722656e-01" nType="0">
            <Node pos="l" depth="3" NCoef="0" IVar="6" Cut="9.0677213668823242e-01" cType="1" res="9.5703922212123871e-02" rms="1.3370203971862793e-01" purity="9.7514259815216064e-01" nType="0">
              <Node pos="l" depth="4" NCoef="0" IVar="-1" Cut="0.0000000000000000e+00" cType="1" res="3.3065047115087509e-02" rms="2.2773545980453491e-01" purity="9.1644650697708130e-01" nType="-99"/>
              <Node pos="r" depth="4" NCoef="0" IVar="-1" Cut="0.0000000000000000e+00" cType="1" res="5.0753999501466751e-02" rms="1.1195839196443558e-01" purity="9.8427963256835938e-01" nType="-99"/>
            </Node>
            <Node pos="r" depth="3" NCoef="0" IVar="-1" Cut="0.0000000000000000e+00" cType="1" res="1.9840121269226074e-02" rms="2.6593944430351257e-01" purity="8.7029838562011719e-01" nType="-99"/>
          </Node>
        </Node>
      </Node>
    </BinaryTree>
    <BinaryTree type="DecisionTree" boostWeight="1.0000000000000000e+00" itree="18">
      <Node pos="s" depth="0" NCoef="0" IVar="5" Cut="9.7014927864074707e-01" cType="1" res="1.9121298100799322e-04" rms="2.1489584445953369e-01" purity="5.0016772747039795e-01" nType="0">
        <Node pos="l" depth="1" NCoef="0" IVar="5" Cut="-5.3931838274002075e-01" cType="1" res="-7.9620949923992157e-02" rms="1.7628423869609833e-01" purity="4.5609239488840103e-02" nType="0">
          <Node pos="l" depth="2" NCoef="0" IVar="5" Cut="-9.2665797472000122e-01" cType="1" res="-9.0408831834793091e-02" rms="9.3077838420867920e-02" purity="8.9556900784373283e-03" nType="0">
            <Node pos="l" depth="3" NCoef="0" IVar="3" Cut="5.5882234573364258e+00" cType="1" res="-9.2970237135887146e-02" rms="6.8088412284851074e-02" purity="4.5722057111561298e-03" nType="0">
              <Node pos="l" depth="4" NCoef="0" IVar="-1" Cut="0.0000000000000000e+00" cType="1" res="-5.3083162754774094e-02" rms="5.9643957763910294e-02" purity="3.5636620596051216e-03" nType="-99"/>
              <Node pos="r" depth="4" NCoef="0" IVar="-1" Cut="0.0000000000000000e+00" cType="1" res="-5.2678447216749191e-02" rms="8.8221326470375061e-02" purity="7.6578850857913494e-03" nType="-99"/>
            </Node>
            <Node pos="r" depth="3" NCoef="0" IVar="-1" Cut="0.0000000000000000e+00" cType="1" res="-4.0688704699277878e-02" rms="1.6698783636093140e-01" purity="3.0076529830694199e-02" nType="-99"/>
          </Node>
          <Node pos="r" depth="2" NCoef="0" IVar="1" Cut="1.9900265615433455e-03" cType="1" res="-5.0381224602460861e-02" rms="3.0108717083930969e-01" purity="1.4495585858821869e-01" nType="0">
            <Node pos="l" depth="3" NCoef="0" IVar="-1" Cut="0.0000000000000000e+00" cType="1" res="3.0490187928080559e-03" rms="3.9609134197235107e-01" purity="2.8522562980651855e-01" nType="-99"/>
            <Node pos="r" depth="3" NCoef="0" IVar="-1" Cut="0.0000000000000000e+00" cType="1" res="-3.7849120795726776e-02" rms="2.1207989752292633e-01" purity="5.6312575936317444e-02" nType="-99"/>
          </Node>
        </Node>
        <Node pos="r" depth="1" NCoef="0" IVar="7" Cut="1.9900336861610413e-01" cType="1" res="5.1966622471809387e-02" rms="2.2173291444778442e-01" purity="7.9504698514938354e-01" nType="0">
          <Node pos="l" depth="2" NCoef="0" IVar="1" Cut="7.7609628438949585e-02" cType="1" res="7.8261397778987885e-02" rms="1.8980874121189117e-01" purity="9.1877311468124390e-01" nType="0">
            <Node pos="l" depth="3" NCoef="0" IVar="5" Cut="9.9896049499511719e-01" cType="1" res="8.5764773190021515e-02" rms="1.6577123105525970e-01" purity="9.5741540193557739e-01" nType="0">
              <Node pos="l" depth="4" NCoef="0" IVar="-1" Cut="0.0000000000000000e+00" cType="1" res="9.8477127030491829e-03" rms="3.8348540663719177e-01" purity="7.2961091995239258e-01" nType="-99"/>
              <Node pos="r" depth="4" NCoef="0" IVar="-1" Cut="0.0000000000000000e+00" cType="1" res="4.7411803156137466e-02" rms="1.3075584173202515e-01" purity="9.7672653198242188e-01" nType="-99"/>
            </Node>
            <Node pos="r" depth="3" NCoef="0" IVar="-1" Cut="0.0000000000000000e+00" cType="1" res="-1.0586565360426903e-02" rms="3.9733010530471802e-01" purity="2.9817602038383484e-01" nType="-99"/>
          </Node>
          <Node pos="r" depth="2" NCoef="0" IVar="3" Cut="5.1760067939758301e+00" cType="1" res="-6.2570989131927490e-02" rms="3.0043858289718628e-01" purity="2.5610744953155518e-01" nType="0">
            <Node pos="l" depth="3" NCoef="0" IVar="7" Cut="5.4569900035858154e-01" cType="1" res="-1.0735502839088440e-01" rms="2.3769311606884003e-01" purity="1.0469295829534531e-01" nType="0">
              <Node pos="l" depth="4" NCoef="0" IVar="-1" Cut="0.0000000000000000e+00" cType="1" res="-1.9754791632294655e-02" rms="3.3539420366287231e-01" purity="2.4636828899383545e-01" nType="-99"/>
              <Node pos="r" depth="4" NCoef="0" IVar="-1" Cut="0.0000000000000000e+00" cType="1" res="-5.4107673466205597e-02" rms="1.4389850199222565e-01" purity="1.8546791747212410e-02" nType="-99"/>
            </Node>
            <Node pos="r" depth="3" NCoef="0" IVar="-1" Cut="0.0000000000000000e+00" cType="1" res="1.0695533826947212e-02" rms="3.9244961738586426e-01" purity="6.1324775218963623e-01" nType="-99"/>
          </Node>
        </Node>
      </Node>
    </BinaryTree>
    <BinaryTree type="DecisionTree" boostWeight="1.0000000000000000e+00" itree="19">
      <Node pos="s" depth="0" NCoef="0" IVar="6" Cut="8.5694754123687744e-01" cType="1" res="9.6903990197461098e-05" rms="2.1186539530754089e-01" purity="5.0022619962692261e-01" nType="0">
        <Node pos="l" depth="1" NCoef="0" IVar="3" Cut="9.8117332458496094e+00" cType="1" res="-5.1489055156707764e-02" rms="2.3071675002574921e-01" purity="1.8850387632846832e-01" nType="0">
          <Node pos="l" depth="2" NCoef="0" IVar="4" Cut="2.8669803142547607e+00" cType="1" res="-6.3414819538593292e-02" rms="2.2670027613639832e-01" purity="1.4104576408863068e-01" nType="0">
            <Node pos="l" depth="3" NCoef="0" IVar="5" Cut="8.2089549303054810e-01" cType="1" res="-4.7037664800882339e-02" rms="2.4273519217967987e-01" purity="1.7708310484886169e-01" nType="0">
              <Node pos="l" depth="4" NCoef="0" IVar="-1" Cut="0.0000000000000000e+00" cType="1" res="-4.5515894889831543e-02" rms="1.2335300445556641e-01" purity="1.6843037679791451e-02" nType="-99"/>
              <Node pos="r" depth="4" NCoef="0" IVar="-1" Cut="0.0000000000000000e+00" cType="1" res="5.2323995623737574e-04" rms="3.5649186372756958e-01" purity="4.4103914499282837e-01" nType="-99"/>
            </Node>
            <Node pos="r" depth="3" NCoef="0" IVar="5" Cut="8.5074627399444580e-01" cType="1" res="-1.0413714498281479e-01" rms="1.7421470582485199e-01" purity="5.1437705755233765e-02" nType="0">
              <Node pos="l" depth="4" NCoef="0" IVar="-1" Cut="0.0000000000000000e+00" cType="1" res="-4.9996007233858109e-02" rms="9.1801561415195465e-02" purity="8.8465427979826927e-03" nType="-99"/>
              <Node pos="r" depth="4" NCoef="0" IVar="-1" Cut="0.0000000000000000e+00" cType="1" res="-4.6994514763355255e-02" rms="2.3140716552734375e-01" purity="9.8912522196769714e-02" nType="-99"/>
            </Node>
          </Node>
          <Node pos="r" depth="2" NCoef="0" IVar="10" Cut="1.2437838315963745e+00" cType="1" res="4.4604137539863586e-02" rms="2.4011215567588806e-01" purity="5.7090282440185547e-01" nType="0">
            <Node pos="l" depth="3" NCoef="0" IVar="-1" Cut="0.0000000000000000e+00" cType="1" res="3.6004237830638885e-02" rms="2.3453572392463684e-01" purity="7.4255776405334473e-01" nType="-99"/>
            <Node pos="r" depth="3" NCoef="0" IVar="-1" Cut="0.0000000000000000e+00" cType="1" res="-9.4596724957227707e-03" rms="2.2957509756088257e-01" purity="3.6103916168212891e-01" nType="-99"/>
          </Node>
        </Node>
        <Node pos="r" depth="1" NCoef="0" IVar="5" Cut="5.2238804101943970e-01" cType="1" res="6.6217340528964996e-02" rms="1.6251194477081299e-01" purity="8.9977705478668213e-01" nType="0">
          <Node pos="l" depth="2" NCoef="0" IVar="-1" Cut="0.0000000000000000e+00" cType="1" res="-2.3965490981936455e-02" rms="2.6932984590530396e-01" purity="8.8952332735061646e-02" nType="-99"/>
          <Node pos="r" depth="2" NCoef="0" IVar="12" Cut="3.9760809391736984e-02" cType="1" res="7.6934829354286194e-02" rms="1.4495551586151123e-01" purity="9.6898883581161499e-01" nType="0">
            <Node pos="l" depth="3" NCoef="0" IVar="8" Cut="2.7093715667724609e+01" cType="1" res="8.1024251878261566e-02" rms="1.1535996198654175e-01" purity="9.8320639133453369e-01" nType="0">
              <Node pos="l" depth="4" NCoef="0" IVar="-1" Cut="0.0000000000000000e+00" cType="1" res="4.2032755911350250e-02" rms="2.0510062575340271e-01" purity="9.5037037134170532e-01" nType="-99"/>
              <Node pos="r" depth="4" NCoef="0" IVar="-1" Cut="0.0000000000000000e+00" cType="1" res="4.9236048012971878e-02" rms="9.5352374017238617e-02" purity="9.8799288272857666e-01" nType="-99"/>
            </Node>
            <Node pos="r" depth="3" NCoef="0" IVar="-1" Cut="0.0000000000000000e+00" cType="1" res="1.9189717248082161e-02" rms="2.7280277013778687e-01" purity="8.6867147684097290e-01" nType="-99"/>
          </Node>
        </Node>
      </Node>
    </BinaryTree>
    <BinaryTree type="DecisionTree" boostWeight="1.0000000000000000e+00" itree="20">
      <Node pos="s" depth="0" NCoef="0" IVar="6" Cut="7.9781627655029297e-01" cType="1" res="1.8741151143331081e-04" rms="2.0924618840217590e-01" purity="5.0040692090988159e-01" nType="0">
        <Node pos="l" depth="1" NCoef="0" IVar="3" Cut="1.0641736030578613e+01" cType="1" res="-5.3199592977762222e-02" rms="2.2115080058574677e-01" purity="1.4675423502922058e-01" nType="0">
          <Node pos="l" depth="2" NCoef="0" IVar="4" Cut="2.1098523139953613e+00" cType="1" res="-6.3321240246295929e-02" rms="2.1653056144714355e-01" purity="1.0610710084438324e-01" nType="0">
            <Node pos="l" depth="3" NCoef="0" IVar="5" Cut="7.4129354953765869e-01" cType="1" res="-4.6211525797843933e-02" rms="2.3756980895996094e-01" purity="1.4266166090965271e-01" nType="0">
              <Node pos="l" depth="4" NCoef="0" IVar="-1" Cut="0.0000000000000000e+00" cType="1" res="-4.6305190771818161e-02" rms="1.1037927120923996e-01" purity="1.3085281476378441e-02" nType="-99"/>
              <Node pos="r" depth="4" NCoef="0" IVar="-1" Cut="0.0000000000000000e+00" cType="1" res="3.5211522481404245e-04" rms="3.6950698494911194e-01" purity="3.8725069165229797e-01" nType="-99"/>
            </Node>
            <Node pos="r" depth="3" NCoef="0" IVar="5" Cut="9.1044777631759644e-01" cType="1" res="-8.8235706090927124e-02" rms="1.7867970466613770e-01" purity="5.2877873182296753e-02" nType="0">
              <Node pos="l" depth="4" NCoef="0" IVar="-1" Cut="0.0000000000000000e+00" cType="1" res="-4.7986418008804321e-02" rms="1.0003893077373505e-01" purity="1.0672483593225479e-02" nType="-99"/>
              <Node pos="r" depth="4" NCoef="0" IVar="-1" Cut="0.0000000000000000e+00" cType="1" res="-3.9955709129571915e-02" rms="2.4512700736522675e-01" purity="1.0846140235662460e-01" nType="-99"/>
            </Node>
          </Node>
          <Node pos="r" depth="2" NCoef="0" IVar="-1" Cut="0.0000000000000000e+00" cType="1" res="1.9664818421006203e-02" rms="2.4038480222225189e-01" purity="5.7089412212371826e-01" nType="-99"/>
        </Node>
        <Node pos="r" depth="1" NCoef="0" IVar="5" Cut="-5.0248754024505615e-01" cType="1" res="5.3153522312641144e-02" rms="1.8184480071067810e-01" purity="8.5127151012420654e-01" nType="0">
          <Node pos="l" depth="2" NCoef="0" IVar="-1" Cut="0.0000000000000000e+00" cType="1" res="-4.0602654218673706e-02" rms="1.7134350538253784e-01" purity="3.1241416931152344e-02" nType="-99"/>
          <Node pos="r" depth="2" NCoef="0" IVar="12" Cut="7.6038770377635956e-02" cType="1" res="6.6412344574928284e-02" rms="1.7750424146652222e-01" purity="9.3339347839355469e-01" nType="0">
            <Node pos="l" depth="3" NCoef="0" IVar="2" Cut="1.2887796387076378e-02" cType="1" res="7.2509869933128357e-02" rms="1.4898963272571564e-01" purity="9.6270638704299927e-01" nType="0">
              <Node pos="l" depth="4" NCoef="0" IVar="-1" Cut="0.0000000000000000e+00" cType="1" res="4.5456640422344208e-02" rms="1.3734140992164612e-01" purity="9.7032731771469116e-01" nType="-99"/>
              <Node pos="r" depth="4" NCoef="0" IVar="-1" Cut="0.0000000000000000e+00" cType="1" res="2.2365067154169083e-02" rms="2.3237663507461548e-01" purity="8.8817995786666870e-01" nType="-99"/>
            </Node>
            <Node pos="r" depth="3" NCoef="0" IVar="-1" Cut="0.0000000000000000e+00" cType="1" res="9.3705579638481140e-04" rms="3.5195523500442505e-01" purity="6.2871056795120239e-01" nType="-99"/>
          </Node>
        </Node>
      </Node>
    </BinaryTree>
    <BinaryTree type="DecisionTree" boostWeight="1.0000000000000000e+00" itree="21">
      <Node pos="s" depth="0" NCoef="0" IVar="5" Cut="9.6019899845123291e-01" cType="1" res="1.9002755288966000e-04" rms="2.0697526633739471e-01" purity="5.0023746490478516e-01" nType="0">
        <Node pos="l" depth="1" NCoef="0" IVar="8" Cut="3.1718015670776367e+01" cType="1" res="-6.1488118022680283e-02" rms="1.7083190381526947e-01" purity="4.2190093547105789e-02" nType="0">
          <Node pos="l" depth="2" NCoef="0" IVar="5" Cut="-6.8792897462844849e-01" cType="1" res="-4.9543958157300949e-02" rms="1.8295028805732727e-01" purity="4.9676470458507538e-02" nType="0">
            <Node pos="l" depth="3" NCoef="0" IVar="5" Cut="-9.8292195796966553e-01" cType="1" res="-6.6155448555946350e-02" rms="9.5119677484035492e-02" purity="9.3307271599769592e-03" nType="0">
              <Node pos="l" depth="4" NCoef="0" IVar="-1" Cut="0.0000000000000000e+00" cType="1" res="-5.1790222525596619e-02" rms="5.7878270745277405e-02" purity="3.2415832392871380e-03" nType="-99"/>
              <Node pos="r" depth="4" NCoef="0" IVar="-1" Cut="0.0000000000000000e+00" cType="1" res="-3.6101654171943665e-02" rms="1.5885519981384277e-01" purity="2.6890411972999573e-02" nType="-99"/>
            </Node>
            <Node pos="r" depth="3" NCoef="0" IVar="-1" Cut="0.0000000000000000e+00" cType="1" res="-2.5734496302902699e-03" rms="3.0795142054557800e-01" purity="1.5536807477474213e-01" nType="-99"/>
          </Node>
          <Node pos="r" depth="2" NCoef="0" IVar="6" Cut="7.4404150247573853e-01" cType="1" res="-7.8350543975830078e-02" rms="1.5048305690288544e-01" purity="3.1621046364307404e-02" nType="0">
            <Node pos="l" depth="3" NCoef="0" IVar="6" Cut="5.8969587087631226e-01" cType="1" res="-7.4230514466762543e-02" rms="9.5656082034111023e-02" purity="1.0079695843160152e-02" nType="0">
              <Node pos="l" depth="4" NCoef="0" IVar="-1" Cut="0.0000000000000000e+00" cType="1" res="-4.5263599604368210e-02" rms="1.1716096848249435e-01" purity="1.5559459105134010e-02" nType="-99"/>
              <Node pos="r" depth="4" NCoef="0" IVar="-1" Cut="0.0000000000000000e+00" cType="1" res="-5.0486508756875992e-02" rms="8.1046707928180695e-02" purity="7.0059522986412048e-03" nType="-99"/>
            </Node>
            <Node pos="r" depth="3" NCoef="0" IVar="-1" Cut="0.0000000000000000e+00" cType="1" res="-3.8361642509698868e-02" rms="2.1538004279136658e-01" purity="6.9653525948524475e-02" nType="-99"/>
          </Node>
        </Node>
        <Node pos="r" depth="1" NCoef="0" IVar="1" Cut="2.9849093407392502e-02" cType="1" res="3.9234206080436707e-02" rms="2.1806035935878754e-01" purity="7.9019570350646973e-01" nType="0">
          <Node pos="l" depth="2" NCoef="0" IVar="4" Cut="3.5825645923614502e+00" cType="1" res="6.1759985983371735e-02" rms="1.8294918537139893e-01" purity="9.1984546184539795e-01" nType="0">
            <Node pos="l" depth="3" NCoef="0" IVar="5" Cut="9.9980199337005615e-01" cType="1" res="6.9568283855915070e-02" rms="1.6996634006500244e-01" purity="9.4439893960952759e-01" nType="0">
              <Node pos="l" depth="4" NCoef="0" IVar="-1" Cut="0.0000000000000000e+00" cType="1" res="1.4240246266126633e-02" rms="3.3682042360305786e-01" purity="7.5928080081939697e-01" nType="-99"/>
              <Node pos="r" depth="4" NCoef="0" IVar="-1" Cut="0.0000000000000000e+00" cType="1" res="4.7493740916252136e-02" rms="1.1656462401151657e-01" purity="9.7755241394042969e-01" nType="-99"/>
            </Node>
            <Node pos="r" depth="3" NCoef="0" IVar="-1" Cut="0.0000000000000000e+00" cType="1" res="-8.6840139701962471e-03" rms="2.7343907952308655e-01" purity="6.5784502029418945e-01" nType="-99"/>
          </Node>
          <Node pos="r" depth="2" NCoef="0" IVar="5" Cut="9.9980199337005615e-01" cType="1" res="-5.1110163331031799e-02" rms="3.0630639195442200e-01" purity="2.7020782232284546e-01" nType="0">
            <Node pos="l" depth="3" NCoef="0" IVar="-1" Cut="0.0000000000000000e+00" cType="1" res="-3.4451238811016083e-02" rms="2.9026591777801514e-01" purity="1.4710114896297455e-01" nType="-99"/>
            <Node pos="r" depth="3" NCoef="0" IVar="7" Cut="1.4924918115139008e-01" cType="1" res="-7.6787718571722507e-03" rms="3.1335145235061646e-01" purity="3.7827852368354797e-01" nType="0">
              <Node pos="l" depth="4" NCoef="0" IVar="-1" Cut="0.0000000000000000e+00" cType="1" res="2.4766143411397934e-02" rms="3.5076567530632019e-01" purity="7.0451307296752930e-01" nType="-99"/>
              <Node pos="r" depth="4" NCoef="0" IVar="-1" Cut="0.0000000000000000e+00" cType="1" res="-2.7871167287230492e-02" rms="2.6474422216415405e-01" purity="1.4465822279453278e-01" nType="-99"/>
            </Node>
          </Node>
        </Node>
      </Node>
    </BinaryTree>
    <BinaryTree type="DecisionTree" boostWeight="1.0000000000000000e+00" itree="22">
