<?xml version="1.0"?>
<MethodSetup Method="BDT::BDTG_cuts200_depth4_trees1000_shrinkage0p1_muon">
  <GeneralInfo>
    <Info name="TMVA Release" value="4.2.1 [262657]"/>
    <Info name="ROOT Release" value="6.12/07 [396295]"/>
    <Info name="Creator" value="kskovpen"/>
    <Info name="Date" value="Mon Mar 23 22:46:32 2020"/>
    <Info name="Host" value="Linux cmsbuild13.cern.ch 3.10.0-1062.4.1.el7.x86_64 #1 SMP Fri Oct 18 17:15:30 UTC 2019 x86_64 x86_64 x86_64 GNU/Linux"/>
    <Info name="Dir" value="/storage_mnt/storage/user/kskovpen/analysis/LeptonMVA/CMSSW_10_2_20/src/TopLeptonMVA/Train/muon_TOP_2017/cuts200_depth4_trees1000_shrinkage0p1"/>
    <Info name="Training events" value="9393446"/>
    <Info name="TrainingTime" value="3.07838990e+04"/>
    <Info name="AnalysisType" value="Classification"/>
  </GeneralInfo>
  <Options>
    <Option name="V" modified="Yes">False</Option>
    <Option name="VerbosityLevel" modified="No">Default</Option>
    <Option name="VarTransform" modified="No">None</Option>
    <Option name="H" modified="Yes">False</Option>
    <Option name="CreateMVAPdfs" modified="No">False</Option>
    <Option name="IgnoreNegWeightsInTraining" modified="Yes">True</Option>
    <Option name="NTrees" modified="Yes">1000</Option>
    <Option name="MaxDepth" modified="Yes">4</Option>
    <Option name="MinNodeSize" modified="Yes">2.5%</Option>
    <Option name="nCuts" modified="Yes">200</Option>
    <Option name="BoostType" modified="Yes">Grad</Option>
    <Option name="AdaBoostR2Loss" modified="No">quadratic</Option>
    <Option name="UseBaggedBoost" modified="Yes">True</Option>
    <Option name="Shrinkage" modified="Yes">1.000000e-01</Option>
    <Option name="AdaBoostBeta" modified="No">5.000000e-01</Option>
    <Option name="UseRandomisedTrees" modified="No">False</Option>
    <Option name="UseNvars" modified="No">4</Option>
    <Option name="UsePoissonNvars" modified="No">True</Option>
    <Option name="BaggedSampleFraction" modified="No">6.000000e-01</Option>
    <Option name="UseYesNoLeaf" modified="No">True</Option>
    <Option name="NegWeightTreatment" modified="No">pray</Option>
    <Option name="Css" modified="No">1.000000e+00</Option>
    <Option name="Cts_sb" modified="No">1.000000e+00</Option>
    <Option name="Ctb_ss" modified="No">1.000000e+00</Option>
    <Option name="Cbb" modified="No">1.000000e+00</Option>
    <Option name="NodePurityLimit" modified="No">5.000000e-01</Option>
    <Option name="SeparationType" modified="No">giniindex</Option>
    <Option name="RegressionLossFunctionBDTG" modified="No">huber</Option>
    <Option name="HuberQuantile" modified="No">7.000000e-01</Option>
    <Option name="DoBoostMonitor" modified="Yes">True</Option>
    <Option name="UseFisherCuts" modified="No">False</Option>
    <Option name="MinLinCorrForFisher" modified="No">8.000000e-01</Option>
    <Option name="UseExclusiveVars" modified="No">False</Option>
    <Option name="DoPreselection" modified="No">False</Option>
    <Option name="SigToBkgFraction" modified="No">1.000000e+00</Option>
    <Option name="PruneMethod" modified="No">nopruning</Option>
    <Option name="PruneStrength" modified="No">0.000000e+00</Option>
    <Option name="PruningValFraction" modified="No">5.000000e-01</Option>
    <Option name="SkipNormalization" modified="No">False</Option>
    <Option name="nEventsMin" modified="No">0</Option>
    <Option name="UseBaggedGrad" modified="No">False</Option>
    <Option name="GradBaggingFraction" modified="No">6.000000e-01</Option>
    <Option name="UseNTrainEvents" modified="No">0</Option>
    <Option name="NNodesMax" modified="No">0</Option>
  </Options>
  <Variables NVar="13">
    <Variable VarIndex="0" Expression="dxylog" Label="dxylog" Title="dxylog" Unit="" Internal="dxylog" Type="F" Min="-4.37491150e+01" Max="-2.99603128e+00"/>
    <Variable VarIndex="1" Expression="miniIsoCharged" Label="miniIsoCharged" Title="miniIsoCharged" Unit="" Internal="miniIsoCharged" Type="F" Min="0.00000000e+00" Max="3.99999171e-01"/>
    <Variable VarIndex="2" Expression="miniIsoNeutral" Label="miniIsoNeutral" Title="miniIsoNeutral" Unit="" Internal="miniIsoNeutral" Type="F" Min="0.00000000e+00" Max="3.99999708e-01"/>
    <Variable VarIndex="3" Expression="pTRel" Label="pTRel" Title="pTRel" Unit="" Internal="pTRel" Type="F" Min="0.00000000e+00" Max="1.13917468e+03"/>
    <Variable VarIndex="4" Expression="sip3d" Label="sip3d" Title="sip3d" Unit="" Internal="sip3d" Type="F" Min="2.32506081e-05" Max="7.99999857e+00"/>
    <Variable VarIndex="5" Expression="segmentCompatibility" Label="segmentCompatibility" Title="segmentCompatibility" Unit="" Internal="segmentCompatibility" Type="F" Min="3.03009629e-01" Max="1.00000000e+00"/>
    <Variable VarIndex="6" Expression="ptRatio" Label="ptRatio" Title="ptRatio" Unit="" Internal="ptRatio" Type="F" Min="1.26119088e-02" Max="1.50000000e+00"/>
    <Variable VarIndex="7" Expression="bTagDeepJetClosestJet" Label="bTagDeepJetClosestJet" Title="bTagDeepJetClosestJet" Unit="" Internal="bTagDeepJetClosestJet" Type="F" Min="0.00000000e+00" Max="9.99997258e-01"/>
    <Variable VarIndex="8" Expression="pt" Label="pt" Title="pt" Unit="" Internal="pt" Type="F" Min="1.00000038e+01" Max="2.35128345e+03"/>
    <Variable VarIndex="9" Expression="trackMultClosestJet" Label="trackMultClosestJet" Title="trackMultClosestJet" Unit="" Internal="trackMultClosestJet" Type="F" Min="0.00000000e+00" Max="4.10000000e+01"/>
    <Variable VarIndex="10" Expression="etaAbs" Label="etaAbs" Title="etaAbs" Unit="" Internal="etaAbs" Type="F" Min="2.36278215e-08" Max="2.39999962e+00"/>
    <Variable VarIndex="11" Expression="dzlog" Label="dzlog" Title="dzlog" Unit="" Internal="dzlog" Type="F" Min="-2.19135628e+01" Max="-2.30259323e+00"/>
    <Variable VarIndex="12" Expression="relIso" Label="relIso" Title="relIso" Unit="" Internal="relIso" Type="F" Min="0.00000000e+00" Max="5.72687912e+01"/>
  </Variables>
  <Spectators NSpec="0"/>
  <Classes NClass="2">
    <Class Name="Signal" Index="0"/>
    <Class Name="Background" Index="1"/>
  </Classes>
  <Transformations NTransformations="0"/>
  <MVAPdfs/>
  <Weights NTrees="1000" AnalysisType="1">
    <BinaryTree type="DecisionTree" boostWeight="1.0000000000000000e+00" itree="0">
      <Node pos="s" depth="0" NCoef="0" IVar="6" Cut="7.6846039295196533e-01" cType="1" res="1.9597243226598948e-04" rms="4.9999997019767761e-01" purity="5.0019598007202148e-01" nType="0">
        <Node pos="l" depth="1" NCoef="0" IVar="3" Cut="7.3953557014465332e+00" cType="1" res="-3.5651242733001709e-01" rms="3.5056939721107483e-01" purity="1.4348758757114410e-01" nType="0">
          <Node pos="l" depth="2" NCoef="0" IVar="7" Cut="4.4775914400815964e-02" cType="1" res="-4.0712562203407288e-01" rms="2.9025632143020630e-01" purity="9.2874377965927124e-02" nType="0">
            <Node pos="l" depth="3" NCoef="0" IVar="12" Cut="1.5731066465377808e-01" cType="1" res="-1.5187881886959076e-01" rms="4.7637465596199036e-01" purity="3.4812116622924805e-01" nType="0">
              <Node pos="l" depth="4" NCoef="0" IVar="-1" Cut="0.0000000000000000e+00" cType="1" res="4.1592784225940704e-02" rms="4.5469880104064941e-01" purity="7.0796388387680054e-01" nType="-99"/>
              <Node pos="r" depth="4" NCoef="0" IVar="-1" Cut="0.0000000000000000e+00" cType="1" res="-6.0097925364971161e-02" rms="3.9963230490684509e-01" purity="1.9951036572456360e-01" nType="-99"/>
            </Node>
            <Node pos="r" depth="3" NCoef="0" IVar="7" Cut="1.5883249044418335e-01" cType="1" res="-4.6988555788993835e-01" rms="1.7090223729610443e-01" purity="3.0114455148577690e-02" nType="0">
              <Node pos="l" depth="4" NCoef="0" IVar="-1" Cut="0.0000000000000000e+00" cType="1" res="-7.9781807959079742e-02" rms="3.0144912004470825e-01" purity="1.0109095275402069e-01" nType="-99"/>
              <Node pos="r" depth="4" NCoef="0" IVar="-1" Cut="0.0000000000000000e+00" cType="1" res="-9.6884854137897491e-02" rms="1.2382692843675613e-01" purity="1.5575710684061050e-02" nType="-99"/>
            </Node>
          </Node>
          <Node pos="r" depth="2" NCoef="0" IVar="-1" Cut="0.0000000000000000e+00" cType="1" res="4.7380104660987854e-02" rms="4.4031596183776855e-01" purity="7.3690050840377808e-01" nType="-99"/>
        </Node>
        <Node pos="r" depth="1" NCoef="0" IVar="7" Cut="1.3432157039642334e-01" cType="1" res="4.2082697153091431e-01" rms="2.7000862360000610e-01" purity="9.2082697153091431e-01" nType="0">
          <Node pos="l" depth="2" NCoef="0" IVar="12" Cut="9.5823228359222412e-02" cType="1" res="4.6579658985137939e-01" rms="1.8175132572650909e-01" purity="9.6579664945602417e-01" nType="0">
            <Node pos="l" depth="3" NCoef="0" IVar="7" Cut="2.4057446047663689e-02" cType="1" res="4.8096969723701477e-01" rms="1.3663144409656525e-01" purity="9.8096972703933716e-01" nType="0">
              <Node pos="l" depth="4" NCoef="0" IVar="-1" Cut="0.0000000000000000e+00" cType="1" res="9.8580218851566315e-02" rms="8.3955407142639160e-02" purity="9.9290108680725098e-01" nType="-99"/>
              <Node pos="r" depth="4" NCoef="0" IVar="-1" Cut="0.0000000000000000e+00" cType="1" res="7.9094223678112030e-02" rms="3.0594542622566223e-01" purity="8.9547115564346313e-01" nType="-99"/>
            </Node>
            <Node pos="r" depth="3" NCoef="0" IVar="-1" Cut="0.0000000000000000e+00" cType="1" res="4.9256484955549240e-02" rms="4.3513786792755127e-01" purity="7.4628245830535889e-01" nType="-99"/>
          </Node>
          <Node pos="r" depth="2" NCoef="0" IVar="-1" Cut="0.0000000000000000e+00" cType="1" res="-3.8950346410274506e-02" rms="4.6051248908042908e-01" purity="3.0524826049804688e-01" nType="-99"/>
        </Node>
      </Node>
    </BinaryTree>
    <BinaryTree type="DecisionTree" boostWeight="1.0000000000000000e+00" itree="1">
      <Node pos="s" depth="0" NCoef="0" IVar="6" Cut="7.7584964036941528e-01" cType="1" res="9.6811876574065536e-05" rms="4.6168583631515503e-01" purity="5.0012290477752686e-01" nType="0">
        <Node pos="l" depth="1" NCoef="0" IVar="3" Cut="7.3953557014465332e+00" cType="1" res="-3.1688606739044189e-01" rms="3.3947125077247620e-01" purity="1.4823453128337860e-01" nType="0">
          <Node pos="l" depth="2" NCoef="0" IVar="7" Cut="3.9800770580768585e-02" cType="1" res="-3.6298191547393799e-01" rms="2.8613308072090149e-01" purity="9.7043044865131378e-02" nType="0">
            <Node pos="l" depth="3" NCoef="0" IVar="12" Cut="1.5731066465377808e-01" cType="1" res="-1.1803569644689560e-01" rms="4.7051990032196045e-01" purity="3.6831656098365784e-01" nType="0">
              <Node pos="l" depth="4" NCoef="0" IVar="-1" Cut="0.0000000000000000e+00" cType="1" res="4.1656240820884705e-02" rms="4.4344779849052429e-01" purity="7.3000168800354004e-01" nType="-99"/>
              <Node pos="r" depth="4" NCoef="0" IVar="-1" Cut="0.0000000000000000e+00" cType="1" res="-5.2537061274051666e-02" rms="4.0597718954086304e-01" purity="2.0882099866867065e-01" nType="-99"/>
            </Node>
            <Node pos="r" depth="3" NCoef="0" IVar="7" Cut="1.2578837573528290e-01" cType="1" res="-4.2012712359428406e-01" rms="1.7905369400978088e-01" purity="3.3755768090486526e-02" nType="0">
              <Node pos="l" depth="4" NCoef="0" IVar="-1" Cut="0.0000000000000000e+00" cType="1" res="-6.8347081542015076e-02" rms="3.2679334282875061e-01" purity="1.2360411882400513e-01" nType="-99"/>
              <Node pos="r" depth="4" NCoef="0" IVar="-1" Cut="0.0000000000000000e+00" cType="1" res="-8.7656371295452118e-02" rms="1.3261476159095764e-01" purity="1.7962722107768059e-02" nType="-99"/>
            </Node>
          </Node>
          <Node pos="r" depth="2" NCoef="0" IVar="-1" Cut="0.0000000000000000e+00" cType="1" res="4.2929962277412415e-02" rms="4.3951988220214844e-01" purity="7.3797327280044556e-01" nType="-99"/>
        </Node>
        <Node pos="r" depth="1" NCoef="0" IVar="7" Cut="1.2437026202678680e-01" cType="1" res="3.8427591323852539e-01" rms="2.4990282952785492e-01" purity="9.2660713195800781e-01" nType="0">
          <Node pos="l" depth="2" NCoef="0" IVar="12" Cut="9.5823228359222412e-02" cType="1" res="4.2230880260467529e-01" rms="1.7151024937629700e-01" purity="9.6889442205429077e-01" nType="0">
            <Node pos="l" depth="3" NCoef="0" IVar="8" Cut="2.3063814163208008e+01" cType="1" res="4.3424743413925171e-01" rms="1.3142235577106476e-01" purity="9.8223525285720825e-01" nType="0">
              <Node pos="l" depth="4" NCoef="0" IVar="-1" Cut="0.0000000000000000e+00" cType="1" res="6.9676436483860016e-02" rms="3.1202965974807739e-01" purity="8.8987845182418823e-01" nType="-99"/>
              <Node pos="r" depth="4" NCoef="0" IVar="-1" Cut="0.0000000000000000e+00" cType="1" res="8.9467495679855347e-02" rms="9.1479368507862091e-02" purity="9.9150216579437256e-01" nType="-99"/>
            </Node>
            <Node pos="r" depth="3" NCoef="0" IVar="-1" Cut="0.0000000000000000e+00" cType="1" res="4.7152724117040634e-02" rms="4.2720431089401245e-01" purity="7.5980091094970703e-01" nType="-99"/>
          </Node>
          <Node pos="r" depth="2" NCoef="0" IVar="-1" Cut="0.0000000000000000e+00" cType="1" res="-2.9207164421677589e-02" rms="4.7089409828186035e-01" purity="3.3724945783615112e-01" nType="-99"/>
        </Node>
      </Node>
    </BinaryTree>
    <BinaryTree type="DecisionTree" boostWeight="1.0000000000000000e+00" itree="2">
      <Node pos="s" depth="0" NCoef="0" IVar="6" Cut="7.6107108592987061e-01" cType="1" res="4.4706790504278615e-05" rms="4.2836558818817139e-01" purity="5.0003224611282349e-01" nType="0">
        <Node pos="l" depth="1" NCoef="0" IVar="3" Cut="7.1411671638488770e+00" cType="1" res="-2.9368185997009277e-01" rms="3.1798055768013000e-01" purity="1.3864329457283020e-01" nType="0">
          <Node pos="l" depth="2" NCoef="0" IVar="7" Cut="4.4775955379009247e-02" cType="1" res="-3.3568963408470154e-01" rms="2.6611915230751038e-01" purity="8.7065398693084717e-02" nType="0">
            <Node pos="l" depth="3" NCoef="0" IVar="12" Cut="2.0848791301250458e-01" cType="1" res="-1.3955171406269073e-01" rms="4.5119056105613708e-01" purity="3.3014875650405884e-01" nType="0">
              <Node pos="l" depth="4" NCoef="0" IVar="-1" Cut="0.0000000000000000e+00" cType="1" res="2.2255701944231987e-02" rms="4.7421115636825562e-01" purity="6.2773418426513672e-01" nType="-99"/>
              <Node pos="r" depth="4" NCoef="0" IVar="-1" Cut="0.0000000000000000e+00" cType="1" res="-5.6216474622488022e-02" rms="3.7191376090049744e-01" purity="1.6593293845653534e-01" nType="-99"/>
            </Node>
            <Node pos="r" depth="3" NCoef="0" IVar="12" Cut="1.8204706907272339e-01" cType="1" res="-3.8298779726028442e-01" rms="1.6520334780216217e-01" purity="2.8446469455957413e-02" nType="0">
              <Node pos="l" depth="4" NCoef="0" IVar="-1" Cut="0.0000000000000000e+00" cType="1" res="-6.7379854619503021e-02" rms="2.7760878205299377e-01" purity="8.5582658648490906e-02" nType="-99"/>
              <Node pos="r" depth="4" NCoef="0" IVar="-1" Cut="0.0000000000000000e+00" cType="1" res="-8.1829816102981567e-02" rms="1.2138079106807709e-01" purity="1.5090242959558964e-02" nType="-99"/>
            </Node>
          </Node>
          <Node pos="r" depth="2" NCoef="0" IVar="-1" Cut="0.0000000000000000e+00" cType="1" res="3.5528521984815598e-02" rms="4.4660782814025879e-01" purity="7.1539437770843506e-01" nType="-99"/>
        </Node>
        <Node pos="r" depth="1" NCoef="0" IVar="7" Cut="1.4427316188812256e-01" cType="1" res="3.3753928542137146e-01" rms="2.5519600510597229e-01" purity="9.1527158021926880e-01" nType="0">
          <Node pos="l" depth="2" NCoef="0" IVar="12" Cut="1.0315184295177460e-01" cType="1" res="3.7641921639442444e-01" rms="1.8283593654632568e-01" purity="9.6288448572158813e-01" nType="0">
            <Node pos="l" depth="3" NCoef="0" IVar="7" Cut="2.7992857620120049e-02" cType="1" res="3.8973459601402283e-01" rms="1.4007750153541565e-01" purity="9.7926050424575806e-01" nType="0">
              <Node pos="l" depth="4" NCoef="0" IVar="-1" Cut="0.0000000000000000e+00" cType="1" res="8.2699231803417206e-02" rms="9.3573428690433502e-02" purity="9.9104750156402588e-01" nType="-99"/>
              <Node pos="r" depth="4" NCoef="0" IVar="-1" Cut="0.0000000000000000e+00" cType="1" res="6.2617510557174683e-02" rms="3.2300630211830139e-01" purity="8.7878668308258057e-01" nType="-99"/>
            </Node>
            <Node pos="r" depth="3" NCoef="0" IVar="-1" Cut="0.0000000000000000e+00" cType="1" res="3.4682944416999817e-02" rms="4.4830477237701416e-01" purity="7.1130561828613281e-01" nType="-99"/>
          </Node>
          <Node pos="r" depth="2" NCoef="0" IVar="-1" Cut="0.0000000000000000e+00" cType="1" res="-3.6866754293441772e-02" rms="4.4529426097869873e-01" purity="2.7782824635505676e-01" nType="-99"/>
        </Node>
      </Node>
    </BinaryTree>
    <BinaryTree type="DecisionTree" boostWeight="1.0000000000000000e+00" itree="3">
      <Node pos="s" depth="0" NCoef="0" IVar="6" Cut="7.6740586757659912e-01" cType="1" res="-9.1101588623132557e-05" rms="3.9931145310401917e-01" purity="4.9989128112792969e-01" nType="0">
        <Node pos="l" depth="1" NCoef="0" IVar="3" Cut="5.9162845611572266e+00" cType="1" res="-2.6165497303009033e-01" rms="3.1086030602455139e-01" purity="1.4269433915615082e-01" nType="0">
          <Node pos="l" depth="2" NCoef="0" IVar="7" Cut="3.4825775772333145e-02" cType="1" res="-3.0783805251121521e-01" rms="2.5226914882659912e-01" purity="8.1935420632362366e-02" nType="0">
            <Node pos="l" depth="3" NCoef="0" IVar="12" Cut="2.5785389542579651e-01" cType="1" res="-1.2085116654634476e-01" rms="4.4500723481178284e-01" purity="3.3732324838638306e-01" nType="0">
              <Node pos="l" depth="4" NCoef="0" IVar="-1" Cut="0.0000000000000000e+00" cType="1" res="1.4429301954805851e-02" rms="4.7646394371986389e-01" purity="5.8125710487365723e-01" nType="-99"/>
              <Node pos="r" depth="4" NCoef="0" IVar="-1" Cut="0.0000000000000000e+00" cType="1" res="-5.6574396789073944e-02" rms="3.4845289587974548e-01" purity="1.4149959385395050e-01" nType="-99"/>
            </Node>
            <Node pos="r" depth="3" NCoef="0" IVar="7" Cut="1.0205225646495819e-01" cType="1" res="-3.4497112035751343e-01" rms="1.6920129954814911e-01" purity="3.1218858435750008e-02" nType="0">
              <Node pos="l" depth="4" NCoef="0" IVar="-1" Cut="0.0000000000000000e+00" cType="1" res="-5.6918799877166748e-02" rms="3.2781016826629639e-01" purity="1.3022843003273010e-01" nType="-99"/>
              <Node pos="r" depth="4" NCoef="0" IVar="-1" Cut="0.0000000000000000e+00" cType="1" res="-7.6219826936721802e-02" rms="1.2477442622184753e-01" purity="1.5990098938345909e-02" nType="-99"/>
            </Node>
          </Node>
          <Node pos="r" depth="2" NCoef="0" IVar="1" Cut="1.1935718357563019e-02" cType="1" res="9.4416134059429169e-02" rms="4.5583954453468323e-01" purity="6.1114507913589478e-01" nType="0">
            <Node pos="l" depth="3" NCoef="0" IVar="-1" Cut="0.0000000000000000e+00" cType="1" res="5.8329124003648758e-02" rms="3.5592651367187500e-01" purity="8.2152539491653442e-01" nType="-99"/>
            <Node pos="r" depth="3" NCoef="0" IVar="-1" Cut="0.0000000000000000e+00" cType="1" res="-2.5127042084932327e-02" rms="4.5972740650177002e-01" purity="3.7319329380989075e-01" nType="-99"/>
          </Node>
        </Node>
        <Node pos="r" depth="1" NCoef="0" IVar="7" Cut="1.3432328402996063e-01" cType="1" res="3.0768671631813049e-01" rms="2.4110750854015350e-01" purity="9.2019897699356079e-01" nType="0">
          <Node pos="l" depth="2" NCoef="0" IVar="8" Cut="2.1648393630981445e+01" cType="1" res="3.4090444445610046e-01" rms="1.7588950693607330e-01" purity="9.6557128429412842e-01" nType="0">
            <Node pos="l" depth="3" NCoef="0" IVar="-1" Cut="0.0000000000000000e+00" cType="1" res="4.2935341596603394e-02" rms="3.8591897487640381e-01" purity="8.0757188796997070e-01" nType="-99"/>
            <Node pos="r" depth="3" NCoef="0" IVar="1" Cut="1.7356980592012405e-02" cType="1" res="3.5485011339187622e-01" rms="1.2933030724525452e-01" purity="9.8180472850799561e-01" nType="0">
              <Node pos="l" depth="4" NCoef="0" IVar="-1" Cut="0.0000000000000000e+00" cType="1" res="7.7367894351482391e-02" rms="1.0106851160526276e-01" purity="9.8924291133880615e-01" nType="-99"/>
              <Node pos="r" depth="4" NCoef="0" IVar="-1" Cut="0.0000000000000000e+00" cType="1" res="5.6611090898513794e-02" rms="3.1354427337646484e-01" purity="8.7934416532516479e-01" nType="-99"/>
            </Node>
          </Node>
          <Node pos="r" depth="2" NCoef="0" IVar="-1" Cut="0.0000000000000000e+00" cType="1" res="-2.9126953333616257e-02" rms="4.5707711577415466e-01" purity="3.0336248874664307e-01" nType="-99"/>
        </Node>
      </Node>
    </BinaryTree>
    <BinaryTree type="DecisionTree" boostWeight="1.0000000000000000e+00" itree="4">
      <Node pos="s" depth="0" NCoef="0" IVar="6" Cut="7.8220576047897339e-01" cType="1" res="8.7181615526787937e-05" rms="3.7368971109390259e-01" purity="4.9999719858169556e-01" nType="0">
        <Node pos="l" depth="1" NCoef="0" IVar="3" Cut="6.4006876945495605e+00" cType="1" res="-2.2998207807540894e-01" rms="3.0720356106758118e-01" purity="1.5267051756381989e-01" nType="0">
          <Node pos="l" depth="2" NCoef="0" IVar="7" Cut="4.9751058220863342e-02" cType="1" res="-2.7034112811088562e-01" rms="2.5940561294555664e-01" purity="9.3625314533710480e-02" nType="0">
            <Node pos="l" depth="3" NCoef="0" IVar="1" Cut="4.9750979989767075e-02" cType="1" res="-1.0511268675327301e-01" rms="4.3610131740570068e-01" purity="3.4315818548202515e-01" nType="0">
              <Node pos="l" depth="4" NCoef="0" IVar="-1" Cut="0.0000000000000000e+00" cType="1" res="9.7714709118008614e-03" rms="4.6449366211891174e-01" purity="5.3021514415740967e-01" nType="-99"/>
              <Node pos="r" depth="4" NCoef="0" IVar="-1" Cut="0.0000000000000000e+00" cType="1" res="-5.8457903563976288e-02" rms="3.2239609956741333e-01" purity="1.2917114794254303e-01" nType="-99"/>
            </Node>
            <Node pos="r" depth="3" NCoef="0" IVar="12" Cut="1.7955914139747620e-01" cType="1" res="-3.1438112258911133e-01" rms="1.5911993384361267e-01" purity="2.7114786207675934e-02" nType="0">
              <Node pos="l" depth="4" NCoef="0" IVar="-1" Cut="0.0000000000000000e+00" cType="1" res="-5.8663740754127502e-02" rms="2.7290529012680054e-01" purity="8.5111148655414581e-02" nType="-99"/>
              <Node pos="r" depth="4" NCoef="0" IVar="-1" Cut="0.0000000000000000e+00" cType="1" res="-7.2748377919197083e-02" rms="1.1345195770263672e-01" purity="1.3233950361609459e-02" nType="-99"/>
            </Node>
          </Node>
          <Node pos="r" depth="2" NCoef="0" IVar="7" Cut="6.1633069068193436e-02" cType="1" res="1.2294223159551620e-01" rms="4.3863764405250549e-01" purity="6.6899806261062622e-01" nType="0">
            <Node pos="l" depth="3" NCoef="0" IVar="-1" Cut="0.0000000000000000e+00" cType="1" res="6.3654616475105286e-02" rms="3.1099867820739746e-01" purity="8.7841784954071045e-01" nType="-99"/>
            <Node pos="r" depth="3" NCoef="0" IVar="-1" Cut="0.0000000000000000e+00" cType="1" res="-1.2333931401371956e-02" rms="4.6811959147453308e-01" purity="4.6305394172668457e-01" nType="-99"/>
          </Node>
        </Node>
        <Node pos="r" depth="1" NCoef="0" IVar="7" Cut="1.0447041690349579e-01" cType="1" res="2.8576633334159851e-01" rms="2.2026705741882324e-01" purity="9.3127608299255371e-01" nType="0">
          <Node pos="l" depth="2" NCoef="0" IVar="12" Cut="8.5576631128787994e-02" cType="1" res="3.1296259164810181e-01" rms="1.5773120522499084e-01" purity="9.7247689962387085e-01" nType="0">
            <Node pos="l" depth="3" NCoef="0" IVar="8" Cut="2.1648338317871094e+01" cType="1" res="3.2199248671531677e-01" rms="1.1848673969507217e-01" purity="9.8520267009735107e-01" nType="0">
              <Node pos="l" depth="4" NCoef="0" IVar="-1" Cut="0.0000000000000000e+00" cType="1" res="5.5245187133550644e-02" rms="3.1052288413047791e-01" purity="8.9049649238586426e-01" nType="-99"/>
              <Node pos="r" depth="4" NCoef="0" IVar="-1" Cut="0.0000000000000000e+00" cType="1" res="7.3519520461559296e-02" rms="8.3990372717380524e-02" purity="9.9280118942260742e-01" nType="-99"/>
            </Node>
            <Node pos="r" depth="3" NCoef="0" IVar="-1" Cut="0.0000000000000000e+00" cType="1" res="4.0097203105688095e-02" rms="3.9484447240829468e-01" purity="7.9971998929977417e-01" nType="-99"/>
          </Node>
          <Node pos="r" depth="2" NCoef="0" IVar="-1" Cut="0.0000000000000000e+00" cType="1" res="-1.4673775061964989e-02" rms="4.7086143493652344e-01" purity="3.8980206847190857e-01" nType="-99"/>
        </Node>
      </Node>
    </BinaryTree>
    <BinaryTree type="DecisionTree" boostWeight="1.0000000000000000e+00" itree="5">
      <Node pos="s" depth="0" NCoef="0" IVar="6" Cut="7.5260597467422485e-01" cType="1" res="-2.1310138981789351e-04" rms="3.5149183869361877e-01" purity="4.9969696998596191e-01" nType="0">
        <Node pos="l" depth="1" NCoef="0" IVar="3" Cut="8.5728626251220703e+00" cType="1" res="-2.1956865489482880e-01" rms="2.8511673212051392e-01" purity="1.3390429317951202e-01" nType="0">
          <Node pos="l" depth="2" NCoef="0" IVar="7" Cut="3.4825775772333145e-02" cType="1" res="-2.4730390310287476e-01" rms="2.5308239459991455e-01" purity="9.0679913759231567e-02" nType="0">
            <Node pos="l" depth="3" NCoef="0" IVar="1" Cut="5.1741018891334534e-02" cType="1" res="-8.4090888500213623e-02" rms="4.3614736199378967e-01" purity="3.5737502574920654e-01" nType="0">
              <Node pos="l" depth="4" NCoef="0" IVar="-1" Cut="0.0000000000000000e+00" cType="1" res="1.1554747819900513e-02" rms="4.6521919965744019e-01" purity="5.4651004076004028e-01" nType="-99"/>
              <Node pos="r" depth="4" NCoef="0" IVar="-1" Cut="0.0000000000000000e+00" cType="1" res="-5.1648255437612534e-02" rms="3.3713921904563904e-01" purity="1.4447675645351410e-01" nType="-99"/>
            </Node>
            <Node pos="r" depth="3" NCoef="0" IVar="7" Cut="1.6927771270275116e-01" cType="1" res="-2.8031536936759949e-01" rms="1.7903377115726471e-01" purity="3.6738127470016479e-02" nType="0">
              <Node pos="l" depth="4" NCoef="0" IVar="-1" Cut="0.0000000000000000e+00" cType="1" res="-5.1377616822719574e-02" rms="3.0447506904602051e-01" purity="1.1456084251403809e-01" nType="-99"/>
              <Node pos="r" depth="4" NCoef="0" IVar="-1" Cut="0.0000000000000000e+00" cType="1" res="-6.8843260407447815e-02" rms="1.2500943243503571e-01" purity="1.6744034364819527e-02" nType="-99"/>
            </Node>
          </Node>
          <Node pos="r" depth="2" NCoef="0" IVar="-1" Cut="0.0000000000000000e+00" cType="1" res="4.1837166994810104e-02" rms="3.9238750934600830e-01" purity="7.9070222377777100e-01" nType="-99"/>
        </Node>
        <Node pos="r" depth="1" NCoef="0" IVar="7" Cut="1.5919797122478485e-01" cType="1" res="2.4433602392673492e-01" rms="2.3918001353740692e-01" purity="9.0750193595886230e-01" nType="0">
          <Node pos="l" depth="2" NCoef="0" IVar="12" Cut="1.1157820373773575e-01" cType="1" res="2.7559739351272583e-01" rms="1.8475422263145447e-01" purity="9.5834285020828247e-01" nType="0">
            <Node pos="l" depth="3" NCoef="0" IVar="8" Cut="2.1648338317871094e+01" cType="1" res="2.8715270757675171e-01" rms="1.4607392251491547e-01" purity="9.7619473934173584e-01" nType="0">
              <Node pos="l" depth="4" NCoef="0" IVar="-1" Cut="0.0000000000000000e+00" cType="1" res="4.5793898403644562e-02" rms="3.4502905607223511e-01" purity="8.5318487882614136e-01" nType="-99"/>
              <Node pos="r" depth="4" NCoef="0" IVar="-1" Cut="0.0000000000000000e+00" cType="1" res="6.9424197077751160e-02" rms="1.0803225636482239e-01" purity="9.8756188154220581e-01" nType="-99"/>
            </Node>
            <Node pos="r" depth="3" NCoef="0" IVar="-1" Cut="0.0000000000000000e+00" cType="1" res="1.8470568582415581e-02" rms="4.5214939117431641e-01" purity="6.6869920492172241e-01" nType="-99"/>
          </Node>
          <Node pos="r" depth="2" NCoef="0" IVar="-1" Cut="0.0000000000000000e+00" cType="1" res="-3.3804412931203842e-02" rms="4.2340695858001709e-01" purity="2.4628885090351105e-01" nType="-99"/>
        </Node>
      </Node>
    </BinaryTree>
    <BinaryTree type="DecisionTree" boostWeight="1.0000000000000000e+00" itree="6">
      <Node pos="s" depth="0" NCoef="0" IVar="6" Cut="7.4629247188568115e-01" cType="1" res="1.1975262896157801e-04" rms="3.3197823166847229e-01" purity="5.0020301342010498e-01" nType="0">
        <Node pos="l" depth="1" NCoef="0" IVar="3" Cut="9.5215559005737305e+00" cType="1" res="-2.0071820914745331e-01" rms="2.7546200156211853e-01" purity="1.3053348660469055e-01" nType="0">
          <Node pos="l" depth="2" NCoef="0" IVar="7" Cut="2.9850663617253304e-02" cType="1" res="-2.2388832271099091e-01" rms="2.4986067414283752e-01" purity="9.1773174703121185e-02" nType="0">
            <Node pos="l" depth="3" NCoef="0" IVar="1" Cut="3.7808839231729507e-02" cType="1" res="-6.7105501890182495e-02" rms="4.3192499876022339e-01" purity="3.6816668510437012e-01" nType="0">
              <Node pos="l" depth="4" NCoef="0" IVar="-1" Cut="0.0000000000000000e+00" cType="1" res="1.4802122488617897e-02" rms="4.5999687910079956e-01" purity="5.7288914918899536e-01" nType="-99"/>
              <Node pos="r" depth="4" NCoef="0" IVar="-1" Cut="0.0000000000000000e+00" cType="1" res="-4.3854847550392151e-02" rms="3.5472962260246277e-01" purity="1.7073407769203186e-01" nType="-99"/>
            </Node>
            <Node pos="r" depth="3" NCoef="0" IVar="7" Cut="1.0707644373178482e-01" cType="1" res="-2.5165721774101257e-01" rms="1.8793679773807526e-01" purity="4.2819205671548843e-02" nType="0">
              <Node pos="l" depth="4" NCoef="0" IVar="-1" Cut="0.0000000000000000e+00" cType="1" res="-4.3362200260162354e-02" rms="3.3850383758544922e-01" purity="1.5503066778182983e-01" nType="-99"/>
              <Node pos="r" depth="4" NCoef="0" IVar="-1" Cut="0.0000000000000000e+00" cType="1" res="-6.4963005483150482e-02" rms="1.4047035574913025e-01" purity="2.1871164441108704e-02" nType="-99"/>
            </Node>
          </Node>
          <Node pos="r" depth="2" NCoef="0" IVar="-1" Cut="0.0000000000000000e+00" cType="1" res="4.5100118964910507e-02" rms="3.6748510599136353e-01" purity="8.2401937246322632e-01" nType="-99"/>
        </Node>
        <Node pos="r" depth="1" NCoef="0" IVar="7" Cut="1.6914576292037964e-01" cType="1" res="2.1850621700286865e-01" rms="2.3661465942859650e-01" purity="9.0217286348342896e-01" nType="0">
          <Node pos="l" depth="2" NCoef="0" IVar="1" Cut="2.7832036837935448e-02" cType="1" res="2.4835816025733948e-01" rms="1.8721894919872284e-01" purity="9.5546686649322510e-01" nType="0">
            <Node pos="l" depth="3" NCoef="0" IVar="8" Cut="2.1648395538330078e+01" cType="1" res="2.5929427146911621e-01" rms="1.5626686811447144e-01" purity="9.7118049860000610e-01" nType="0">
              <Node pos="l" depth="4" NCoef="0" IVar="-1" Cut="0.0000000000000000e+00" cType="1" res="3.9574630558490753e-02" rms="3.6195528507232666e-01" purity="8.2794845104217529e-01" nType="-99"/>
              <Node pos="r" depth="4" NCoef="0" IVar="-1" Cut="0.0000000000000000e+00" cType="1" res="6.6368550062179565e-02" rms="1.1626169085502625e-01" purity="9.8486393690109253e-01" nType="-99"/>
            </Node>
            <Node pos="r" depth="3" NCoef="0" IVar="-1" Cut="0.0000000000000000e+00" cType="1" res="1.6400812193751335e-02" rms="4.1573664546012878e-01" purity="7.0355200767517090e-01" nType="-99"/>
          </Node>
          <Node pos="r" depth="2" NCoef="0" IVar="-1" Cut="0.0000000000000000e+00" cType="1" res="-3.4219842404127121e-02" rms="4.0843775868415833e-01" purity="2.2539041936397552e-01" nType="-99"/>
        </Node>
      </Node>
    </BinaryTree>
    <BinaryTree type="DecisionTree" boostWeight="1.0000000000000000e+00" itree="7">
      <Node pos="s" depth="0" NCoef="0" IVar="6" Cut="7.8960567712783813e-01" cType="1" res="2.5069131515920162e-04" rms="3.1512674689292908e-01" purity="5.0043243169784546e-01" nType="0">
        <Node pos="l" depth="1" NCoef="0" IVar="3" Cut="5.9162845611572266e+00" cType="1" res="-1.6781775653362274e-01" rms="2.8556376695632935e-01" purity="1.5821304917335510e-01" nType="0">
          <Node pos="l" depth="2" NCoef="0" IVar="7" Cut="3.4825775772333145e-02" cType="1" res="-2.0215444266796112e-01" rms="2.4421685934066772e-01" purity="9.3939580023288727e-02" nType="0">
            <Node pos="l" depth="3" NCoef="0" IVar="12" Cut="2.5556012988090515e-01" cType="1" res="-6.7483425140380859e-02" rms="4.2299848794937134e-01" purity="3.7395289540290833e-01" nType="0">
              <Node pos="l" depth="4" NCoef="0" IVar="-1" Cut="0.0000000000000000e+00" cType="1" res="1.7127575352787971e-02" rms="4.5090290904045105e-01" purity="6.2297803163528442e-01" nType="-99"/>
              <Node pos="r" depth="4" NCoef="0" IVar="-1" Cut="0.0000000000000000e+00" cType="1" res="-4.5766096562147141e-02" rms="3.4112367033958435e-01" purity="1.4270105957984924e-01" nType="-99"/>
            </Node>
            <Node pos="r" depth="3" NCoef="0" IVar="9" Cut="1.1194030046463013e+00" cType="1" res="-2.3071958124637604e-01" rms="1.7227081954479218e-01" purity="3.4545812755823135e-02" nType="0">
              <Node pos="l" depth="4" NCoef="0" IVar="-1" Cut="0.0000000000000000e+00" cType="1" res="-4.3260890990495682e-02" rms="2.9296708106994629e-01" purity="1.1194730550050735e-01" nType="-99"/>
              <Node pos="r" depth="4" NCoef="0" IVar="-1" Cut="0.0000000000000000e+00" cType="1" res="-6.2833726406097412e-02" rms="1.3610519468784332e-01" purity="2.0224025472998619e-02" nType="-99"/>
            </Node>
          </Node>
          <Node pos="r" depth="2" NCoef="0" IVar="4" Cut="1.3933862447738647e+00" cType="1" res="8.2663036882877350e-02" rms="4.1230747103691101e-01" purity="6.2707823514938354e-01" nType="0">
            <Node pos="l" depth="3" NCoef="0" IVar="-1" Cut="0.0000000000000000e+00" cType="1" res="5.1282498985528946e-02" rms="3.3429259061813354e-01" purity="8.2291543483734131e-01" nType="-99"/>
            <Node pos="r" depth="3" NCoef="0" IVar="-1" Cut="0.0000000000000000e+00" cType="1" res="-2.6341738179326057e-02" rms="4.1843187808990479e-01" purity="3.6663573980331421e-01" nType="-99"/>
          </Node>
        </Node>
        <Node pos="r" depth="1" NCoef="0" IVar="7" Cut="7.9595960676670074e-02" cType="1" res="2.1422734856605530e-01" rms="2.0041215419769287e-01" purity="9.3612968921661377e-01" nType="0">
          <Node pos="l" depth="2" NCoef="0" IVar="7" Cut="2.6135748252272606e-02" cType="1" res="2.3440454900264740e-01" rms="1.4354041218757629e-01" purity="9.7669798135757446e-01" nType="0">
            <Node pos="l" depth="3" NCoef="0" IVar="6" Cut="8.3201789855957031e-01" cType="1" res="2.4206423759460449e-01" rms="1.0586905479431152e-01" purity="9.8779696226119995e-01" nType="0">
              <Node pos="l" depth="4" NCoef="0" IVar="-1" Cut="0.0000000000000000e+00" cType="1" res="5.2563492208719254e-02" rms="2.4662756919860840e-01" purity="9.2943304777145386e-01" nType="-99"/>
              <Node pos="r" depth="4" NCoef="0" IVar="-1" Cut="0.0000000000000000e+00" cType="1" res="6.4886681735515594e-02" rms="8.6567796766757965e-02" purity="9.9207234382629395e-01" nType="-99"/>
            </Node>
            <Node pos="r" depth="3" NCoef="0" IVar="-1" Cut="0.0000000000000000e+00" cType="1" res="3.9103887975215912e-02" rms="3.2458201050758362e-01" purity="8.6944133043289185e-01" nType="-99"/>
          </Node>
          <Node pos="r" depth="2" NCoef="0" IVar="-1" Cut="0.0000000000000000e+00" cType="1" res="-3.7326193414628506e-03" rms="4.5424917340278625e-01" purity="4.7064140439033508e-01" nType="-99"/>
        </Node>
      </Node>
    </BinaryTree>
    <BinaryTree type="DecisionTree" boostWeight="1.0000000000000000e+00" itree="8">
      <Node pos="s" depth="0" NCoef="0" IVar="6" Cut="7.3780608177185059e-01" cType="1" res="1.1286686640232801e-04" rms="3.0041173100471497e-01" purity="5.0013554096221924e-01" nType="0">
        <Node pos="l" depth="1" NCoef="0" IVar="3" Cut="9.6215867996215820e+00" cType="1" res="-1.6695645451545715e-01" rms="2.6064369082450867e-01" purity="1.2635843455791473e-01" nType="0">
          <Node pos="l" depth="2" NCoef="0" IVar="7" Cut="5.4726116359233856e-02" cType="1" res="-1.8603332340717316e-01" rms="2.3988853394985199e-01" purity="8.8263571262359619e-02" nType="0">
            <Node pos="l" depth="3" NCoef="0" IVar="12" Cut="2.0848791301250458e-01" cType="1" res="-8.6515232920646667e-02" rms="4.0713024139404297e-01" purity="3.1048485636711121e-01" nType="0">
              <Node pos="l" depth="4" NCoef="0" IVar="-1" Cut="0.0000000000000000e+00" cType="1" res="1.7315486446022987e-02" rms="4.5886704325675964e-01" purity="6.0126847028732300e-01" nType="-99"/>
              <Node pos="r" depth="4" NCoef="0" IVar="-1" Cut="0.0000000000000000e+00" cType="1" res="-3.8433317095041275e-02" rms="3.5175967216491699e-01" purity="1.7055915296077728e-01" nType="-99"/>
            </Node>
            <Node pos="r" depth="3" NCoef="0" IVar="1" Cut="4.7761093825101852e-02" cType="1" res="-2.1264407038688660e-01" rms="1.5892007946968079e-01" purity="2.8842460364103317e-02" nType="0">
              <Node pos="l" depth="4" NCoef="0" IVar="-1" Cut="0.0000000000000000e+00" cType="1" res="-5.1879420876502991e-02" rms="2.1670567989349365e-01" purity="5.6360598653554916e-02" nType="-99"/>
              <Node pos="r" depth="4" NCoef="0" IVar="-1" Cut="0.0000000000000000e+00" cType="1" res="-6.2640860676765442e-02" rms="1.1000041663646698e-01" purity="1.2747555039823055e-02" nType="-99"/>
            </Node>
          </Node>
          <Node pos="r" depth="2" NCoef="0" IVar="-1" Cut="0.0000000000000000e+00" cType="1" res="4.0204733610153198e-02" rms="3.5952383279800415e-01" purity="8.2640850543975830e-01" nType="-99"/>
        </Node>
        <Node pos="r" depth="1" NCoef="0" IVar="7" Cut="1.9402252137660980e-01" cType="1" res="1.7614413797855377e-01" rms="2.3099723458290100e-01" purity="8.9396291971206665e-01" nType="0">
          <Node pos="l" depth="2" NCoef="0" IVar="1" Cut="2.9845997691154480e-02" cType="1" res="2.0289573073387146e-01" rms="1.9064056873321533e-01" purity="9.5007658004760742e-01" nType="0">
            <Node pos="l" depth="3" NCoef="0" IVar="8" Cut="2.1648488998413086e+01" cType="1" res="2.1348977088928223e-01" rms="1.6064044833183289e-01" purity="9.6817970275878906e-01" nType="0">
              <Node pos="l" depth="4" NCoef="0" IVar="-1" Cut="0.0000000000000000e+00" cType="1" res="3.3442255109548569e-02" rms="3.6501514911651611e-01" purity="8.1649607419967651e-01" nType="-99"/>
              <Node pos="r" depth="4" NCoef="0" IVar="-1" Cut="0.0000000000000000e+00" cType="1" res="6.1732806265354156e-02" rms="1.2078762054443359e-01" purity="9.8320972919464111e-01" nType="-99"/>
            </Node>
            <Node pos="r" depth="3" NCoef="0" IVar="-1" Cut="0.0000000000000000e+00" cType="1" res="7.5848582200706005e-03" rms="4.1820454597473145e-01" purity="6.5919762849807739e-01" nType="-99"/>
          </Node>
          <Node pos="r" depth="2" NCoef="0" IVar="-1" Cut="0.0000000000000000e+00" cType="1" res="-3.5286262631416321e-02" rms="3.8120967149734497e-01" purity="1.9353446364402771e-01" nType="-99"/>
        </Node>
      </Node>
    </BinaryTree>
    <BinaryTree type="DecisionTree" boostWeight="1.0000000000000000e+00" itree="9">
      <Node pos="s" depth="0" NCoef="0" IVar="6" Cut="7.9700565338134766e-01" cType="1" res="-1.4005941920913756e-04" rms="2.8757196664810181e-01" purity="4.9980634450912476e-01" nType="0">
        <Node pos="l" depth="1" NCoef="0" IVar="3" Cut="5.6984233856201172e+00" cType="1" res="-1.3586844503879547e-01" rms="2.7529856562614441e-01" purity="1.6375894844532013e-01" nType="0">
          <Node pos="l" depth="2" NCoef="0" IVar="9" Cut="1.0348259210586548e+00" cType="1" res="-1.6698887944221497e-01" rms="2.3744426667690277e-01" purity="9.5907770097255707e-02" nType="0">
            <Node pos="l" depth="3" NCoef="0" IVar="7" Cut="6.4675889909267426e-02" cType="1" res="-5.8726176619529724e-02" rms="3.5867553949356079e-01" purity="2.8500863909721375e-01" nType="0">
              <Node pos="l" depth="4" NCoef="0" IVar="-1" Cut="0.0000000000000000e+00" cType="1" res="2.3347329348325729e-02" rms="4.3351083993911743e-01" purity="6.1231797933578491e-01" nType="-99"/>
              <Node pos="r" depth="4" NCoef="0" IVar="-1" Cut="0.0000000000000000e+00" cType="1" res="-4.6534985303878784e-02" rms="2.4725455045700073e-01" purity="7.2414472699165344e-02" nType="-99"/>
            </Node>
            <Node pos="r" depth="3" NCoef="0" IVar="3" Cut="3.9126002788543701e+00" cType="1" res="-1.9198988378047943e-01" rms="1.9068084657192230e-01" purity="5.2238885313272476e-02" nType="0">
              <Node pos="l" depth="4" NCoef="0" IVar="-1" Cut="0.0000000000000000e+00" cType="1" res="-5.7161577045917511e-02" rms="1.6772744059562683e-01" purity="3.9146117866039276e-02" nType="-99"/>
              <Node pos="r" depth="4" NCoef="0" IVar="-1" Cut="0.0000000000000000e+00" cType="1" res="-3.8361866027116776e-02" rms="2.7666437625885010e-01" purity="1.2168244272470474e-01" nType="-99"/>
            </Node>
          </Node>
          <Node pos="r" depth="2" NCoef="0" IVar="4" Cut="1.5127825736999512e+00" cType="1" res="7.0177286863327026e-02" rms="3.9424741268157959e-01" purity="6.1299574375152588e-01" nType="0">
            <Node pos="l" depth="3" NCoef="0" IVar="-1" Cut="0.0000000000000000e+00" cType="1" res="4.5624390244483948e-02" rms="3.3578735589981079e-01" purity="8.0795639753341675e-01" nType="-99"/>
            <Node pos="r" depth="3" NCoef="0" IVar="-1" Cut="0.0000000000000000e+00" cType="1" res="-2.7156999334692955e-02" rms="3.9721757173538208e-01" purity="3.2782194018363953e-01" nType="-99"/>
          </Node>
        </Node>
        <Node pos="r" depth="1" NCoef="0" IVar="7" Cut="6.4670793712139130e-02" cType="1" res="1.7778924107551575e-01" rms="1.8959172070026398e-01" purity="9.4033819437026978e-01" nType="0">
          <Node pos="l" depth="2" NCoef="0" IVar="7" Cut="2.4774264544248581e-02" cType="1" res="1.9408455491065979e-01" rms="1.3365405797958374e-01" purity="9.7973591089248657e-01" nType="0">
            <Node pos="l" depth="3" NCoef="0" IVar="2" Cut="1.9076630473136902e-02" cType="1" res="1.9933541119098663e-01" rms="9.9698528647422791e-02" purity="9.8920989036560059e-01" nType="0">
              <Node pos="l" depth="4" NCoef="0" IVar="-1" Cut="0.0000000000000000e+00" cType="1" res="6.1116240918636322e-02" rms="8.2584857940673828e-02" purity="9.9272722005844116e-01" nType="-99"/>
              <Node pos="r" depth="4" NCoef="0" IVar="-1" Cut="0.0000000000000000e+00" cType="1" res="4.9935214221477509e-02" rms="2.1827606856822968e-01" purity="9.4594365358352661e-01" nType="-99"/>
            </Node>
            <Node pos="r" depth="3" NCoef="0" IVar="-1" Cut="0.0000000000000000e+00" cType="1" res="3.7208531051874161e-02" rms="3.0795368552207947e-01" purity="8.8400340080261230e-01" nType="-99"/>
          </Node>
          <Node pos="r" depth="2" NCoef="0" IVar="-1" Cut="0.0000000000000000e+00" cType="1" res="1.4632306993007660e-03" rms="4.4032225012779236e-01" purity="5.2619522809982300e-01" nType="-99"/>
        </Node>
      </Node>
    </BinaryTree>
    <BinaryTree type="DecisionTree" boostWeight="1.0000000000000000e+00" itree="10">
      <Node pos="s" depth="0" NCoef="0" IVar="6" Cut="7.3228764533996582e-01" cType="1" res="2.6591509231366217e-04" rms="2.7646887302398682e-01" purity="5.0022304058074951e-01" nType="0">
        <Node pos="l" depth="1" NCoef="0" IVar="3" Cut="9.5215559005737305e+00" cType="1" res="-1.3825625181198120e-01" rms="2.4986164271831512e-01" purity="1.2400024384260178e-01" nType="0">
          <Node pos="l" depth="2" NCoef="0" IVar="7" Cut="2.4875529110431671e-02" cType="1" res="-1.5421177446842194e-01" rms="2.3215833306312561e-01" purity="8.5558339953422546e-02" nType="0">
            <Node pos="l" depth="3" NCoef="0" IVar="3" Cut="2.9842994213104248e+00" cType="1" res="-3.9384301751852036e-02" rms="4.0997144579887390e-01" purity="3.5838636755943298e-01" nType="0">
              <Node pos="l" depth="4" NCoef="0" IVar="-1" Cut="0.0000000000000000e+00" cType="1" res="-2.9286643490195274e-02" rms="3.6877956986427307e-01" purity="2.3532310128211975e-01" nType="-99"/>
              <Node pos="r" depth="4" NCoef="0" IVar="-1" Cut="0.0000000000000000e+00" cType="1" res="1.7555687576532364e-02" rms="4.3287029862403870e-01" purity="5.2580410242080688e-01" nType="-99"/>
            </Node>
            <Node pos="r" depth="3" NCoef="0" IVar="12" Cut="2.1699641644954681e-01" cType="1" res="-1.7045187950134277e-01" rms="1.8873400986194611e-01" purity="4.6972122043371201e-02" nType="0">
              <Node pos="l" depth="4" NCoef="0" IVar="-1" Cut="0.0000000000000000e+00" cType="1" res="-3.6593452095985413e-02" rms="2.8356990218162537e-01" purity="1.1877323687076569e-01" nType="-99"/>
              <Node pos="r" depth="4" NCoef="0" IVar="-1" Cut="0.0000000000000000e+00" cType="1" res="-5.6494101881980896e-02" rms="1.4495381712913513e-01" purity="2.4710593745112419e-02" nType="-99"/>
            </Node>
          </Node>
          <Node pos="r" depth="2" NCoef="0" IVar="-1" Cut="0.0000000000000000e+00" cType="1" res="3.4459900110960007e-02" rms="3.5895729064941406e-01" purity="8.2076752185821533e-01" nType="-99"/>
        </Node>
        <Node pos="r" depth="1" NCoef="0" IVar="7" Cut="2.0895051956176758e-01" cType="1" res="1.4314737915992737e-01" rms="2.2510571777820587e-01" purity="8.8828557729721069e-01" nType="0">
          <Node pos="l" depth="2" NCoef="0" IVar="12" Cut="9.5823228359222412e-02" cType="1" res="1.6670152544975281e-01" rms="1.9146181643009186e-01" purity="9.4651877880096436e-01" nType="0">
            <Node pos="l" depth="3" NCoef="0" IVar="8" Cut="2.1648338317871094e+01" cType="1" res="1.7906536161899567e-01" rms="1.4552983641624451e-01" purity="9.7492903470993042e-01" nType="0">
              <Node pos="l" depth="4" NCoef="0" IVar="-1" Cut="0.0000000000000000e+00" cType="1" res="3.3710762858390808e-02" rms="3.4421783685684204e-01" purity="8.4340578317642212e-01" nType="-99"/>
              <Node pos="r" depth="4" NCoef="0" IVar="-1" Cut="0.0000000000000000e+00" cType="1" res="5.9034280478954315e-02" rms="1.0846112668514252e-01" purity="9.8735010623931885e-01" nType="-99"/>
            </Node>
            <Node pos="r" depth="3" NCoef="0" IVar="-1" Cut="0.0000000000000000e+00" cType="1" res="9.4121117144823074e-03" rms="4.2107754945755005e-01" purity="6.5619939565658569e-01" nType="-99"/>
          </Node>
          <Node pos="r" depth="2" NCoef="0" IVar="-1" Cut="0.0000000000000000e+00" cType="1" res="-3.4229204058647156e-02" rms="3.6374029517173767e-01" purity="1.7575882375240326e-01" nType="-99"/>
        </Node>
      </Node>
    </BinaryTree>
    <BinaryTree type="DecisionTree" boostWeight="1.0000000000000000e+00" itree="11">
      <Node pos="s" depth="0" NCoef="0" IVar="7" Cut="3.4825742244720459e-02" cType="1" res="2.6514660567045212e-04" rms="2.6688441634178162e-01" purity="5.0021296739578247e-01" nType="0">
        <Node pos="l" depth="1" NCoef="0" IVar="1" Cut="7.3631450533866882e-02" cType="1" res="1.2970182299613953e-01" rms="2.2390851378440857e-01" purity="8.7276214361190796e-01" nType="0">
          <Node pos="l" depth="2" NCoef="0" IVar="2" Cut="7.7610291540622711e-02" cType="1" res="1.5426042675971985e-01" rms="1.9211901724338531e-01" purity="9.3356865644454956e-01" nType="0">
            <Node pos="l" depth="3" NCoef="0" IVar="8" Cut="2.2471670150756836e+01" cType="1" res="1.6613149642944336e-01" rms="1.6033849120140076e-01" purity="9.6303558349609375e-01" nType="0">
              <Node pos="l" depth="4" NCoef="0" IVar="-1" Cut="0.0000000000000000e+00" cType="1" res="2.9612064361572266e-02" rms="3.5532724857330322e-01" purity="7.8047257661819458e-01" nType="-99"/>
              <Node pos="r" depth="4" NCoef="0" IVar="-1" Cut="0.0000000000000000e+00" cType="1" res="5.7895880192518234e-02" rms="1.1599824577569962e-01" purity="9.8474395275115967e-01" nType="-99"/>
            </Node>
            <Node pos="r" depth="3" NCoef="0" IVar="-1" Cut="0.0000000000000000e+00" cType="1" res="-8.8644176721572876e-03" rms="4.2367732524871826e-01" purity="4.5439368486404419e-01" nType="-99"/>
          </Node>
          <Node pos="r" depth="2" NCoef="0" IVar="-1" Cut="0.0000000000000000e+00" cType="1" res="-3.6035317927598953e-02" rms="3.4035360813140869e-01" purity="1.9126391410827637e-01" nType="-99"/>
        </Node>
        <Node pos="r" depth="1" NCoef="0" IVar="3" Cut="1.0288372993469238e+01" cType="1" res="-1.2686601281166077e-01" rms="2.4356952309608459e-01" purity="1.3429953157901764e-01" nType="0">
          <Node pos="l" depth="2" NCoef="0" IVar="6" Cut="8.4974253177642822e-01" cType="1" res="-1.4248149096965790e-01" rms="2.2454082965850830e-01" purity="9.5391832292079926e-02" nType="0">
            <Node pos="l" depth="3" NCoef="0" IVar="7" Cut="2.7491810917854309e-01" cType="1" res="-1.5427361428737640e-01" rms="2.0379458367824554e-01" purity="6.1024066060781479e-02" nType="0">
              <Node pos="l" depth="4" NCoef="0" IVar="-1" Cut="0.0000000000000000e+00" cType="1" res="-3.2718610018491745e-02" rms="3.0587372183799744e-01" purity="1.5400066971778870e-01" nType="-99"/>
              <Node pos="r" depth="4" NCoef="0" IVar="-1" Cut="0.0000000000000000e+00" cType="1" res="-5.6623216718435287e-02" rms="1.3207404315471649e-01" purity="1.9923400133848190e-02" nType="-99"/>
            </Node>
            <Node pos="r" depth="3" NCoef="0" IVar="-1" Cut="0.0000000000000000e+00" cType="1" res="1.3968125917017460e-02" rms="3.9782801270484924e-01" purity="6.7395722866058350e-01" nType="-99"/>
          </Node>
          <Node pos="r" depth="2" NCoef="0" IVar="-1" Cut="0.0000000000000000e+00" cType="1" res="3.4619316458702087e-02" rms="3.6907771229743958e-01" purity="8.0580842494964600e-01" nType="-99"/>
        </Node>
      </Node>
    </BinaryTree>
    <BinaryTree type="DecisionTree" boostWeight="1.0000000000000000e+00" itree="12">
      <Node pos="s" depth="0" NCoef="0" IVar="6" Cut="7.2451061010360718e-01" cType="1" res="2.6912355679087341e-04" rms="2.5841969251632690e-01" purity="5.0001835823059082e-01" nType="0">
        <Node pos="l" depth="1" NCoef="0" IVar="3" Cut="5.4517216682434082e+00" cType="1" res="-1.1588510125875473e-01" rms="2.4073708057403564e-01" purity="1.2060029804706573e-01" nType="0">
          <Node pos="l" depth="2" NCoef="0" IVar="9" Cut="1.0796020030975342e+00" cType="1" res="-1.3783045113086700e-01" rms="2.0287758111953735e-01" purity="6.0908265411853790e-02" nType="0">
            <Node pos="l" depth="3" NCoef="0" IVar="-1" Cut="0.0000000000000000e+00" cType="1" res="-2.0235782489180565e-02" rms="3.2228618860244751e-01" purity="1.9181440770626068e-01" nType="-99"/>
            <Node pos="r" depth="3" NCoef="0" IVar="3" Cut="4.0155167579650879e+00" cType="1" res="-1.5077757835388184e-01" rms="1.6795623302459717e-01" purity="3.6069005727767944e-02" nType="0">
              <Node pos="l" depth="4" NCoef="0" IVar="-1" Cut="0.0000000000000000e+00" cType="1" res="-5.3399756550788879e-02" rms="1.5061533451080322e-01" purity="2.8347494080662727e-02" nType="-99"/>
              <Node pos="r" depth="4" NCoef="0" IVar="-1" Cut="0.0000000000000000e+00" cType="1" res="-3.5764351487159729e-02" rms="2.5490459799766541e-01" purity="9.0238571166992188e-02" nType="-99"/>
            </Node>
          </Node>
          <Node pos="r" depth="2" NCoef="0" IVar="1" Cut="1.5915211290121078e-02" cType="1" res="3.6960937082767487e-02" rms="3.8498443365097046e-01" purity="5.3634631633758545e-01" nType="0">
            <Node pos="l" depth="3" NCoef="0" IVar="-1" Cut="0.0000000000000000e+00" cType="1" res="4.2670227587223053e-02" rms="3.2351443171501160e-01" purity="7.7388995885848999e-01" nType="-99"/>
            <Node pos="r" depth="3" NCoef="0" IVar="-1" Cut="0.0000000000000000e+00" cType="1" res="-2.4387003853917122e-02" rms="3.9225363731384277e-01" purity="3.0280113220214844e-01" nType="-99"/>
          </Node>
        </Node>
        <Node pos="r" depth="1" NCoef="0" IVar="7" Cut="2.3382468521595001e-01" cType="1" res="1.1666186898946762e-01" rms="2.2035986185073853e-01" purity="8.8021552562713623e-01" nType="0">
          <Node pos="l" depth="2" NCoef="0" IVar="1" Cut="3.3825442194938660e-02" cType="1" res="1.3740728795528412e-01" rms="1.9365896284580231e-01" purity="9.4108384847640991e-01" nType="0">
            <Node pos="l" depth="3" NCoef="0" IVar="2" Cut="3.7779256701469421e-02" cType="1" res="1.4661511778831482e-01" rms="1.6719679534435272e-01" purity="9.6259123086929321e-01" nType="0">
              <Node pos="l" depth="4" NCoef="0" IVar="-1" Cut="0.0000000000000000e+00" cType="1" res="5.3952086716890335e-02" rms="1.4454510807991028e-01" purity="9.7437280416488647e-01" nType="-99"/>
              <Node pos="r" depth="4" NCoef="0" IVar="-1" Cut="0.0000000000000000e+00" cType="1" res="1.8774142488837242e-02" rms="3.6619856953620911e-01" purity="7.7464044094085693e-01" nType="-99"/>
            </Node>
            <Node pos="r" depth="3" NCoef="0" IVar="-1" Cut="0.0000000000000000e+00" cType="1" res="-3.5514472983777523e-03" rms="4.1283917427062988e-01" purity="5.8668071031570435e-01" nType="-99"/>
          </Node>
          <Node pos="r" depth="2" NCoef="0" IVar="-1" Cut="0.0000000000000000e+00" cType="1" res="-3.3485837280750275e-02" rms="3.3772578835487366e-01" purity="1.5318387746810913e-01" nType="-99"/>
        </Node>
      </Node>
    </BinaryTree>
    <BinaryTree type="DecisionTree" boostWeight="1.0000000000000000e+00" itree="13">
      <Node pos="s" depth="0" NCoef="0" IVar="7" Cut="2.9850663617253304e-02" cType="1" res="-2.4466331524308771e-05" rms="2.5102195143699646e-01" purity="4.9958911538124084e-01" nType="0">
        <Node pos="l" depth="1" NCoef="0" IVar="1" Cut="7.5616396963596344e-02" cType="1" res="1.1241310089826584e-01" rms="2.0719239115715027e-01" purity="8.8392597436904907e-01" nType="0">
          <Node pos="l" depth="2" NCoef="0" IVar="2" Cut="7.1639403700828552e-02" cType="1" res="1.3082213699817657e-01" rms="1.7985567450523376e-01" purity="9.4022828340530396e-01" nType="0">
            <Node pos="l" depth="3" NCoef="0" IVar="8" Cut="2.1330303192138672e+01" cType="1" res="1.3998240232467651e-01" rms="1.4817257225513458e-01" purity="9.6863824129104614e-01" nType="0">
              <Node pos="l" depth="4" NCoef="0" IVar="-1" Cut="0.0000000000000000e+00" cType="1" res="2.6435652747750282e-02" rms="3.5254040360450745e-01" purity="7.7664083242416382e-01" nType="-99"/>
              <Node pos="r" depth="4" NCoef="0" IVar="-1" Cut="0.0000000000000000e+00" cType="1" res="5.5487021803855896e-02" rms="1.1332741379737854e-01" purity="9.8547202348709106e-01" nType="-99"/>
            </Node>
            <Node pos="r" depth="3" NCoef="0" IVar="-1" Cut="0.0000000000000000e+00" cType="1" res="-3.6752521991729736e-03" rms="4.1919693350791931e-01" purity="4.8598700761795044e-01" nType="-99"/>
          </Node>
          <Node pos="r" depth="2" NCoef="0" IVar="-1" Cut="0.0000000000000000e+00" cType="1" res="-2.9650215059518814e-02" rms="3.4283751249313354e-01" purity="1.9414535164833069e-01" nType="-99"/>
        </Node>
        <Node pos="r" depth="1" NCoef="0" IVar="6" Cut="8.4235328435897827e-01" cType="1" res="-1.0275284200906754e-01" rms="2.4342858791351318e-01" purity="1.4844042062759399e-01" nType="0">
          <Node pos="l" depth="2" NCoef="0" IVar="1" Cut="3.7810865789651871e-02" cType="1" res="-1.2012312561273575e-01" rms="2.2030246257781982e-01" purity="9.0850129723548889e-02" nType="0">
            <Node pos="l" depth="3" NCoef="0" IVar="3" Cut="5.9184494018554688e+00" cType="1" res="-7.4383795261383057e-02" rms="2.9118993878364563e-01" purity="1.8911677598953247e-01" nType="0">
              <Node pos="l" depth="4" NCoef="0" IVar="-1" Cut="0.0000000000000000e+00" cType="1" res="-3.5436339676380157e-02" rms="2.5995245575904846e-01" purity="1.0612856596708298e-01" nType="-99"/>
              <Node pos="r" depth="4" NCoef="0" IVar="-1" Cut="0.0000000000000000e+00" cType="1" res="2.7205402031540871e-02" rms="3.8209825754165649e-01" purity="6.8291687965393066e-01" nType="-99"/>
            </Node>
            <Node pos="r" depth="3" NCoef="0" IVar="8" Cut="4.3858112335205078e+01" cType="1" res="-1.4939734339714050e-01" rms="1.5208879113197327e-01" purity="2.7957227081060410e-02" nType="0">
              <Node pos="l" depth="4" NCoef="0" IVar="-1" Cut="0.0000000000000000e+00" cType="1" res="-5.2907347679138184e-02" rms="1.4487303793430328e-01" purity="2.5779807940125465e-02" nType="-99"/>
              <Node pos="r" depth="4" NCoef="0" IVar="-1" Cut="0.0000000000000000e+00" cType="1" res="-5.8946486562490463e-02" rms="1.8007004261016846e-01" purity="3.8233194500207901e-02" nType="-99"/>
            </Node>
          </Node>
          <Node pos="r" depth="2" NCoef="0" IVar="-1" Cut="0.0000000000000000e+00" cType="1" res="2.0611245185136795e-02" rms="3.6694681644439697e-01" purity="7.4230808019638062e-01" nType="-99"/>
        </Node>
      </Node>
    </BinaryTree>
    <BinaryTree type="DecisionTree" boostWeight="1.0000000000000000e+00" itree="14">
      <Node pos="s" depth="0" NCoef="0" IVar="7" Cut="4.9751017242670059e-02" cType="1" res="8.2164697232656181e-05" rms="2.4465700984001160e-01" purity="4.9987667798995972e-01" nType="0">
        <Node pos="l" depth="1" NCoef="0" IVar="1" Cut="8.1587493419647217e-02" cType="1" res="9.2133775353431702e-02" rms="2.2608214616775513e-01" purity="8.4776592254638672e-01" nType="0">
          <Node pos="l" depth="2" NCoef="0" IVar="2" Cut="6.1691451817750931e-02" cType="1" res="1.1304937303066254e-01" rms="2.0298512279987335e-01" purity="9.1595751047134399e-01" nType="0">
            <Node pos="l" depth="3" NCoef="0" IVar="8" Cut="1.8494455337524414e+01" cType="1" res="1.2513929605484009e-01" rms="1.6973440349102020e-01" purity="9.5501416921615601e-01" nType="0">
              <Node pos="l" depth="4" NCoef="0" IVar="-1" Cut="0.0000000000000000e+00" cType="1" res="1.2613813392817974e-02" rms="4.0154284238815308e-01" purity="6.7405420541763306e-01" nType="-99"/>
              <Node pos="r" depth="4" NCoef="0" IVar="-1" Cut="0.0000000000000000e+00" cType="1" res="5.3306680172681808e-02" rms="1.3057576119899750e-01" purity="9.7884529829025269e-01" nType="-99"/>
            </Node>
            <Node pos="r" depth="3" NCoef="0" IVar="-1" Cut="0.0000000000000000e+00" cType="1" res="-7.3250518180429935e-03" rms="4.0710976719856262e-01" purity="4.5343315601348877e-01" nType="-99"/>
          </Node>
          <Node pos="r" depth="2" NCoef="0" IVar="-1" Cut="0.0000000000000000e+00" cType="1" res="-3.3206135034561157e-02" rms="3.1967017054557800e-01" purity="1.5604914724826813e-01" nType="-99"/>
        </Node>
        <Node pos="r" depth="1" NCoef="0" IVar="3" Cut="8.5736436843872070e+00" cType="1" res="-1.0337015241384506e-01" rms="2.2239284217357635e-01" purity="1.0890085250139236e-01" nType="0">
          <Node pos="l" depth="2" NCoef="0" IVar="7" Cut="3.9486467838287354e-01" cType="1" res="-1.1565406620502472e-01" rms="1.9870646297931671e-01" purity="6.7145198583602905e-02" nType="0">
            <Node pos="l" depth="3" NCoef="0" IVar="12" Cut="1.8204706907272339e-01" cType="1" res="-8.0848067998886108e-02" rms="2.8326344490051270e-01" purity="1.5427097678184509e-01" nType="0">
              <Node pos="l" depth="4" NCoef="0" IVar="-1" Cut="0.0000000000000000e+00" cType="1" res="4.3858597055077553e-03" rms="4.0481233596801758e-01" purity="3.9483061432838440e-01" nType="-99"/>
              <Node pos="r" depth="4" NCoef="0" IVar="-1" Cut="0.0000000000000000e+00" cType="1" res="-4.8485033214092255e-02" rms="1.7857638001441956e-01" purity="3.4952517598867416e-02" nType="-99"/>
            </Node>
            <Node pos="r" depth="3" NCoef="0" IVar="4" Cut="1.7125284671783447e+00" cType="1" res="-1.3653127849102020e-01" rms="1.1780010908842087e-01" purity="1.4885705895721912e-02" nType="0">
              <Node pos="l" depth="4" NCoef="0" IVar="-1" Cut="0.0000000000000000e+00" cType="1" res="-4.1582524776458740e-02" rms="1.9989918172359467e-01" purity="4.8968449234962463e-02" nType="-99"/>
              <Node pos="r" depth="4" NCoef="0" IVar="-1" Cut="0.0000000000000000e+00" cType="1" res="-5.6668929755687714e-02" rms="9.1782234609127045e-02" purity="8.0527104437351227e-03" nType="-99"/>
            </Node>
          </Node>
          <Node pos="r" depth="2" NCoef="0" IVar="-1" Cut="0.0000000000000000e+00" cType="1" res="1.8272196874022484e-02" rms="4.0058591961860657e-01" purity="7.1663331985473633e-01" nType="-99"/>
        </Node>
      </Node>
    </BinaryTree>
    <BinaryTree type="DecisionTree" boostWeight="1.0000000000000000e+00" itree="15">
      <Node pos="s" depth="0" NCoef="0" IVar="7" Cut="5.4726216942071915e-02" cType="1" res="1.8920976435765624e-04" rms="2.3869223892688751e-01" purity="5.0014895200729370e-01" nType="0">
        <Node pos="l" depth="1" NCoef="0" IVar="1" Cut="6.1688821762800217e-02" cType="1" res="8.2177996635437012e-02" rms="2.2547112405300140e-01" purity="8.4194344282150269e-01" nType="0">
          <Node pos="l" depth="2" NCoef="0" IVar="2" Cut="8.3580315113067627e-02" cType="1" res="1.0350442677736282e-01" rms="1.9862012565135956e-01" purity="9.1983222961425781e-01" nType="0">
            <Node pos="l" depth="3" NCoef="0" IVar="8" Cut="1.8494455337524414e+01" cType="1" res="1.1261580884456635e-01" rms="1.7229793965816498e-01" purity="9.5273160934448242e-01" nType="0">
              <Node pos="l" depth="4" NCoef="0" IVar="-1" Cut="0.0000000000000000e+00" cType="1" res="1.1201862245798111e-02" rms="4.0263298153877258e-01" purity="6.6875147819519043e-01" nType="-99"/>
              <Node pos="r" depth="4" NCoef="0" IVar="-1" Cut="0.0000000000000000e+00" cType="1" res="5.1422715187072754e-02" rms="1.3309155404567719e-01" purity="9.7744011878967285e-01" nType="-99"/>
            </Node>
            <Node pos="r" depth="3" NCoef="0" IVar="-1" Cut="0.0000000000000000e+00" cType="1" res="-9.3030380085110664e-03" rms="4.1305619478225708e-01" purity="4.0495339035987854e-01" nType="-99"/>
          </Node>
          <Node pos="r" depth="2" NCoef="0" IVar="-1" Cut="0.0000000000000000e+00" cType="1" res="-2.6880932971835136e-02" rms="3.3210822939872742e-01" purity="1.9427794218063354e-01" nType="-99"/>
        </Node>
        <Node pos="r" depth="1" NCoef="0" IVar="3" Cut="8.1897735595703125e+00" cType="1" res="-9.4925418496131897e-02" rms="2.1736621856689453e-01" purity="1.0363543778657913e-01" nType="0">
          <Node pos="l" depth="2" NCoef="0" IVar="7" Cut="3.5100522637367249e-01" cType="1" res="-1.0611448436975479e-01" rms="1.9176246225833893e-01" purity="6.1348874121904373e-02" nType="0">
            <Node pos="l" depth="3" NCoef="0" IVar="12" Cut="1.7955914139747620e-01" cType="1" res="-7.3723822832107544e-02" rms="2.8184932470321655e-01" purity="1.5214580297470093e-01" nType="0">
              <Node pos="l" depth="4" NCoef="0" IVar="-1" Cut="0.0000000000000000e+00" cType="1" res="4.5901993289589882e-03" rms="4.0859687328338623e-01" purity="3.9727458357810974e-01" nType="-99"/>
              <Node pos="r" depth="4" NCoef="0" IVar="-1" Cut="0.0000000000000000e+00" cType="1" res="-4.7008983790874481e-02" rms="1.7749115824699402e-01" purity="3.4032061696052551e-02" nType="-99"/>
            </Node>
            <Node pos="r" depth="3" NCoef="0" IVar="4" Cut="1.6328200101852417e+00" cType="1" res="-1.2226644903421402e-01" rms="1.2129632383584976e-01" purity="1.6071971505880356e-02" nType="0">
              <Node pos="l" depth="4" NCoef="0" IVar="-1" Cut="0.0000000000000000e+00" cType="1" res="-4.0203832089900970e-02" rms="1.9835880398750305e-01" purity="4.6998023986816406e-02" nType="-99"/>
              <Node pos="r" depth="4" NCoef="0" IVar="-1" Cut="0.0000000000000000e+00" cType="1" res="-5.4581534117460251e-02" rms="9.8937377333641052e-02" purity="1.0081293061375618e-02" nType="-99"/>
            </Node>
          </Node>
          <Node pos="r" depth="2" NCoef="0" IVar="-1" Cut="0.0000000000000000e+00" cType="1" res="1.4460446313023567e-02" rms="4.0813878178596497e-01" purity="6.8928253650665283e-01" nType="-99"/>
        </Node>
      </Node>
    </BinaryTree>
    <BinaryTree type="DecisionTree" boostWeight="1.0000000000000000e+00" itree="16">
      <Node pos="s" depth="0" NCoef="0" IVar="6" Cut="7.1010321378707886e-01" cType="1" res="1.7659553850535303e-04" rms="2.3401227593421936e-01" purity="5.0018715858459473e-01" nType="0">
        <Node pos="l" depth="1" NCoef="0" IVar="3" Cut="4.6263566017150879e+00" cType="1" res="-8.2792751491069794e-02" rms="2.2588391602039337e-01" purity="1.1517664790153503e-01" nType="0">
          <Node pos="l" depth="2" NCoef="0" IVar="9" Cut="1.0796020030975342e+00" cType="1" res="-1.0192035138607025e-01" rms="1.8530166149139404e-01" purity="5.1704879850149155e-02" nType="0">
            <Node pos="l" depth="3" NCoef="0" IVar="-1" Cut="0.0000000000000000e+00" cType="1" res="-1.8972279503941536e-02" rms="2.9995283484458923e-01" purity="1.7086702585220337e-01" nType="-99"/>
            <Node pos="r" depth="3" NCoef="0" IVar="3" Cut="3.1765623092651367e+00" cType="1" res="-1.1026253551244736e-01" rms="1.5371340513229370e-01" purity="2.9725132510066032e-02" nType="0">
              <Node pos="l" depth="4" NCoef="0" IVar="-1" Cut="0.0000000000000000e+00" cType="1" res="-5.0437245517969131e-02" rms="1.3751405477523804e-01" purity="2.3017248138785362e-02" nType="-99"/>
              <Node pos="r" depth="4" NCoef="0" IVar="-1" Cut="0.0000000000000000e+00" cType="1" res="-3.9868932217359543e-02" rms="1.9590288400650024e-01" purity="5.1242105662822723e-02" nType="-99"/>
            </Node>
          </Node>
          <Node pos="r" depth="2" NCoef="0" IVar="4" Cut="1.7116990089416504e+00" cType="1" res="9.6933664754033089e-03" rms="3.4840393066406250e-01" purity="4.2207637429237366e-01" nType="0">
            <Node pos="l" depth="3" NCoef="0" IVar="-1" Cut="0.0000000000000000e+00" cType="1" res="3.1805522739887238e-02" rms="3.5632148385047913e-01" purity="6.5247738361358643e-01" nType="-99"/>
            <Node pos="r" depth="3" NCoef="0" IVar="-1" Cut="0.0000000000000000e+00" cType="1" res="-3.6738064140081406e-02" rms="2.9415246844291687e-01" purity="1.5634012222290039e-01" nType="-99"/>
          </Node>
        </Node>
        <Node pos="r" depth="1" NCoef="0" IVar="7" Cut="2.8854960203170776e-01" cType="1" res="7.8368276357650757e-02" rms="2.1373637020587921e-01" purity="8.6302739381790161e-01" nType="0">
          <Node pos="l" depth="2" NCoef="0" IVar="1" Cut="3.9800237864255905e-02" cType="1" res="9.4484172761440277e-02" rms="1.9840802252292633e-01" purity="9.2783153057098389e-01" nType="0">
            <Node pos="l" depth="3" NCoef="0" IVar="8" Cut="1.8494607925415039e+01" cType="1" res="1.0226506739854813e-01" rms="1.7615541815757751e-01" purity="9.5452165603637695e-01" nType="0">
              <Node pos="l" depth="4" NCoef="0" IVar="-1" Cut="0.0000000000000000e+00" cType="1" res="9.0878894552588463e-03" rms="4.0437120199203491e-01" purity="7.1990525722503662e-01" nType="-99"/>
              <Node pos="r" depth="4" NCoef="0" IVar="-1" Cut="0.0000000000000000e+00" cType="1" res="4.9677733331918716e-02" rms="1.4458505809307098e-01" purity="9.7179007530212402e-01" nType="-99"/>
            </Node>
            <Node pos="r" depth="3" NCoef="0" IVar="-1" Cut="0.0000000000000000e+00" cType="1" res="-9.2651303857564926e-03" rms="4.0058654546737671e-01" purity="4.8293751478195190e-01" nType="-99"/>
          </Node>
          <Node pos="r" depth="2" NCoef="0" IVar="-1" Cut="0.0000000000000000e+00" cType="1" res="-3.3612735569477081e-02" rms="2.8461337089538574e-01" purity="1.1209108680486679e-01" nType="-99"/>
        </Node>
      </Node>
    </BinaryTree>
    <BinaryTree type="DecisionTree" boostWeight="1.0000000000000000e+00" itree="17">
      <Node pos="s" depth="0" NCoef="0" IVar="12" Cut="2.0051874220371246e-01" cType="1" res="1.3137135829310864e-04" rms="2.2932992875576019e-01" purity="5.0010150671005249e-01" nType="0">
        <Node pos="l" depth="1" NCoef="0" IVar="7" Cut="3.8308188319206238e-01" cType="1" res="6.2139168381690979e-02" rms="2.2561985254287720e-01" purity="7.8839701414108276e-01" nType="0">
          <Node pos="l" depth="2" NCoef="0" IVar="12" Cut="7.9807728528976440e-02" cType="1" res="8.4245182573795319e-02" rms="2.1878699958324432e-01" purity="8.8581347465515137e-01" nType="0">
            <Node pos="l" depth="3" NCoef="0" IVar="8" Cut="1.8322515487670898e+01" cType="1" res="9.8705716431140900e-02" rms="1.7351028323173523e-01" purity="9.4802045822143555e-01" nType="0">
              <Node pos="l" depth="4" NCoef="0" IVar="-1" Cut="0.0000000000000000e+00" cType="1" res="1.3771996833384037e-02" rms="3.9956656098365784e-01" purity="6.4639115333557129e-01" nType="-99"/>
              <Node pos="r" depth="4" NCoef="0" IVar="-1" Cut="0.0000000000000000e+00" cType="1" res="5.1199764013290405e-02" rms="1.3729833066463470e-01" purity="9.7370582818984985e-01" nType="-99"/>
            </Node>
            <Node pos="r" depth="3" NCoef="0" IVar="7" Cut="2.2870426997542381e-02" cType="1" res="5.2613453008234501e-03" rms="3.7081441283226013e-01" purity="5.4603743553161621e-01" nType="0">
              <Node pos="l" depth="4" NCoef="0" IVar="-1" Cut="0.0000000000000000e+00" cType="1" res="2.4317651987075806e-02" rms="3.3431780338287354e-01" purity="8.1806713342666626e-01" nType="-99"/>
              <Node pos="r" depth="4" NCoef="0" IVar="-1" Cut="0.0000000000000000e+00" cType="1" res="-1.6600850969552994e-02" rms="3.8683608174324036e-01" purity="3.2141089439392090e-01" nType="-99"/>
            </Node>
          </Node>
          <Node pos="r" depth="2" NCoef="0" IVar="-1" Cut="0.0000000000000000e+00" cType="1" res="-3.7721715867519379e-02" rms="2.0917740464210510e-01" purity="8.3517648279666901e-02" nType="-99"/>
        </Node>
        <Node pos="r" depth="1" NCoef="0" IVar="4" Cut="1.2736868858337402e+00" cType="1" res="-9.0847298502922058e-02" rms="2.0285515487194061e-01" purity="7.7110469341278076e-02" nType="0">
          <Node pos="l" depth="2" NCoef="0" IVar="3" Cut="4.2092232704162598e+00" cType="1" res="-4.6658579260110855e-02" rms="3.0222845077514648e-01" purity="2.0282272994518280e-01" nType="0">
            <Node pos="l" depth="3" NCoef="0" IVar="-1" Cut="0.0000000000000000e+00" cType="1" res="-3.2612219452857971e-02" rms="2.5494918227195740e-01" purity="8.9250169694423676e-02" nType="-99"/>
            <Node pos="r" depth="3" NCoef="0" IVar="-1" Cut="0.0000000000000000e+00" cType="1" res="1.8513005226850510e-02" rms="3.8355982303619385e-01" purity="5.1812660694122314e-01" nType="-99"/>
          </Node>
          <Node pos="r" depth="2" NCoef="0" IVar="0" Cut="-6.1221485137939453e+00" cType="1" res="-1.0660831630229950e-01" rms="1.4934247732162476e-01" purity="3.2272048294544220e-02" nType="0">
            <Node pos="l" depth="3" NCoef="0" IVar="1" Cut="1.0347963124513626e-01" cType="1" res="-9.1408669948577881e-02" rms="2.1048872172832489e-01" purity="7.7578522264957428e-02" nType="0">
              <Node pos="l" depth="4" NCoef="0" IVar="-1" Cut="0.0000000000000000e+00" cType="1" res="-2.4777159094810486e-02" rms="2.6624414324760437e-01" purity="1.4673937857151031e-01" nType="-99"/>
              <Node pos="r" depth="4" NCoef="0" IVar="-1" Cut="0.0000000000000000e+00" cType="1" res="-5.0027027726173401e-02" rms="1.5257066488265991e-01" purity="2.5063293054699898e-02" nType="-99"/>
            </Node>
            <Node pos="r" depth="3" NCoef="0" IVar="8" Cut="3.1366468429565430e+01" cType="1" res="-1.1318324506282806e-01" rms="1.1243856698274612e-01" purity="1.2673773802816868e-02" nType="0">
              <Node pos="l" depth="4" NCoef="0" IVar="-1" Cut="0.0000000000000000e+00" cType="1" res="-5.2946358919143677e-02" rms="1.0282791405916214e-01" purity="1.0963221080601215e-02" nType="-99"/>
              <Node pos="r" depth="4" NCoef="0" IVar="-1" Cut="0.0000000000000000e+00" cType="1" res="-5.8039948344230652e-02" rms="1.3570225238800049e-01" purity="1.7744135111570358e-02" nType="-99"/>
            </Node>
          </Node>
        </Node>
      </Node>
    </BinaryTree>
    <BinaryTree type="DecisionTree" boostWeight="1.0000000000000000e+00" itree="18">
      <Node pos="s" depth="0" NCoef="0" IVar="7" Cut="5.9701271355152130e-02" cType="1" res="2.1474283130373806e-04" rms="2.2513976693153381e-01" purity="5.0009983777999878e-01" nType="0">
        <Node pos="l" depth="1" NCoef="0" IVar="12" Cut="2.0848791301250458e-01" cType="1" res="6.2224783003330231e-02" rms="2.1984025835990906e-01" purity="8.3615624904632568e-01" nType="0">
          <Node pos="l" depth="2" NCoef="0" IVar="12" Cut="1.2965621054172516e-01" cType="1" res="8.2828149199485779e-02" rms="1.8263967335224152e-01" purity="9.4522535800933838e-01" nType="0">
            <Node pos="l" depth="3" NCoef="0" IVar="6" Cut="7.6351463794708252e-01" cType="1" res="8.6882926523685455e-02" rms="1.5737453103065491e-01" purity="9.6607846021652222e-01" nType="0">
              <Node pos="l" depth="4" NCoef="0" IVar="-1" Cut="0.0000000000000000e+00" cType="1" res="3.1232215464115143e-02" rms="3.6021369695663452e-01" purity="7.8189551830291748e-01" nType="-99"/>
              <Node pos="r" depth="4" NCoef="0" IVar="-1" Cut="0.0000000000000000e+00" cType="1" res="4.6943586319684982e-02" rms="1.2256310880184174e-01" purity="9.8297154903411865e-01" nType="-99"/>
            </Node>
            <Node pos="r" depth="3" NCoef="0" IVar="-1" Cut="0.0000000000000000e+00" cType="1" res="3.7874532863497734e-03" rms="4.1456431150436401e-01" purity="5.9722632169723511e-01" nType="-99"/>
          </Node>
          <Node pos="r" depth="2" NCoef="0" IVar="3" Cut="3.3430933952331543e+00" cType="1" res="-5.0725597888231277e-02" rms="3.3959671854972839e-01" purity="2.3822483420372009e-01" nType="0">
            <Node pos="l" depth="3" NCoef="0" IVar="-1" Cut="0.0000000000000000e+00" cType="1" res="-3.2094277441501617e-02" rms="2.9125118255615234e-01" purity="1.1129859089851379e-01" nType="-99"/>
            <Node pos="r" depth="3" NCoef="0" IVar="-1" Cut="0.0000000000000000e+00" cType="1" res="1.0379960760474205e-02" rms="3.9672067761421204e-01" purity="4.6522656083106995e-01" nType="-99"/>
          </Node>
        </Node>
        <Node pos="r" depth="1" NCoef="0" IVar="3" Cut="8.8744268417358398e+00" cType="1" res="-7.3748916387557983e-02" rms="2.0843121409416199e-01" purity="9.9262170493602753e-02" nType="0">
          <Node pos="l" depth="2" NCoef="0" IVar="7" Cut="4.5266047120094299e-01" cType="1" res="-8.2169301807880402e-02" rms="1.8781217932701111e-01" purity="6.1709199100732803e-02" nType="0">
            <Node pos="l" depth="3" NCoef="0" IVar="12" Cut="1.8204706907272339e-01" cType="1" res="-6.0535639524459839e-02" rms="2.6431295275688171e-01" purity="1.3526235520839691e-01" nType="0">
              <Node pos="l" depth="4" NCoef="0" IVar="-1" Cut="0.0000000000000000e+00" cType="1" res="6.2499893829226494e-04" rms="3.9308780431747437e-01" purity="3.5791581869125366e-01" nType="-99"/>
              <Node pos="r" depth="4" NCoef="0" IVar="-1" Cut="0.0000000000000000e+00" cType="1" res="-4.4171668589115143e-02" rms="1.6462151706218719e-01" purity="2.9980301856994629e-02" nType="-99"/>
            </Node>
            <Node pos="r" depth="3" NCoef="0" IVar="6" Cut="6.6380667686462402e-01" cType="1" res="-9.6368111670017242e-02" rms="1.0983432829380035e-01" purity="1.3434113934636116e-02" nType="0">
              <Node pos="l" depth="4" NCoef="0" IVar="-1" Cut="0.0000000000000000e+00" cType="1" res="-4.9914270639419556e-02" rms="9.9319517612457275e-02" purity="1.1843066662549973e-02" nType="-99"/>
              <Node pos="r" depth="4" NCoef="0" IVar="-1" Cut="0.0000000000000000e+00" cType="1" res="-5.1707230508327484e-02" rms="1.4272691309452057e-01" purity="1.9982622936367989e-02" nType="-99"/>
            </Node>
          </Node>
          <Node pos="r" depth="2" NCoef="0" IVar="-1" Cut="0.0000000000000000e+00" cType="1" res="1.5961553901433945e-02" rms="3.9636611938476562e-01" purity="7.1451228857040405e-01" nType="-99"/>
        </Node>
      </Node>
    </BinaryTree>
    <BinaryTree type="DecisionTree" boostWeight="1.0000000000000000e+00" itree="19">
      <Node pos="s" depth="0" NCoef="0" IVar="12" Cut="1.5122631192207336e-01" cType="1" res="7.2537965024821460e-05" rms="2.2223235666751862e-01" purity="4.9970069527626038e-01" nType="0">
        <Node pos="l" depth="1" NCoef="0" IVar="0" Cut="-5.6322345733642578e+00" cType="1" res="6.0794133692979813e-02" rms="2.1054358780384064e-01" purity="8.3628553152084351e-01" nType="0">
          <Node pos="l" depth="2" NCoef="0" IVar="12" Cut="6.4703412353992462e-02" cType="1" res="7.5141057372093201e-02" rms="1.9694739580154419e-01" purity="8.9857870340347290e-01" nType="0">
            <Node pos="l" depth="3" NCoef="0" IVar="4" Cut="3.1841864585876465e+00" cType="1" res="8.4454976022243500e-02" rms="1.5834955871105194e-01" purity="9.4918006658554077e-01" nType="0">
              <Node pos="l" depth="4" NCoef="0" IVar="-1" Cut="0.0000000000000000e+00" cType="1" res="4.5665308833122253e-02" rms="1.4488451182842255e-01" purity="9.6157759428024292e-01" nType="-99"/>
              <Node pos="r" depth="4" NCoef="0" IVar="-1" Cut="0.0000000000000000e+00" cType="1" res="4.6888142824172974e-02" rms="2.9406583309173584e-01" purity="7.5614929199218750e-01" nType="-99"/>
            </Node>
            <Node pos="r" depth="3" NCoef="0" IVar="3" Cut="4.6578826904296875e+00" cType="1" res="2.5347065180540085e-02" rms="3.3039534091949463e-01" purity="6.2805378437042236e-01" nType="0">
              <Node pos="l" depth="4" NCoef="0" IVar="-1" Cut="0.0000000000000000e+00" cType="1" res="-7.0544607006013393e-03" rms="3.5341596603393555e-01" purity="4.6362519264221191e-01" nType="-99"/>
              <Node pos="r" depth="4" NCoef="0" IVar="-1" Cut="0.0000000000000000e+00" cType="1" res="2.9785387217998505e-02" rms="2.8892040252685547e-01" purity="8.3145326375961304e-01" nType="-99"/>
            </Node>
          </Node>
          <Node pos="r" depth="2" NCoef="0" IVar="-1" Cut="0.0000000000000000e+00" cType="1" res="-3.0029030516743660e-02" rms="2.7742359042167664e-01" purity="2.1970146894454956e-01" nType="-99"/>
        </Node>
        <Node pos="r" depth="1" NCoef="0" IVar="4" Cut="1.3532881736755371e+00" cType="1" res="-7.3301330208778381e-02" rms="2.1368384361267090e-01" purity="9.2983260750770569e-02" nType="0">
          <Node pos="l" depth="2" NCoef="0" IVar="3" Cut="4.2762608528137207e+00" cType="1" res="-3.2101396471261978e-02" rms="3.0981022119522095e-01" purity="2.3224109411239624e-01" nType="0">
            <Node pos="l" depth="3" NCoef="0" IVar="6" Cut="6.1200708150863647e-01" cType="1" res="-6.8096511065959930e-02" rms="2.7016147971153259e-01" purity="1.1337137967348099e-01" nType="0">
              <Node pos="l" depth="4" NCoef="0" IVar="-1" Cut="0.0000000000000000e+00" cType="1" res="-3.7426374852657318e-02" rms="2.2020184993743896e-01" purity="5.7083107531070709e-02" nType="-99"/>
              <Node pos="r" depth="4" NCoef="0" IVar="-1" Cut="0.0000000000000000e+00" cType="1" res="-1.1535604484379292e-02" rms="3.3445423841476440e-01" purity="2.0701058208942413e-01" nType="-99"/>
            </Node>
            <Node pos="r" depth="3" NCoef="0" IVar="-1" Cut="0.0000000000000000e+00" cType="1" res="1.8406679853796959e-02" rms="3.8112908601760864e-01" purity="5.5427062511444092e-01" nType="-99"/>
          </Node>
          <Node pos="r" depth="2" NCoef="0" IVar="0" Cut="-6.0606040954589844e+00" cType="1" res="-9.0065807104110718e-02" rms="1.5560503304004669e-01" purity="3.6318518221378326e-02" nType="0">
            <Node pos="l" depth="3" NCoef="0" IVar="1" Cut="6.7661553621292114e-02" cType="1" res="-7.5310721993446350e-02" rms="2.1701514720916748e-01" purity="8.5349686443805695e-02" nType="0">
              <Node pos="l" depth="4" NCoef="0" IVar="-1" Cut="0.0000000000000000e+00" cType="1" res="-1.8170932307839394e-02" rms="2.8229150176048279e-01" purity="1.7680838704109192e-01" nType="-99"/>
              <Node pos="r" depth="4" NCoef="0" IVar="-1" Cut="0.0000000000000000e+00" cType="1" res="-4.5816596597433090e-02" rms="1.6515605151653290e-01" purity="3.1728088855743408e-02" nType="-99"/>
            </Node>
            <Node pos="r" depth="3" NCoef="0" IVar="3" Cut="3.6449489593505859e+00" cType="1" res="-9.6700042486190796e-02" rms="1.1739860475063324e-01" purity="1.4272921718657017e-02" nType="0">
              <Node pos="l" depth="4" NCoef="0" IVar="-1" Cut="0.0000000000000000e+00" cType="1" res="-5.2425183355808258e-02" rms="8.7302520871162415e-02" purity="7.6975710690021515e-03" nType="-99"/>
              <Node pos="r" depth="4" NCoef="0" IVar="-1" Cut="0.0000000000000000e+00" cType="1" res="-5.2642654627561569e-02" rms="1.8457671999931335e-01" purity="3.6549851298332214e-02" nType="-99"/>
            </Node>
          </Node>
        </Node>
      </Node>
    </BinaryTree>
    <BinaryTree type="DecisionTree" boostWeight="1.0000000000000000e+00" itree="20">
      <Node pos="s" depth="0" NCoef="0" IVar="7" Cut="2.9850663617253304e-02" cType="1" res="6.6555250668898225e-05" rms="2.1893620491027832e-01" purity="5.0004643201828003e-01" nType="0">
        <Node pos="l" depth="1" NCoef="0" IVar="1" Cut="6.7660406231880188e-02" cType="1" res="5.9610076248645782e-02" rms="1.9344566762447357e-01" purity="8.8353276252746582e-01" nType="0">
          <Node pos="l" depth="2" NCoef="0" IVar="2" Cut="4.1789598762989044e-02" cType="1" res="6.9229625165462494e-02" rms="1.7152863740921021e-01" purity="9.4200432300567627e-01" nType="0">
            <Node pos="l" depth="3" NCoef="0" IVar="6" Cut="7.7068942785263062e-01" cType="1" res="7.4782192707061768e-02" rms="1.3446086645126343e-01" purity="9.7381407022476196e-01" nType="0">
              <Node pos="l" depth="4" NCoef="0" IVar="-1" Cut="0.0000000000000000e+00" cType="1" res="3.0052993446588516e-02" rms="3.2368272542953491e-01" purity="8.1491541862487793e-01" nType="-99"/>
              <Node pos="r" depth="4" NCoef="0" IVar="-1" Cut="0.0000000000000000e+00" cType="1" res="4.8411548137664795e-02" rms="9.4021856784820557e-02" purity="9.9053359031677246e-01" nType="-99"/>
            </Node>
            <Node pos="r" depth="3" NCoef="0" IVar="-1" Cut="0.0000000000000000e+00" cType="1" res="2.7864717412739992e-03" rms="3.8324245810508728e-01" purity="6.0179197788238525e-01" nType="-99"/>
          </Node>
          <Node pos="r" depth="2" NCoef="0" IVar="-1" Cut="0.0000000000000000e+00" cType="1" res="-1.5773845836520195e-02" rms="3.4050899744033813e-01" purity="2.1275912225246429e-01" nType="-99"/>
        </Node>
        <Node pos="r" depth="1" NCoef="0" IVar="1" Cut="2.3880546912550926e-02" cType="1" res="-5.4420050233602524e-02" rms="2.2658118605613708e-01" purity="1.4912874996662140e-01" nType="0">
          <Node pos="l" depth="2" NCoef="0" IVar="3" Cut="4.4392848014831543e+00" cType="1" res="-1.2283294461667538e-02" rms="2.9060620069503784e-01" purity="3.1122416257858276e-01" nType="0">
            <Node pos="l" depth="3" NCoef="0" IVar="7" Cut="4.0149742364883423e-01" cType="1" res="-5.6654635816812515e-02" rms="2.5031870603561401e-01" purity="1.3925731182098389e-01" nType="0">
              <Node pos="l" depth="4" NCoef="0" IVar="-1" Cut="0.0000000000000000e+00" cType="1" res="-9.2387553304433823e-03" rms="3.3780288696289062e-01" purity="2.7243536710739136e-01" nType="-99"/>
              <Node pos="r" depth="4" NCoef="0" IVar="-1" Cut="0.0000000000000000e+00" cType="1" res="-4.9112446606159210e-02" rms="1.0880345851182938e-01" purity="1.2296237051486969e-02" nType="-99"/>
            </Node>
            <Node pos="r" depth="3" NCoef="0" IVar="0" Cut="-6.0654840469360352e+00" cType="1" res="7.5310103595256805e-02" rms="3.4046041965484619e-01" purity="6.5070366859436035e-01" nType="0">
              <Node pos="l" depth="4" NCoef="0" IVar="-1" Cut="0.0000000000000000e+00" cType="1" res="4.1249383240938187e-02" rms="3.2526165246963501e-01" purity="7.8076660633087158e-01" nType="-99"/>
              <Node pos="r" depth="4" NCoef="0" IVar="-1" Cut="0.0000000000000000e+00" cType="1" res="-5.3730318322777748e-03" rms="3.4431383013725281e-01" purity="4.4121119379997253e-01" nType="-99"/>
            </Node>
          </Node>
          <Node pos="r" depth="2" NCoef="0" IVar="8" Cut="4.7620109558105469e+01" cType="1" res="-8.2347363233566284e-02" rms="1.6563756763935089e-01" purity="4.1695490479469299e-02" nType="0">
            <Node pos="l" depth="3" NCoef="0" IVar="0" Cut="-6.7404613494873047e+00" cType="1" res="-7.7532798051834106e-02" rms="1.6031409800052643e-01" purity="3.9550073444843292e-02" nType="0">
              <Node pos="l" depth="4" NCoef="0" IVar="-1" Cut="0.0000000000000000e+00" cType="1" res="-2.9825797304511070e-02" rms="2.2483851015567780e-01" purity="8.5642114281654358e-02" nType="-99"/>
              <Node pos="r" depth="4" NCoef="0" IVar="-1" Cut="0.0000000000000000e+00" cType="1" res="-4.7897525131702423e-02" rms="1.2972284853458405e-01" purity="2.3293903097510338e-02" nType="-99"/>
            </Node>
            <Node pos="r" depth="3" NCoef="0" IVar="-1" Cut="0.0000000000000000e+00" cType="1" res="-5.1172144711017609e-02" rms="1.9152025878429413e-01" purity="5.4279260337352753e-02" nType="-99"/>
          </Node>
        </Node>
      </Node>
    </BinaryTree>
    <BinaryTree type="DecisionTree" boostWeight="1.0000000000000000e+00" itree="21">
      <Node pos="s" depth="0" NCoef="0" IVar="7" Cut="2.4875482544302940e-02" cType="1" res="4.0730898035690188e-05" rms="2.1633234620094299e-01" purity="5.0005805492401123e-01" nType="0">
        <Node pos="l" depth="1" NCoef="0" IVar="1" Cut="6.3681259751319885e-02" cType="1" res="5.7104345411062241e-02" rms="1.8115018308162689e-01" purity="8.9847934246063232e-01" nType="0">
          <Node pos="l" depth="2" NCoef="0" IVar="2" Cut="4.7759603708982468e-02" cType="1" res="6.4797572791576385e-02" rms="1.5790066123008728e-01" purity="9.5235335826873779e-01" nType="0">
            <Node pos="l" depth="3" NCoef="0" IVar="6" Cut="7.6456028223037720e-01" cType="1" res="6.8207532167434692e-02" rms="1.2355648726224899e-01" purity="9.7866404056549072e-01" nType="0">
              <Node pos="l" depth="4" NCoef="0" IVar="-1" Cut="0.0000000000000000e+00" cType="1" res="3.0716376379132271e-02" rms="3.1175503134727478e-01" purity="8.3270829916000366e-01" nType="-99"/>
              <Node pos="r" depth="4" NCoef="0" IVar="-1" Cut="0.0000000000000000e+00" cType="1" res="4.8204079270362854e-02" rms="8.7905690073966980e-02" purity="9.9184852838516235e-01" nType="-99"/>
            </Node>
            <Node pos="r" depth="3" NCoef="0" IVar="-1" Cut="0.0000000000000000e+00" cType="1" res="5.6620724499225616e-03" rms="3.8577395677566528e-01" purity="6.0935312509536743e-01" nType="-99"/>
          </Node>
          <Node pos="r" depth="2" NCoef="0" IVar="-1" Cut="0.0000000000000000e+00" cType="1" res="-1.1744587682187557e-02" rms="3.4671920537948608e-01" purity="2.3478750884532928e-01" nType="-99"/>
        </Node>
        <Node pos="r" depth="1" NCoef="0" IVar="3" Cut="1.1974049568176270e+01" cType="1" res="-4.7320351004600525e-02" rms="2.3121540248394012e-01" purity="1.6938044130802155e-01" nType="0">
          <Node pos="l" depth="2" NCoef="0" IVar="9" Cut="1.1492537260055542e+00" cType="1" res="-5.4803244769573212e-02" rms="2.2456464171409607e-01" purity="1.3411547243595123e-01" nType="0">
            <Node pos="l" depth="3" NCoef="0" IVar="2" Cut="1.9900482147932053e-02" cType="1" res="-5.3658043034374714e-03" rms="3.2570430636405945e-01" purity="3.8027989864349365e-01" nType="0">
              <Node pos="l" depth="4" NCoef="0" IVar="-1" Cut="0.0000000000000000e+00" cType="1" res="1.4740785583853722e-02" rms="3.5004261136054993e-01" purity="5.4545837640762329e-01" nType="-99"/>
              <Node pos="r" depth="4" NCoef="0" IVar="-1" Cut="0.0000000000000000e+00" cType="1" res="-2.8026789426803589e-02" rms="2.7706715464591980e-01" purity="1.6021893918514252e-01" nType="-99"/>
            </Node>
            <Node pos="r" depth="3" NCoef="0" IVar="0" Cut="-6.4863452911376953e+00" cType="1" res="-6.9517396390438080e-02" rms="1.8144126236438751e-01" purity="6.0849089175462723e-02" nType="0">
              <Node pos="l" depth="4" NCoef="0" IVar="-1" Cut="0.0000000000000000e+00" cType="1" res="-2.4387434124946594e-02" rms="2.4658389389514923e-01" purity="1.2331233918666840e-01" nType="-99"/>
              <Node pos="r" depth="4" NCoef="0" IVar="-1" Cut="0.0000000000000000e+00" cType="1" res="-4.6798832714557648e-02" rms="1.3638226687908173e-01" purity="2.9250724241137505e-02" nType="-99"/>
            </Node>
          </Node>
          <Node pos="r" depth="2" NCoef="0" IVar="-1" Cut="0.0000000000000000e+00" cType="1" res="3.1128399074077606e-02" rms="3.0035015940666199e-01" purity="8.5807389020919800e-01" nType="-99"/>
        </Node>
      </Node>
    </BinaryTree>
    <BinaryTree type="DecisionTree" boostWeight="1.0000000000000000e+00" itree="22">
      <Node pos="s" depth="0" NCoef="0" IVar="7" Cut="6.9651551544666290e-02" cType="1" res="2.1928288333583623e-04" rms="2.1411804854869843e-01" purity="5.0016951560974121e-01" nType="0">
        <Node pos="l" depth="1" NCoef="0" IVar="1" Cut="1.1343223601579666e-01" cType="1" res="4.2332306504249573e-02" rms="2.1735131740570068e-01" purity="8.2599133253097534e-01" nType="0">
          <Node pos="l" depth="2" NCoef="0" IVar="2" Cut="4.9751169979572296e-02" cType="1" res="5.3139939904212952e-02" rms="2.0793381333351135e-01" purity="8.9077311754226685e-01" nType="0">
            <Node pos="l" depth="3" NCoef="0" IVar="8" Cut="1.9166101455688477e+01" cType="1" res="6.1739619821310043e-02" rms="1.7577843368053436e-01" purity="9.4388890266418457e-01" nType="0">
              <Node pos="l" depth="4" NCoef="0" IVar="-1" Cut="0.0000000000000000e+00" cType="1" res="6.3358931802213192e-03" rms="3.9247620105743408e-01" purity="6.4524465799331665e-01" nType="-99"/>
              <Node pos="r" depth="4" NCoef="0" IVar="-1" Cut="0.0000000000000000e+00" cType="1" res="4.4848151504993439e-02" rms="1.3395246863365173e-01" purity="9.7485142946243286e-01" nType="-99"/>
            </Node>
            <Node pos="r" depth="3" NCoef="0" IVar="-1" Cut="0.0000000000000000e+00" cType="1" res="-6.1308536678552628e-03" rms="3.7895390391349792e-01" purity="4.3221402168273926e-01" nType="-99"/>
          </Node>
          <Node pos="r" depth="2" NCoef="0" IVar="-1" Cut="0.0000000000000000e+00" cType="1" res="-2.9525309801101685e-02" rms="2.7586883306503296e-01" purity="1.0222046822309494e-01" nType="-99"/>
        </Node>
        <Node pos="r" depth="1" NCoef="0" IVar="3" Cut="5.1441864967346191e+00" cType="1" res="-5.2540965378284454e-02" rms="1.9772009551525116e-01" purity="9.1971866786479950e-02" nType="0">
          <Node pos="l" depth="2" NCoef="0" IVar="7" Cut="4.8159593343734741e-01" cType="1" res="-6.2948308885097504e-02" rms="1.5212129056453705e-01" purity="3.6387756466865540e-02" nType="0">
            <Node pos="l" depth="3" NCoef="0" IVar="9" Cut="1.0149253606796265e+00" cType="1" res="-5.3021892905235291e-02" rms="2.2322358191013336e-01" purity="8.3927311003208160e-02" nType="0">
              <Node pos="l" depth="4" NCoef="0" IVar="-1" Cut="0.0000000000000000e+00" cType="1" res="-3.4794437233358622e-03" rms="3.4691992402076721e-01" purity="2.4241951107978821e-01" nType="-99"/>
              <Node pos="r" depth="4" NCoef="0" IVar="-1" Cut="0.0000000000000000e+00" cType="1" res="-3.9893329143524170e-02" rms="1.6471858322620392e-01" purity="3.4645710140466690e-02" nType="-99"/>
            </Node>
            <Node pos="r" depth="3" NCoef="0" IVar="6" Cut="6.4900678396224976e-01" cType="1" res="-6.9364957511425018e-02" rms="7.6055295765399933e-02" purity="5.6571732275187969e-03" nType="0">
              <Node pos="l" depth="4" NCoef="0" IVar="-1" Cut="0.0000000000000000e+00" cType="1" res="-5.0354976207017899e-02" rms="6.6984683275222778e-02" purity="4.5615392737090588e-03" nType="-99"/>
              <Node pos="r" depth="4" NCoef="0" IVar="-1" Cut="0.0000000000000000e+00" cType="1" res="-5.0580922514200211e-02" rms="1.0143483430147171e-01" purity="9.6847023814916611e-03" nType="-99"/>
            </Node>
          </Node>
          <Node pos="r" depth="2" NCoef="0" IVar="2" Cut="3.9799497462809086e-03" cType="1" res="6.3718669116497040e-03" rms="3.5399267077445984e-01" purity="4.0661680698394775e-01" nType="0">
            <Node pos="l" depth="3" NCoef="0" IVar="-1" Cut="0.0000000000000000e+00" cType="1" res="2.6449771597981453e-02" rms="3.5634261369705200e-01" purity="5.8592373132705688e-01" nType="-99"/>
            <Node pos="r" depth="3" NCoef="0" IVar="-1" Cut="0.0000000000000000e+00" cType="1" res="-2.4215387180447578e-02" rms="3.3241638541221619e-01" purity="2.3595124483108521e-01" nType="-99"/>
          </Node>
        </Node>
      </Node>
    </BinaryTree>
    <BinaryTree type="DecisionTree" boostWeight="1.0000000000000000e+00" itree="23">
      <Node pos="s" depth="0" NCoef="0" IVar="12" Cut="2.0051874220371246e-01" cType="1" res="4.6863693569321185e-05" rms="2.1247763931751251e-01" purity="5.0008827447891235e-01" nType="0">
        <Node pos="l" depth="1" NCoef="0" IVar="0" Cut="-5.6318030357360840e+00" cType="1" res="3.6131829023361206e-02" rms="2.1476787328720093e-01" purity="7.8882056474685669e-01" nType="0">
          <Node pos="l" depth="2" NCoef="0" IVar="1" Cut="4.3660935014486313e-02" cType="1" res="4.9149751663208008e-02" rms="2.0620711147785187e-01" purity="8.6539787054061890e-01" nType="0">
            <Node pos="l" depth="3" NCoef="0" IVar="2" Cut="2.3487597703933716e-02" cType="1" res="5.5114753544330597e-02" rms="1.9151364266872406e-01" purity="9.0516620874404907e-01" nType="0">
              <Node pos="l" depth="4" NCoef="0" IVar="-1" Cut="0.0000000000000000e+00" cType="1" res="3.9720740169286728e-02" rms="1.6816043853759766e-01" purity="9.3713974952697754e-01" nType="-99"/>
              <Node pos="r" depth="4" NCoef="0" IVar="-1" Cut="0.0000000000000000e+00" cType="1" res="3.4008496440947056e-03" rms="3.2009837031364441e-01" purity="6.4563584327697754e-01" nType="-99"/>
            </Node>
            <Node pos="r" depth="3" NCoef="0" IVar="-1" Cut="0.0000000000000000e+00" cType="1" res="-1.0382175445556641e-02" rms="3.3719253540039062e-01" purity="3.3467200398445129e-01" nType="-99"/>
          </Node>
          <Node pos="r" depth="2" NCoef="0" IVar="-1" Cut="0.0000000000000000e+00" cType="1" res="-3.0016880482435226e-02" rms="2.5056222081184387e-01" purity="1.7333389818668365e-01" nType="-99"/>
        </Node>
        <Node pos="r" depth="1" NCoef="0" IVar="4" Cut="1.1542772054672241e+00" cType="1" res="-5.2808668464422226e-02" rms="1.9751583039760590e-01" purity="7.7167063951492310e-02" nType="0">
          <Node pos="l" depth="2" NCoef="0" IVar="3" Cut="3.2071957588195801e+00" cType="1" res="-1.9689358770847321e-02" rms="2.9848617315292358e-01" purity="2.0902077853679657e-01" nType="0">
            <Node pos="l" depth="3" NCoef="0" IVar="-1" Cut="0.0000000000000000e+00" cType="1" res="-2.6672326028347015e-02" rms="2.4250780045986176e-01" purity="8.0758146941661835e-02" nType="-99"/>
            <Node pos="r" depth="3" NCoef="0" IVar="-1" Cut="0.0000000000000000e+00" cType="1" res="1.1504035443067551e-02" rms="3.5648125410079956e-01" purity="3.9107584953308105e-01" nType="-99"/>
          </Node>
          <Node pos="r" depth="2" NCoef="0" IVar="4" Cut="1.9035556316375732e+00" cType="1" res="-6.2987007200717926e-02" rms="1.5225173532962799e-01" purity="3.6645326763391495e-02" nType="0">
            <Node pos="l" depth="3" NCoef="0" IVar="-1" Cut="0.0000000000000000e+00" cType="1" res="-2.2010296583175659e-02" rms="2.4904902279376984e-01" purity="1.1988377571105957e-01" nType="-99"/>
            <Node pos="r" depth="3" NCoef="0" IVar="8" Cut="3.4564510345458984e+01" cType="1" res="-6.6503100097179413e-02" rms="1.1964005231857300e-01" purity="1.7788475379347801e-02" nType="0">
              <Node pos="l" depth="4" NCoef="0" IVar="-1" Cut="0.0000000000000000e+00" cType="1" res="-4.6600989997386932e-02" rms="1.0831631720066071e-01" purity="1.3004725798964500e-02" nType="-99"/>
              <Node pos="r" depth="4" NCoef="0" IVar="-1" Cut="0.0000000000000000e+00" cType="1" res="-4.7993488609790802e-02" rms="1.5128216147422791e-01" purity="3.4031249582767487e-02" nType="-99"/>
            </Node>
          </Node>
        </Node>
      </Node>
    </BinaryTree>
    <BinaryTree type="DecisionTree" boostWeight="1.0000000000000000e+00" itree="24">
      <Node pos="s" depth="0" NCoef="0" IVar="7" Cut="2.4875553324818611e-02" cType="1" res="3.5596622183220461e-05" rms="2.1065756678581238e-01" purity="5.0001376867294312e-01" nType="0">
        <Node pos="l" depth="1" NCoef="0" IVar="6" Cut="6.3953554630279541e-01" cType="1" res="4.3891027569770813e-02" rms="1.7924006283283234e-01" purity="8.9787524938583374e-01" nType="0">
          <Node pos="l" depth="2" NCoef="0" IVar="-1" Cut="0.0000000000000000e+00" cType="1" res="-7.0305536501109600e-03" rms="3.3588832616806030e-01" purity="3.7836396694183350e-01" nType="-99"/>
          <Node pos="r" depth="2" NCoef="0" IVar="6" Cut="7.6368260383605957e-01" cType="1" res="5.1706999540328979e-02" rms="1.4854660630226135e-01" purity="9.5890665054321289e-01" nType="0">
            <Node pos="l" depth="3" NCoef="0" IVar="-1" Cut="0.0000000000000000e+00" cType="1" res="2.2760195657610893e-02" rms="3.6549991369247437e-01" purity="6.5644240379333496e-01" nType="-99"/>
            <Node pos="r" depth="3" NCoef="0" IVar="9" Cut="1.0348259210586548e+00" cType="1" res="4.9546021968126297e-02" rms="1.1124616861343384e-01" purity="9.8502868413925171e-01" nType="0">
              <Node pos="l" depth="4" NCoef="0" IVar="-1" Cut="0.0000000000000000e+00" cType="1" res="4.6260762959718704e-02" rms="9.0183645486831665e-02" purity="9.9113899469375610e-01" nType="-99"/>
              <Node pos="r" depth="4" NCoef="0" IVar="-1" Cut="0.0000000000000000e+00" cType="1" res="2.9968015849590302e-02" rms="1.7167359590530396e-01" purity="9.6026456356048584e-01" nType="-99"/>
            </Node>
          </Node>
        </Node>
        <Node pos="r" depth="1" NCoef="0" IVar="1" Cut="2.5870593264698982e-02" cType="1" res="-3.6398440599441528e-02" rms="2.2721801698207855e-01" purity="1.6948001086711884e-01" nType="0">
          <Node pos="l" depth="2" NCoef="0" IVar="3" Cut="3.9913499355316162e+00" cType="1" res="-4.4849906116724014e-03" rms="2.8665950894355774e-01" purity="3.4285262227058411e-01" nType="0">
            <Node pos="l" depth="3" NCoef="0" IVar="6" Cut="6.3579994440078735e-01" cType="1" res="-4.2661260813474655e-02" rms="2.5074380636215210e-01" purity="1.5558090806007385e-01" nType="0">
              <Node pos="l" depth="4" NCoef="0" IVar="-1" Cut="0.0000000000000000e+00" cType="1" res="-3.7219755351543427e-02" rms="1.7203618586063385e-01" purity="3.7979472428560257e-02" nType="-99"/>
